{"learner":{"attributes":{"scikit_learn":"{\"_estimator_type\": \"classifier\"}"},"feature_names":["Persistent EPS in the Last Four Seasons","Net Income to Stockholder's Equity","Borrowing dependency","ROA(A) before interest and % after tax","Debt ratio %","Interest Expense Ratio","Equity to Liability","Interest Coverage Ratio (Interest expense to EBIT)","Retained Earnings to Total Assets","Degree of Financial Leverage (DFL)","Net Value Per Share (B)","ROA(C) before interest and depreciation before interest","Total income/Total expense","Pre-tax net Interest Rate","Non-industry income and expenditure/revenue","Current Liabilities/Equity","Working Capital to Total Assets","Current Liability to Current Assets","Tax rate (A)","Operating Profit Per Share (Yuan ¥)","Working Capital/Equity","Inventory/Working Capital","Operating profit per person","Working capitcal Turnover Rate","Current Liability to Assets","Operating Profit Rate","Cash/Total Assets","Operating Funds to Liability","Operating Gross Margin","Total Asset Growth Rate","gst_sentiment","call_sentiment","gst_delay_flag","call_stress_flag","unstructured_risk_score","structured_x_unstructured_risk"],"feature_types":["float","float","float","float","float","float","float","float","float","float","float","float","float","float","float","float","float","float","float","float","float","float","float","float","float","float","float","float","float","float","float","float","int","int","float","float"],"gradient_booster":{"model":{"cats":{"enc":[],"feature_segments":[],"sorted_idx":[]},"gbtree_model_param":{"num_parallel_tree":"1","num_trees":"300"},"iteration_indptr":[0,1,2,3,4,5,6,7,8,9,10,11,12,13,14,15,16,17,18,19,20,21,22,23,24,25,26,27,28,29,30,31,32,33,34,35,36,37,38,39,40,41,42,43,44,45,46,47,48,49,50,51,52,53,54,55,56,57,58,59,60,61,62,63,64,65,66,67,68,69,70,71,72,73,74,75,76,77,78,79,80,81,82,83,84,85,86,87,88,89,90,91,92,93,94,95,96,97,98,99,100,101,102,103,104,105,106,107,108,109,110,111,112,113,114,115,116,117,118,119,120,121,122,123,124,125,126,127,128,129,130,131,132,133,134,135,136,137,138,139,140,141,142,143,144,145,146,147,148,149,150,151,152,153,154,155,156,157,158,159,160,161,162,163,164,165,166,167,168,169,170,171,172,173,174,175,176,177,178,179,180,181,182,183,184,185,186,187,188,189,190,191,192,193,194,195,196,197,198,199,200,201,202,203,204,205,206,207,208,209,210,211,212,213,214,215,216,217,218,219,220,221,222,223,224,225,226,227,228,229,230,231,232,233,234,235,236,237,238,239,240,241,242,243,244,245,246,247,248,249,250,251,252,253,254,255,256,257,258,259,260,261,262,263,264,265,266,267,268,269,270,271,272,273,274,275,276,277,278,279,280,281,282,283,284,285,286,287,288,289,290,291,292,293,294,295,296,297,298,299,300],"tree_info":[0,0,0,0,0,0,0,0,0,0,0,0,0,0,0,0,0,0,0,0,0,0,0,0,0,0,0,0,0,0,0,0,0,0,0,0,0,0,0,0,0,0,0,0,0,0,0,0,0,0,0,0,0,0,0,0,0,0,0,0,0,0,0,0,0,0,0,0,0,0,0,0,0,0,0,0,0,0,0,0,0,0,0,0,0,0,0,0,0,0,0,0,0,0,0,0,0,0,0,0,0,0,0,0,0,0,0,0,0,0,0,0,0,0,0,0,0,0,0,0,0,0,0,0,0,0,0,0,0,0,0,0,0,0,0,0,0,0,0,0,0,0,0,0,0,0,0,0,0,0,0,0,0,0,0,0,0,0,0,0,0,0,0,0,0,0,0,0,0,0,0,0,0,0,0,0,0,0,0,0,0,0,0,0,0,0,0,0,0,0,0,0,0,0,0,0,0,0,0,0,0,0,0,0,0,0,0,0,0,0,0,0,0,0,0,0,0,0,0,0,0,0,0,0,0,0,0,0,0,0,0,0,0,0,0,0,0,0,0,0,0,0,0,0,0,0,0,0,0,0,0,0,0,0,0,0,0,0,0,0,0,0,0,0,0,0,0,0,0,0,0,0,0,0,0,0,0,0,0,0,0,0,0,0,0,0,0,0,0,0,0,0,0,0,0,0,0,0,0,0],"trees":[{"base_weights":[-7.2325945E-2,-1.6940016E0,1.6792837E0,3.7694406E-2,-1.9286673E0,1.7999051E0,-9.6666664E-2,1.4694419E0,-9.8000005E-2,8.4428877E-1,-1.9627435E0,1.8475455E0,-3.7992945E-1,-8.1818186E-2,8.543791E-2,-7.333334E-2,8.8233195E-2,3.060366E-2,-9.988201E-2,3.5285465E-2,9.459678E-2,-9.1836736E-2,8.8233195E-2],"categories":[],"categories_nodes":[],"categories_segments":[],"categories_sizes":[],"default_left":[0,0,0,0,0,0,0,0,0,0,0,0,0,0,0,0,0,0,0,0,0,0,0],"id":0,"left_children":[1,3,5,7,9,11,-1,13,-1,15,17,19,21,-1,-1,-1,-1,-1,-1,-1,-1,-1,-1],"loss_changes":[5.3979297E3,4.01052E2,4.0158057E2,3.4249347E2,8.377026E1,9.256372E1,0E0,5.463022E1,0E0,2.6513092E1,7.838306E1,4.255078E1,6.494051E1,0E0,0E0,0E0,0E0,0E0,0E0,0E0,0E0,0E0,0E0],"parents":[2147483647,0,0,1,1,2,2,3,3,4,4,5,5,7,7,9,9,10,10,11,11,12,12],"right_children":[2,4,6,8,10,12,-1,14,-1,16,18,20,22,-1,-1,-1,-1,-1,-1,-1,-1,-1,-1],"split_conditions":[1E0,7.3094547E-1,9.4019043E-1,4.325E-1,3.0108675E-1,5.065568E-1,-9.6666664E-2,3.7916672E-1,-9.8000005E-2,3.8013187E-1,2.6523328E-1,1.0130907E-1,9.4004786E-1,-8.1818186E-2,8.543791E-2,-7.333334E-2,8.8233195E-2,3.060366E-2,-9.988201E-2,3.5285465E-2,9.459678E-2,-9.1836736E-2,8.8233195E-2],"split_indices":[32,20,8,31,14,11,0,2,0,2,21,4,8,0,0,0,0,0,0,0,0,0,0],"split_type":[0,0,0,0,0,0,0,0,0,0,0,0,0,0,0,0,0,0,0,0,0,0,0],"sum_hessian":[1.8983151E3,9.8573486E2,9.1258026E2,1.1773788E2,8.6799695E2,8.8358026E2,2.9E1,6.873788E1,4.9E1,1.0248485E1,8.577485E2,8.648318E2,1.8748486E1,4.5E0,6.423788E1,2.75E0,7.4984846E0,1.1248485E1,8.465E2,3.2995453E1,8.3183636E2,1.125E1,7.4984846E0],"tree_param":{"num_deleted":"0","num_feature":"36","num_nodes":"23","size_leaf_vector":"1"}},{"base_weights":[-2.9864388E-3,-1.4766104E0,1.6049665E0,1.621561E0,-1.6620395E0,1.7603166E0,-8.4759957E-1,-7.789418E-2,9.5835514E-2,-2.7544444E-2,-1.8700342E0,3.5552073E-1,1.8009715E0,-9.324666E-2,6.3382804E-1,-9.217355E-2,3.0750075E-2,3.7733484E-2,-9.517866E-2,8.913804E-2,-9.174792E-2,9.05567E-2,-7.1178444E-2,7.049449E-2,-8.209961E-2],"categories":[],"categories_nodes":[],"categories_segments":[],"categories_sizes":[],"default_left":[0,0,0,0,0,0,0,0,0,0,0,0,0,0,0,0,0,0,0,0,0,0,0,0,0],"id":1,"left_children":[1,3,5,7,9,11,13,-1,-1,15,17,19,21,-1,23,-1,-1,-1,-1,-1,-1,-1,-1,-1,-1],"loss_changes":[4.63312E3,5.888286E2,3.577461E2,5.75282E1,3.27385E2,4.9598633E1,8.6143265E1,0E0,0E0,1.2918272E2,7.6649414E1,8.4516716E1,3.058545E1,0E0,4.417002E1,0E0,0E0,0E0,0E0,0E0,0E0,0E0,0E0,0E0,0E0],"parents":[2147483647,0,0,1,1,2,2,3,3,4,4,5,5,6,6,9,9,10,10,11,11,12,12,14,14],"right_children":[2,4,6,8,10,12,14,-1,-1,16,18,20,22,-1,24,-1,-1,-1,-1,-1,-1,-1,-1,-1,-1],"split_conditions":[1E0,-3.182E-1,9.3752354E-1,3.7906048E-1,1.9769311E-1,9.601838E-2,2.4739346E-1,-7.789418E-2,9.5835514E-2,8.17523E-2,2.6523328E-1,5.9137493E-1,2.006658E-1,-9.324666E-2,7.977765E-1,-9.217355E-2,3.0750075E-2,3.7733484E-2,-9.517866E-2,8.913804E-2,-9.174792E-2,9.05567E-2,-7.1178444E-2,7.049449E-2,-8.209961E-2],"split_indices":[32,31,8,2,0,4,18,0,0,19,21,28,10,0,16,0,0,0,0,0,0,0,0,0,0],"split_type":[0,0,0,0,0,0,0,0,0,0,0,0,0,0,0,0,0,0,0,0,0,0,0,0,0],"sum_hessian":[1.9533005E3,1.019266E3,9.340345E2,5.7121887E1,9.621441E2,8.786607E2,5.5373753E1,4.4887953E0,5.263309E1,1.0874222E2,8.534019E2,2.4987396E1,8.5367334E2,3.267567E1,2.269808E1,2.7932364E1,8.080985E1,1.0496027E1,8.429059E2,1.5242224E1,9.745172E0,8.514283E2,2.245038E0,1.7209932E1,5.4881477E0],"tree_param":{"num_deleted":"0","num_feature":"36","num_nodes":"25","size_leaf_vector":"1"}},{"base_weights":[-5.7293788E-2,-1.4650339E0,1.5208492E0,2.588526E-1,-1.6983863E0,1.6677449E0,-1.2246542E0,-9.0561904E-2,9.5998347E-1,4.1564673E-1,-1.789309E0,1.7083802E0,-2.7218163E-1,-9.038834E-2,8.0694854E-2,6.869779E-2,-8.591104E-2,-8.730682E-2,7.44382E-2,7.875706E-2,-9.1147415E-2,8.5799E-2,-6.185422E-2,-8.697697E-2,8.303394E-2],"categories":[],"categories_nodes":[],"categories_segments":[],"categories_sizes":[],"default_left":[0,0,0,0,0,0,0,0,0,0,0,0,0,0,0,0,0,0,0,0,0,0,0,0,0],"id":2,"left_children":[1,3,5,7,9,11,13,-1,15,17,19,21,23,-1,-1,-1,-1,-1,-1,-1,-1,-1,-1,-1,-1],"loss_changes":[4.2509307E3,4.072583E2,3.658777E2,1.779977E2,1.71979E2,6.800171E1,7.970758E1,0E0,1.0366172E2,8.970205E1,9.956006E1,2.0910889E1,5.5189583E1,0E0,0E0,0E0,0E0,0E0,0E0,0E0,0E0,0E0,0E0,0E0,0E0],"parents":[2147483647,0,0,1,1,2,2,3,3,4,4,5,5,6,6,8,8,9,9,10,10,11,11,12,12],"right_children":[2,4,6,8,10,12,14,-1,16,18,20,22,24,-1,-1,-1,-1,-1,-1,-1,-1,-1,-1,-1,-1],"split_conditions":[1E0,8.367909E-1,2.268129E-1,-5.106E-1,2.7540076E-1,4.312523E-2,3.8574606E-1,-9.0561904E-2,8.255E-1,3.7906048E-1,7.172538E-1,3.6214566E-1,2.8939956E-1,-9.038834E-2,8.0694854E-2,6.869779E-2,-8.591104E-2,-8.730682E-2,7.44382E-2,7.875706E-2,-9.1147415E-2,8.5799E-2,-6.185422E-2,-8.697697E-2,8.303394E-2],"split_indices":[32,1,0,30,21,6,2,0,31,2,20,27,6,0,0,0,0,0,0,0,0,0,0,0,0],"split_type":[0,0,0,0,0,0,0,0,0,0,0,0,0,0,0,0,0,0,0,0,0,0,0,0,0],"sum_hessian":[1.9114387E3,1.0102997E3,9.01139E2,1.2044026E2,8.898594E2,8.5574567E2,4.5393345E1,3.0071316E1,9.036895E1,3.6546646E1,8.5331274E2,8.383052E2,1.744045E1,3.795876E1,7.4345846E0,7.869238E1,1.1676562E1,1.1915612E1,2.4631035E1,7.993671E0,8.453191E2,8.365641E2,1.7410941E0,9.970913E0,7.4695377E0],"tree_param":{"num_deleted":"0","num_feature":"36","num_nodes":"25","size_leaf_vector":"1"}},{"base_weights":[1.892277E-2,-1.326567E0,1.4801471E0,-1.7049689E-2,-1.6839776E0,1.6120965E0,-1.1707693E0,1.2178066E0,-9.1170794E-1,7.072221E-2,-1.7180244E0,1.1661835E0,1.701406E0,-8.716511E-2,7.24693E-2,-8.2722925E-2,8.3440825E-2,-7.5000726E-2,4.8375107E-2,5.3250816E-2,-8.754354E-2,6.914121E-2,-9.614E-2,8.5369684E-2,5.332316E-2],"categories":[],"categories_nodes":[],"categories_segments":[],"categories_sizes":[],"default_left":[0,0,0,0,0,0,0,0,0,0,0,0,0,0,0,0,0,0,0,0,0,0,0,0,0],"id":3,"left_children":[1,3,5,7,9,11,13,15,17,-1,19,21,23,-1,-1,-1,-1,-1,-1,-1,-1,-1,-1,-1,-1],"loss_changes":[3.8428284E3,4.7624243E2,3.2963306E2,2.4327228E2,8.675952E1,3.357788E1,7.004198E1,1.2260985E2,1.4260645E2,0E0,7.418701E1,1.0450116E2,9.992676E-1,0E0,0E0,0E0,0E0,0E0,0E0,0E0,0E0,0E0,0E0,0E0,0E0],"parents":[2147483647,0,0,1,1,2,2,3,3,4,4,5,5,6,6,7,7,8,8,10,10,11,11,12,12],"right_children":[2,4,6,8,10,12,14,16,18,-1,20,22,24,-1,-1,-1,-1,-1,-1,-1,-1,-1,-1,-1,-1],"split_conditions":[1E0,2.0620213E-1,2.2624563E-1,5.903E-1,7.172538E-1,1.4221363E-1,3.8842788E-1,1.5536475E-1,6.191571E-1,7.072221E-2,-6.808E-1,2.687742E-2,6.298208E-1,-8.716511E-2,7.24693E-2,-8.2722925E-2,8.3440825E-2,-7.5000726E-2,4.8375107E-2,5.3250816E-2,-8.754354E-2,6.914121E-2,-9.614E-2,8.5369684E-2,5.332316E-2],"split_indices":[32,0,0,31,20,4,2,4,28,0,31,9,18,0,0,0,0,0,0,0,0,0,0,0,0],"split_type":[0,0,0,0,0,0,0,0,0,0,0,0,0,0,0,0,0,0,0,0,0,0,0,0,0],"sum_hessian":[1.9525824E3,1.01659644E3,9.359859E2,2.1819589E2,7.984005E2,8.919795E2,4.400642E1,9.151739E1,1.26678505E2,8.237112E0,7.9016345E2,1.5118513E2,7.407944E2,3.6389557E1,7.616864E0,1.2057923E1,7.9459465E1,9.6629425E1,3.0049078E1,8.850433E0,7.81313E2,1.4179305E2,9.392085E0,7.322005E2,8.593855E0],"tree_param":{"num_deleted":"0","num_feature":"36","num_nodes":"25","size_leaf_vector":"1"}},{"base_weights":[6.8678036E-3,1.0234165E0,-1.0995461E0,-1.0042397E0,1.4634864E0,4.625975E-1,-1.3723954E0,8.6114824E-1,-1.5124264E0,1.5595676E0,-8.2462564E-2,-8.326961E-2,9.3746424E-1,2.5210124E-1,-1.5166566E0,6.974601E-2,-7.725515E-2,7.472705E-2,-8.4283866E-2,7.89878E-2,-7.752209E-2,6.226321E-2,-8.048073E-2,-8.135276E-2,6.329189E-2,-8.080194E-2,-2.987795E-2],"categories":[],"categories_nodes":[],"categories_segments":[],"categories_sizes":[],"default_left":[0,0,0,0,0,0,0,0,0,0,0,0,0,0,0,0,0,0,0,0,0,0,0,0,0,0,0],"id":4,"left_children":[1,3,5,7,9,11,13,15,17,19,-1,-1,21,23,25,-1,-1,-1,-1,-1,-1,-1,-1,-1,-1,-1,-1],"loss_changes":[2.173707E3,9.002324E2,3.950797E2,1.7213779E2,2.5021191E2,1.4136737E2,1.8506934E2,5.253041E1,7.649121E1,5.291284E1,0E0,0E0,9.118389E1,1.26136925E2,6.516052E1,0E0,0E0,0E0,0E0,0E0,0E0,0E0,0E0,0E0,0E0,0E0,0E0],"parents":[2147483647,0,0,1,1,2,2,3,3,4,4,5,5,6,6,7,7,8,8,9,9,12,12,13,13,14,14],"right_children":[2,4,6,8,10,12,14,16,18,20,-1,-1,22,24,26,-1,-1,-1,-1,-1,-1,-1,-1,-1,-1,-1,-1],"split_conditions":[5.903E-1,1E0,1.6000168E-1,1.6000168E-1,9.4019043E-1,-5.106E-1,7.992519E-3,2.2996632E-2,2.1180022E-3,2.006658E-1,-8.2462564E-2,-8.326961E-2,8.398E-1,6.3254166E-1,1.3337192E-1,6.974601E-2,-7.725515E-2,7.472705E-2,-8.4283866E-2,7.89878E-2,-7.752209E-2,6.226321E-2,-8.048073E-2,-8.135276E-2,6.329189E-2,-8.080194E-2,-2.987795E-2],"split_indices":[31,33,10,10,8,30,26,26,26,10,0,0,31,5,35,0,0,0,0,0,0,0,0,0,0,0,0],"split_type":[0,0,0,0,0,0,0,0,0,0,0,0,0,0,0,0,0,0,0,0,0,0,0,0,0,0,0],"sum_hessian":[1.9306583E3,1.0062308E3,9.244276E2,1.7921266E2,8.2701807E2,1.3735187E2,7.8707574E2,3.8221058E1,1.4099161E2,8.0273883E2,2.4279236E1,2.4601168E1,1.127507E2,6.41335E1,7.229422E2,3.1625874E1,6.5951858E0,7.26542E0,1.3372618E2,7.980504E2,4.68843E0,1.0105043E2,1.1700266E1,2.226185E1,4.187165E1,6.51714E2,7.122825E1],"tree_param":{"num_deleted":"0","num_feature":"36","num_nodes":"27","size_leaf_vector":"1"}},{"base_weights":[3.2607574E-2,-1.2598714E0,1.3966379E0,-4.9348203E-3,-1.6053433E0,1.5120338E0,-6.295083E-1,1.0738989E0,-8.1648684E-1,6.5215714E-2,-8.190213E-2,1.5227234E0,-7.142696E-2,-8.1324264E-2,1.2166622E0,-8.111532E-2,8.446051E-2,-6.881633E-2,4.463039E-2,7.650861E-2,-7.328739E-2,-6.2092364E-2,8.123747E-2],"categories":[],"categories_nodes":[],"categories_segments":[],"categories_sizes":[],"default_left":[0,0,0,0,0,0,0,0,0,0,0,0,0,0,0,0,0,0,0,0,0,0,0],"id":5,"left_children":[1,3,5,7,9,11,13,15,17,-1,-1,19,-1,-1,21,-1,-1,-1,-1,-1,-1,-1,-1],"loss_changes":[3.388615E3,4.2787805E2,2.1959851E2,1.8828394E2,7.57677E1,2.9995605E1,9.602596E1,1.5590753E2,1.186545E2,0E0,0E0,2.1884155E1,0E0,0E0,2.0567888E1,0E0,0E0,0E0,0E0,0E0,0E0,0E0,0E0],"parents":[2147483647,0,0,1,1,2,2,3,3,4,4,5,5,6,6,7,7,8,8,11,11,14,14],"right_children":[2,4,6,8,10,12,14,16,18,-1,-1,20,-1,-1,22,-1,-1,-1,-1,-1,-1,-1,-1],"split_conditions":[1E0,2.0620213E-1,2.268129E-1,5.903E-1,7.172538E-1,5.1996297E-1,6.312691E-1,1E0,6.2102365E-1,6.5215714E-2,-8.190213E-2,6.298208E-1,-7.142696E-2,-8.1324264E-2,8.4171844E-1,-8.111532E-2,8.446051E-2,-6.881633E-2,4.463039E-2,7.650861E-2,-7.328739E-2,-6.2092364E-2,8.123747E-2],"split_indices":[32,0,0,31,20,11,5,33,28,0,0,18,0,0,1,0,0,0,0,0,0,0,0],"split_type":[0,0,0,0,0,0,0,0,0,0,0,0,0,0,0,0,0,0,0,0,0,0,0],"sum_hessian":[1.9200964E3,9.8594574E2,9.3415076E2,2.1304999E2,7.728957E2,8.8405457E2,5.0096172E1,9.1324646E1,1.2172535E2,8.157241E0,7.6473846E2,8.813329E2,2.7216756E0,3.2606735E1,1.7489433E1,1.66649E1,7.4659744E1,9.183734E1,2.9888006E1,8.7962836E2,1.7045152E0,2.1989334E0,1.5290501E1],"tree_param":{"num_deleted":"0","num_feature":"36","num_nodes":"23","size_leaf_vector":"1"}},{"base_weights":[-5.937988E-2,-1.1709054E0,1.2958199E0,-1.5261655E0,7.088161E-2,1.426721E0,-1.0179858E0,1.1112227E0,-1.559568E0,9.448432E-1,-8.942875E-1,1.0751953E-1,1.4747344E0,-8.064468E-2,7.299498E-2,8.184714E-2,-4.9693078E-2,-7.972398E-2,-9.991224E-3,-2.6438674E-2,6.4358674E-2,3.4939624E-2,-7.8918666E-2,7.801743E-2,-8.808675E-2,7.456132E-2,-8.843549E-2],"categories":[],"categories_nodes":[],"categories_segments":[],"categories_sizes":[],"default_left":[0,0,0,0,0,0,0,0,0,0,0,0,0,0,0,0,0,0,0,0,0,0,0,0,0,0,0],"id":6,"left_children":[1,3,5,7,9,11,13,15,17,19,21,23,25,-1,-1,-1,-1,-1,-1,-1,-1,-1,-1,-1,-1,-1,-1],"loss_changes":[2.6809443E3,4.3145715E2,2.4436194E2,6.871277E1,1.8511879E2,4.794629E1,6.651763E1,1.2796462E1,3.534204E1,5.876062E1,1.1479754E2,7.810883E1,4.1831665E1,0E0,0E0,0E0,0E0,0E0,0E0,0E0,0E0,0E0,0E0,0E0,0E0,0E0,0E0],"parents":[2147483647,0,0,1,1,2,2,3,3,4,4,5,5,6,6,7,7,8,8,9,9,10,10,11,11,12,12],"right_children":[2,4,6,8,10,12,14,16,18,20,22,24,26,-1,-1,-1,-1,-1,-1,-1,-1,-1,-1,-1,-1,-1,-1],"split_conditions":[1E0,3.7916672E-1,5.065568E-1,1.2140993E-3,2.7697486E-1,9.1846295E-2,3.250329E-1,1.9476222E-1,2.8000358E-1,-5.106E-1,8.361686E-1,1.7716238E-2,4.4933698E-1,-8.064468E-2,7.299498E-2,8.184714E-2,-4.9693078E-2,-7.972398E-2,-9.991224E-3,-2.6438674E-2,6.4358674E-2,3.4939624E-2,-7.8918666E-2,7.801743E-2,-8.808675E-2,7.456132E-2,-8.843549E-2],"split_indices":[32,2,11,26,21,4,18,0,21,30,1,4,18,0,0,0,0,0,0,0,0,0,0,0,0,0,0],"split_type":[0,0,0,0,0,0,0,0,0,0,0,0,0,0,0,0,0,0,0,0,0,0,0,0,0,0,0],"sum_hessian":[1.7777677E3,9.767666E2,8.0100116E2,7.593086E2,2.1745798E2,7.584747E2,4.2526485E1,9.092815E0,7.5021576E2,1.1413221E2,1.03325775E2,2.6749651E1,7.3172504E2,3.457465E1,7.9518356E0,7.453722E0,1.6390933E0,7.3126776E2,1.894801E1,2.1412775E1,9.271944E1,3.1033747E1,7.229202E1,1.5144355E1,1.1605296E1,7.285607E2,3.164294E0],"tree_param":{"num_deleted":"0","num_feature":"36","num_nodes":"27","size_leaf_vector":"1"}},{"base_weights":[6.0892217E-3,-1.1787082E0,1.3046064E0,3.679645E-1,-1.4044935E0,1.4082329E0,-7.655179E-2,1.0021158E0,-9.520196E-1,1.2256126E0,-1.5155154E0,1.4211711E0,-7.666504E-2,-7.31042E-2,6.3469775E-2,7.414279E-2,-7.854497E-2,-6.657864E-2,8.065961E-2,4.403925E-2,-7.741942E-2,7.161908E-2,-7.372617E-2],"categories":[],"categories_nodes":[],"categories_segments":[],"categories_sizes":[],"default_left":[0,0,0,0,0,0,0,0,0,0,0,0,0,0,0,0,0,0,0,0,0,0,0],"id":7,"left_children":[1,3,5,7,9,11,-1,13,15,17,19,21,-1,-1,-1,-1,-1,-1,-1,-1,-1,-1,-1],"loss_changes":[2.7982185E3,3.3264148E2,2.5714648E2,1.0302912E2,2.4425061E2,3.4059692E1,0E0,5.6428604E1,6.2734173E1,3.6018803E1,6.414148E1,2.9203125E1,0E0,0E0,0E0,0E0,0E0,0E0,0E0,0E0,0E0,0E0,0E0],"parents":[2147483647,0,0,1,1,2,2,3,3,4,4,5,5,7,7,8,8,9,9,10,10,11,11],"right_children":[2,4,6,8,10,12,-1,14,16,18,20,22,-1,-1,-1,-1,-1,-1,-1,-1,-1,-1,-1],"split_conditions":[1E0,1.5877965E-1,5.659071E-1,6.319E-1,-3.182E-1,9.990888E-1,-7.655179E-2,3.7400886E-1,1.2140993E-3,3.7906048E-1,2.6523328E-1,8.773737E-1,-7.666504E-2,-7.31042E-2,6.3469775E-2,7.414279E-2,-7.854497E-2,-6.657864E-2,8.065961E-2,4.403925E-2,-7.741942E-2,7.161908E-2,-7.372617E-2],"split_indices":[32,10,3,31,31,25,0,2,26,2,21,16,0,0,0,0,0,0,0,0,0,0,0],"split_type":[0,0,0,0,0,0,0,0,0,0,0,0,0,0,0,0,0,0,0,0,0,0,0],"sum_hessian":[1.816821E3,9.500581E2,8.6676294E2,1.20943344E2,8.2911475E2,8.3669006E2,3.0072872E1,8.1857765E1,3.908558E1,3.3174427E1,7.9594037E2,8.3354065E2,3.1493962E0,7.572492E0,7.428527E1,7.638235E0,3.1447346E1,4.045735E0,2.912869E1,1.0422055E1,7.855183E2,8.3082947E2,2.7111588E0],"tree_param":{"num_deleted":"0","num_feature":"36","num_nodes":"23","size_leaf_vector":"1"}},{"base_weights":[-1.9965973E-2,-1.0741785E0,1.231391E0,4.7014722E-1,-1.3309945E0,1.3561957E0,-6.009797E-1,1.0664908E0,-9.4817156E-1,1.146068E0,-1.4122139E0,1.3856701E0,-8.487504E-2,-7.593068E-2,6.499059E-1,-7.064231E-2,6.517734E-2,7.147238E-2,-7.661195E-2,-6.2853515E-2,7.8476064E-2,6.170656E-2,-7.209604E-2,-7.662532E-2,7.007517E-2,6.927451E-2,-7.1509875E-2],"categories":[],"categories_nodes":[],"categories_segments":[],"categories_sizes":[],"default_left":[0,0,0,0,0,0,0,0,0,0,0,0,0,0,0,0,0,0,0,0,0,0,0,0,0,0,0],"id":8,"left_children":[1,3,5,7,9,11,13,15,17,19,21,23,-1,-1,25,-1,-1,-1,-1,-1,-1,-1,-1,-1,-1,-1,-1],"loss_changes":[2.3074824E3,3.7714612E2,1.8372095E2,1.1612746E2,1.6543408E2,6.9776245E1,6.0324883E1,5.8433372E1,5.8870953E1,2.8840672E1,6.379431E1,3.6454224E1,0E0,0E0,3.652405E1,0E0,0E0,0E0,0E0,0E0,0E0,0E0,0E0,0E0,0E0,0E0,0E0],"parents":[2147483647,0,0,1,1,2,2,3,3,4,4,5,5,6,6,7,7,8,8,9,9,10,10,11,11,14,14],"right_children":[2,4,6,8,10,12,14,16,18,20,22,24,-1,-1,26,-1,-1,-1,-1,-1,-1,-1,-1,-1,-1,-1,-1],"split_conditions":[1E0,1.5877965E-1,9.381988E-1,6.319E-1,-3.182E-1,3.5977992E-1,2.4739346E-1,3.742236E-1,1.2140993E-3,3.7906048E-1,5.9366345E-1,6.9685884E-2,-8.487504E-2,-7.593068E-2,7.347915E-1,-7.064231E-2,6.517734E-2,7.147238E-2,-7.661195E-2,-6.2853515E-2,7.8476064E-2,6.170656E-2,-7.209604E-2,-7.662532E-2,7.007517E-2,6.927451E-2,-7.1509875E-2],"split_indices":[32,10,8,31,31,27,18,2,26,2,23,4,0,0,20,0,0,0,0,0,0,0,0,0,0,0,0],"split_type":[0,0,0,0,0,0,0,0,0,0,0,0,0,0,0,0,0,0,0,0,0,0,0,0,0,0,0],"sum_hessian":[1.7471555E3,9.483525E2,7.988031E2,1.3510255E2,8.1324994E2,7.4810846E2,5.069461E1,9.52866E1,3.9815952E1,2.5402548E1,7.8784735E2,7.4149774E2,6.6107345E0,2.9119144E1,2.1575466E1,7.8826847E0,8.740391E1,7.5665746E0,3.224938E1,3.5106502E0,2.1891897E1,8.295813E0,7.795516E2,3.484504E0,7.3801324E2,1.6185678E1,5.389788E0],"tree_param":{"num_deleted":"0","num_feature":"36","num_nodes":"27","size_leaf_vector":"1"}},{"base_weights":[1.49772605E-2,-1.1296595E0,1.2317137E0,1.2674763E0,-1.2393787E0,1.3348522E0,-5.069063E-1,-6.1472543E-2,7.6968916E-2,1.9873522E-1,-1.356792E0,1.3596994E0,-2.4294491E-1,-7.51824E-2,7.7486865E-2,6.2433332E-2,-7.494507E-2,1.3054347E-3,-7.368817E-2,6.9257036E-2,-8.989892E-3,-9.8087244E-2,6.436888E-2],"categories":[],"categories_nodes":[],"categories_segments":[],"categories_sizes":[],"default_left":[0,0,0,0,0,0,0,0,0,0,0,0,0,0,0,0,0,0,0,0,0,0,0],"id":9,"left_children":[1,3,5,7,9,11,13,-1,-1,15,17,19,21,-1,-1,-1,-1,-1,-1,-1,-1,-1,-1],"loss_changes":[2.423877E3,2.3743213E2,1.5195325E2,2.8875519E1,1.4515063E2,3.1562012E1,1.0066078E2,0E0,0E0,1.1886362E2,1.283772E2,3.0973633E1,3.724449E1,0E0,0E0,0E0,0E0,0E0,0E0,0E0,0E0,0E0,0E0],"parents":[2147483647,0,0,1,1,2,2,3,3,4,4,5,5,6,6,9,9,10,10,11,11,12,12],"right_children":[2,4,6,8,10,12,14,-1,-1,16,18,20,22,-1,-1,-1,-1,-1,-1,-1,-1,-1,-1],"split_conditions":[1E0,-3.182E-1,5.062643E-1,1.6630891E-1,7.295427E-1,7.55E9,3.250329E-1,-6.1472543E-2,7.6968916E-2,4.325E-1,3.8232967E-1,2.7067518E-1,6.135574E-1,-7.51824E-2,7.7486865E-2,6.2433332E-2,-7.494507E-2,1.3054347E-3,-7.368817E-2,6.9257036E-2,-8.989892E-3,-9.8087244E-2,6.436888E-2],"split_indices":[32,31,11,4,20,29,18,0,0,31,22,18,28,0,0,0,0,0,0,0,0,0,0],"split_type":[0,0,0,0,0,0,0,0,0,0,0,0,0,0,0,0,0,0,0,0,0,0,0],"sum_hessian":[1.7383899E3,8.957709E2,8.42619E2,3.8743954E1,8.57027E2,7.9565155E2,4.696746E1,3.4588654E0,3.528509E1,6.463726E1,7.923897E2,7.83452E2,1.2199539E1,3.1816597E1,1.5150866E1,4.0100758E1,2.4536507E1,6.18572E1,7.305325E2,7.7081396E2,1.2638008E1,5.6131487E0,6.5863905E0],"tree_param":{"num_deleted":"0","num_feature":"36","num_nodes":"23","size_leaf_vector":"1"}},{"base_weights":[1.2763401E-2,-1.1276E0,1.2024716E0,2.0062683E-2,-1.3781978E0,-7.8958474E-2,1.2674127E0,7.781093E-1,-7.407613E-2,-7.18611E-2,9.881225E-1,1.3386711E0,-2.471182E-1,-2.1442184E-2,7.805344E-2,-5.846368E-2,7.450541E-2,6.856201E-2,2.5050119E-2,-7.3553704E-2,7.43952E-2],"categories":[],"categories_nodes":[],"categories_segments":[],"categories_sizes":[],"default_left":[0,0,0,0,0,0,0,0,0,0,0,0,0,0,0,0,0,0,0,0,0],"id":10,"left_children":[1,3,5,7,9,-1,11,13,-1,-1,15,17,19,-1,-1,-1,-1,-1,-1,-1,-1],"loss_changes":[2.3091985E3,2.4997192E2,1.5247815E2,1.7956572E2,1.0105029E2,0E0,8.824036E1,9.9717865E1,0E0,0E0,2.118442E1,2.0541382E1,8.171052E1,0E0,0E0,0E0,0E0,0E0,0E0,0E0,0E0],"parents":[2147483647,0,0,1,1,2,2,3,3,4,4,6,6,7,7,10,10,11,11,12,12],"right_children":[2,4,6,8,10,-1,12,14,-1,-1,16,18,20,-1,-1,-1,-1,-1,-1,-1,-1],"split_conditions":[1E0,8.38271E-1,1.9206451E-2,6.319E-1,6.244E-1,-7.8958474E-2,5.065568E-1,1E0,-7.407613E-2,-7.18611E-2,6.3262594E-1,9.3625015E-1,3.250329E-1,-2.1442184E-2,7.805344E-2,-5.846368E-2,7.450541E-2,6.856201E-2,2.5050119E-2,-7.3553704E-2,7.43952E-2],"split_indices":[32,1,17,31,34,0,11,33,0,0,5,8,18,0,0,0,0,0,0,0,0],"split_type":[0,0,0,0,0,0,0,0,0,0,0,0,0,0,0,0,0,0,0,0,0],"sum_hessian":[1.7000712E3,8.680638E2,8.320074E2,1.5574022E2,7.1232355E2,1.844921E1,8.1355817E2,1.03813675E2,5.1926544E1,6.953712E2,1.6952356E1,7.771113E2,3.6446815E1,4.1024925E1,6.278875E1,2.9490132E0,1.4003344E1,7.474144E2,2.9696926E1,2.1460108E1,1.498671E1],"tree_param":{"num_deleted":"0","num_feature":"36","num_nodes":"21","size_leaf_vector":"1"}},{"base_weights":[1.7308563E-2,-8.6690557E-1,1.1531042E0,3.9717284E-1,-1.3281927E0,1.2440231E0,-6.994184E-2,-6.9837517E-1,1.2700273E0,2.9199037E-1,-1.3830364E0,3.0052248E-1,1.3081173E0,3.6122665E-2,-5.8927305E-2,-6.5490775E-2,7.103728E-2,-6.179416E-2,5.317505E-2,-3.5054322E-2,-7.0565246E-2,7.656624E-2,-9.4018385E-2,6.587141E-2,-7.2718106E-2],"categories":[],"categories_nodes":[],"categories_segments":[],"categories_sizes":[],"default_left":[0,0,0,0,0,0,0,0,0,0,0,0,0,0,0,0,0,0,0,0,0,0,0,0,0],"id":11,"left_children":[1,3,5,7,9,11,-1,13,15,17,19,21,23,-1,-1,-1,-1,-1,-1,-1,-1,-1,-1,-1,-1],"loss_changes":[1.6544357E3,5.406468E2,1.690484E2,2.3843729E2,6.0725708E1,4.1745483E1,0E0,7.6444885E1,5.575882E1,2.8488659E1,1.1672485E1,1.25344315E2,1.869104E1,0E0,0E0,0E0,0E0,0E0,0E0,0E0,0E0,0E0,0E0,0E0,0E0],"parents":[2147483647,0,0,1,1,2,2,3,3,4,4,5,5,7,7,8,8,9,9,10,10,11,11,12,12],"right_children":[2,4,6,8,10,12,-1,14,16,18,20,22,24,-1,-1,-1,-1,-1,-1,-1,-1,-1,-1,-1,-1],"split_conditions":[5.765E-1,2.0582396E-1,9.4019043E-1,-2.732E-1,4.9875034E-3,3.2953906E-1,-6.994184E-2,7.7308123E-3,3.855E-1,6.3254166E-1,5.6314456E-1,8.852358E-1,9.990888E-1,3.6122665E-2,-5.8927305E-2,-6.5490775E-2,7.103728E-2,-6.179416E-2,5.317505E-2,-3.5054322E-2,-7.0565246E-2,7.656624E-2,-9.4018385E-2,6.587141E-2,-7.2718106E-2],"split_indices":[34,0,8,30,26,15,0,26,34,5,7,8,25,0,0,0,0,0,0,0,0,0,0,0,0],"split_type":[0,0,0,0,0,0,0,0,0,0,0,0,0,0,0,0,0,0,0,0,0,0,0,0,0],"sum_hessian":[1.6453789E3,9.252842E2,7.200947E2,2.4741762E2,6.778666E2,6.9581714E2,2.4277609E1,1.0980175E2,1.3761586E2,2.2053078E1,6.558135E2,4.4623585E1,6.5119354E2,2.7607227E1,8.219453E1,7.1714664E0,1.304444E2,7.1974974E0,1.485558E1,2.713E1,6.286835E2,2.8715572E1,1.5908012E1,6.4952747E2,1.666106E0],"tree_param":{"num_deleted":"0","num_feature":"36","num_nodes":"25","size_leaf_vector":"1"}},{"base_weights":[4.5142327E-2,-9.2505485E-1,1.161549E0,4.9465612E-1,-1.2054596E0,1.2549508E0,-4.1616952E-1,-6.077732E-1,1.171123E0,-6.2756486E-2,-1.3211441E0,-5.823135E-2,1.2697511E0,-6.869446E-2,7.1879023E-1,2.379538E-2,-7.2895795E-2,6.57113E-2,-6.7183785E-2,-6.786092E-2,4.0679913E-2,4.882091E-2,-6.7909084E-2,6.4066164E-2,-6.289705E-2,6.5653466E-2,-6.490062E-2],"categories":[],"categories_nodes":[],"categories_segments":[],"categories_sizes":[],"default_left":[0,0,0,0,0,0,0,0,0,0,0,0,0,0,0,0,0,0,0,0,0,0,0,0,0,0,0],"id":12,"left_children":[1,3,5,7,9,11,13,15,17,19,21,-1,23,-1,25,-1,-1,-1,-1,-1,-1,-1,-1,-1,-1,-1,-1],"loss_changes":[1.7966511E3,3.5391107E2,1.14174194E2,1.10404854E2,9.792847E1,2.75625E1,4.8659023E1,5.2831642E1,3.469336E1,7.961638E1,5.8614258E1,0E0,2.2802368E1,0E0,2.6547577E1,0E0,0E0,0E0,0E0,0E0,0E0,0E0,0E0,0E0,0E0,0E0,0E0],"parents":[2147483647,0,0,1,1,2,2,3,3,4,4,5,5,6,6,7,7,8,8,9,9,10,10,12,12,14,14],"right_children":[2,4,6,8,10,12,14,16,18,20,22,-1,24,-1,26,-1,-1,-1,-1,-1,-1,-1,-1,-1,-1,-1,-1],"split_conditions":[5.792E-1,1.5953815E-1,9.3880576E-1,-2.732E-1,9.441598E-3,-7.65E-1,2.4739346E-1,2.360659E-2,2.4808446E-2,3.332663E-1,2.6523328E-1,-5.823135E-2,5.1996297E-1,-6.869446E-2,7.347915E-1,2.379538E-2,-7.2895795E-2,6.57113E-2,-6.7183785E-2,-6.786092E-2,4.0679913E-2,4.882091E-2,-6.7909084E-2,6.4066164E-2,-6.289705E-2,6.5653466E-2,-6.490062E-2],"split_indices":[34,10,8,30,26,30,18,17,6,15,21,0,11,0,20,0,0,0,0,0,0,0,0,0,0,0,0],"split_type":[0,0,0,0,0,0,0,0,0,0,0,0,0,0,0,0,0,0,0,0,0,0,0,0,0,0,0],"sum_hessian":[1.6567595E3,8.865165E2,7.7024304E2,1.4608957E2,7.404269E2,7.273859E2,4.285709E1,5.5592598E1,9.049697E1,6.82098E1,6.722171E2,3.9499521E0,7.23436E2,2.3129269E1,1.9727821E1,2.4633001E1,3.0959597E1,8.607626E1,4.420707E0,2.7314661E1,4.089514E1,1.0262081E1,6.61955E2,7.206299E2,2.806098E0,1.5507311E1,4.2205105E0],"tree_param":{"num_deleted":"0","num_feature":"36","num_nodes":"27","size_leaf_vector":"1"}},{"base_weights":[1.5251632E-2,-1.0004957E0,1.1137859E0,-1.1179059E0,1.1853049E0,1.2157295E0,-5.306906E-1,-2.1246564E-1,-6.803103E-2,7.07818E-2,-5.9547782E-2,1.2353568E0,-7.176087E-2,-7.045045E-2,1.163884E0,-3.8513754E-2,4.4945452E-2,6.542011E-2,4.6561167E-2,7.061948E-2,4.045171E-2],"categories":[],"categories_nodes":[],"categories_segments":[],"categories_sizes":[],"default_left":[0,0,0,0,0,0,0,0,0,0,0,0,0,0,0,0,0,0,0,0,0],"id":13,"left_children":[1,3,5,7,9,11,13,15,-1,-1,-1,17,-1,-1,19,-1,-1,-1,-1,-1,-1],"loss_changes":[1.7725444E3,2.13146E2,1.285846E2,1.7196533E2,2.4980415E1,3.91792E1,6.89802E1,1.0414745E2,0E0,0E0,0E0,1.4647339E1,0E0,0E0,2.6760864E-1,0E0,0E0,0E0,0E0,0E0,0E0],"parents":[2147483647,0,0,1,1,2,2,3,3,4,4,5,5,6,6,7,7,11,11,14,14],"right_children":[2,4,6,8,10,12,14,16,-1,-1,-1,18,-1,-1,20,-1,-1,-1,-1,-1,-1],"split_conditions":[1E0,6E-1,2.268129E-1,3.0341068E-1,7.353753E-1,3.6214566E-1,3.797975E-1,-2.732E-1,-6.803103E-2,7.07818E-2,-5.9547782E-2,2.4808446E-2,-7.176087E-2,-7.045045E-2,3.800234E-1,-3.8513754E-2,4.4945452E-2,6.542011E-2,4.6561167E-2,7.061948E-2,4.045171E-2],"split_indices":[32,34,0,14,20,27,2,30,0,0,0,6,0,0,2,0,0,0,0,0,0],"split_type":[0,0,0,0,0,0,0,0,0,0,0,0,0,0,0,0,0,0,0,0,0],"sum_hessian":[1.5865403E3,8.243778E2,7.621625E2,7.828174E2,4.1560425E1,7.1791833E2,4.424414E1,1.6588042E2,6.1693695E2,3.825648E1,3.3039443E0,7.1317206E2,4.7462673E0,2.925134E1,1.49928E1,1.106507E2,5.5229713E1,5.723947E2,1.407773E2,7.064915E0,7.927885E0],"tree_param":{"num_deleted":"0","num_feature":"36","num_nodes":"21","size_leaf_vector":"1"}},{"base_weights":[4.4259932E-2,-9.654345E-1,1.1029266E0,9.61422E-2,-1.2750082E0,1.1970608E0,-8.212679E-1,-6.961377E-2,6.213235E-1,6.259587E-2,-6.6699505E-2,1.2805135E0,7.622018E-1,-6.870992E-2,5.9972413E-2,4.674194E-2,-6.679227E-2,5.4627087E-2,6.577685E-2,-8.362171E-2,4.82728E-2],"categories":[],"categories_nodes":[],"categories_segments":[],"categories_sizes":[],"default_left":[0,0,0,0,0,0,0,0,0,0,0,0,0,0,0,0,0,0,0,0,0],"id":14,"left_children":[1,3,5,7,9,11,13,-1,15,-1,-1,17,19,-1,-1,-1,-1,-1,-1,-1,-1],"loss_changes":[1.6939646E3,2.6669543E2,1.4110449E2,1.4474924E2,9.528113E1,2.5802734E1,4.2623398E1,0E0,8.515986E1,0E0,0E0,2.6288452E0,6.163041E1,0E0,0E0,0E0,0E0,0E0,0E0,0E0,0E0],"parents":[2147483647,0,0,1,1,2,2,3,3,4,4,5,5,6,6,8,8,11,11,12,12],"right_children":[2,4,6,8,10,12,14,-1,16,-1,-1,18,20,-1,-1,-1,-1,-1,-1,-1,-1],"split_conditions":[1E0,8.386332E-1,5.062643E-1,-5.106E-1,-6.808E-1,2.2301902E-3,3.250329E-1,-6.961377E-2,8.255E-1,6.259587E-2,-6.6699505E-2,1.4662756E-1,3.7145564E-1,-6.870992E-2,5.9972413E-2,4.674194E-2,-6.679227E-2,5.4627087E-2,6.577685E-2,-8.362171E-2,4.82728E-2],"split_indices":[32,1,11,30,31,12,18,0,31,0,0,4,2,0,0,0,0,0,0,0,0],"split_type":[0,0,0,0,0,0,0,0,0,0,0,0,0,0,0,0,0,0,0,0,0],"sum_hessian":[1.5827333E3,8.1014874E2,7.725845E2,1.830683E2,6.2708044E2,7.369116E2,3.567284E1,4.7316753E1,1.3575154E2,1.38417425E1,6.132387E2,6.16631E2,1.2028067E2,2.8259983E1,7.4128594E0,1.1745845E2,1.82931E1,1.0190387E2,5.147271E2,8.71089E0,1.1156978E2],"tree_param":{"num_deleted":"0","num_feature":"36","num_nodes":"21","size_leaf_vector":"1"}},{"base_weights":[3.426655E-2,8.454384E-1,-7.8962606E-1,1.0143605E0,-8.7831485E-1,6.8151504E-1,-1.0859143E0,2.0732991E-1,1.172789E0,9.687388E-1,-6.699725E-2,-7.8169845E-2,1.1486261E0,-1.2093409E0,2.1258985E-1,-6.826329E-2,3.3228707E-2,6.375007E-2,2.7588442E-2,6.283203E-2,-4.170656E-2,6.110225E-2,-7.367975E-2,-6.190619E-2,1.6298499E-3,3.7371572E-2,-6.2193096E-2],"categories":[],"categories_nodes":[],"categories_segments":[],"categories_sizes":[],"default_left":[0,0,0,0,0,0,0,0,0,0,0,0,0,0,0,0,0,0,0,0,0,0,0,0,0,0,0],"id":15,"left_children":[1,3,5,7,9,11,13,15,17,19,-1,-1,21,23,25,-1,-1,-1,-1,-1,-1,-1,-1,-1,-1,-1,-1],"loss_changes":[1.0073888E3,2.220473E2,3.2670642E2,8.82583E1,5.9554237E1,1.3390071E2,1.0008179E2,8.345639E1,3.601062E1,8.440443E0,0E0,0E0,2.1988037E1,2.0377747E1,4.3707268E1,0E0,0E0,0E0,0E0,0E0,0E0,0E0,0E0,0E0,0E0,0E0,0E0],"parents":[2147483647,0,0,1,1,2,2,3,3,4,4,5,5,6,6,7,7,8,8,9,9,12,12,13,13,14,14],"right_children":[2,4,6,8,10,12,14,16,18,20,-1,-1,22,24,26,-1,-1,-1,-1,-1,-1,-1,-1,-1,-1,-1,-1],"split_conditions":[2.1121301E-1,8.255E-1,-2.815E-1,1E0,8.278185E-1,6.312691E-1,3.8323644E-1,-5.106E-1,6.319E-1,1.728089E-1,-6.699725E-2,-7.8169845E-2,1.9404998E-1,7.430099E-1,6.319E-1,-6.826329E-2,3.3228707E-2,6.375007E-2,2.7588442E-2,6.283203E-2,-4.170656E-2,6.110225E-2,-7.367975E-2,-6.190619E-2,1.6298499E-3,3.7371572E-2,-6.2193096E-2],"split_indices":[0,31,31,33,1,5,2,30,31,4,0,0,10,20,31,0,0,0,0,0,0,0,0,0,0,0,0],"split_type":[0,0,0,0,0,0,0,0,0,0,0,0,0,0,0,0,0,0,0,0,0,0,0,0,0,0,0],"sum_hessian":[1.5053495E3,7.5851733E2,7.4683215E2,6.911941E2,6.732321E1,1.2497945E2,6.218527E2,1.13801315E2,5.773928E2,1.3241881E1,5.4081333E1,2.1121868E1,1.03857574E2,5.6793726E2,5.391548E1,2.5187685E1,8.861363E1,4.9488724E2,8.2505554E1,1.1679716E1,1.5621657E0,1.0154832E2,2.3092608E0,5.5507605E2,1.2861202E1,3.979038E1,1.4125103E1],"tree_param":{"num_deleted":"0","num_feature":"36","num_nodes":"27","size_leaf_vector":"1"}},{"base_weights":[2.9548278E-2,-8.1369704E-1,1.0827485E0,4.9635613E-1,-1.0793967E0,1.165442E0,-3.4055793E-1,-5.290298E-1,1.1175679E0,-1.2690012E0,-4.1759446E-1,1.1794165E0,-6.703291E-2,-6.665855E-2,6.358765E-2,-6.9349304E-2,5.0790202E-2,-6.4558655E-2,6.493816E-2,-1.4587565E-2,-6.515964E-2,-6.47583E-2,1.3870512E-3,4.543676E-2,6.398108E-2],"categories":[],"categories_nodes":[],"categories_segments":[],"categories_sizes":[],"default_left":[0,0,0,0,0,0,0,0,0,0,0,0,0,0,0,0,0,0,0,0,0,0,0,0,0],"id":16,"left_children":[1,3,5,7,9,11,13,15,17,19,21,23,-1,-1,-1,-1,-1,-1,-1,-1,-1,-1,-1,-1,-1],"loss_changes":[1.3128999E3,2.8631305E2,7.7761475E1,8.920912E1,8.51593E1,2.3345093E1,6.0696648E1,7.18739E1,3.9629288E1,1.7339783E1,6.0051804E1,1.5614014E1,0E0,0E0,0E0,0E0,0E0,0E0,0E0,0E0,0E0,0E0,0E0,0E0,0E0],"parents":[2147483647,0,0,1,1,2,2,3,3,4,4,5,5,6,6,7,7,8,8,9,9,10,10,11,11],"right_children":[2,4,6,8,10,12,14,16,18,20,22,24,-1,-1,-1,-1,-1,-1,-1,-1,-1,-1,-1,-1,-1],"split_conditions":[6E-1,1.5877965E-1,5.065568E-1,-2.732E-1,3.7753952E-1,8.773737E-1,3.250329E-1,6.207282E-1,4.078E-1,6.29002E-1,-5.106E-1,3.7906048E-1,-6.703291E-2,-6.665855E-2,6.358765E-2,-6.9349304E-2,5.0790202E-2,-6.4558655E-2,6.493816E-2,-1.4587565E-2,-6.515964E-2,-6.47583E-2,1.3870512E-3,4.543676E-2,6.398108E-2],"split_indices":[34,10,11,30,2,16,18,28,34,5,30,2,0,0,0,0,0,0,0,0,0,0,0,0,0],"split_type":[0,0,0,0,0,0,0,0,0,0,0,0,0,0,0,0,0,0,0,0,0,0,0,0,0],"sum_hessian":[1.476322E3,8.2000885E2,6.563131E2,1.3812155E2,6.818873E2,6.204466E2,3.5866505E1,5.2165085E1,8.595646E1,5.2932086E2,1.5256645E2,6.1753253E2,2.9140947E0,2.2306639E1,1.3559866E1,3.3604366E1,1.856072E1,5.5850515E0,8.037141E1,1.8215841E1,5.11105E2,5.0716656E1,1.0184979E2,1.6956346E2,4.4796906E2],"tree_param":{"num_deleted":"0","num_feature":"36","num_nodes":"25","size_leaf_vector":"1"}},{"base_weights":[4.728273E-2,-9.2877805E-1,1.0471158E0,-1.242812E0,9.098224E-2,1.132322E0,-4.2822406E-1,-6.34706E-1,-6.406503E-2,9.9247694E-1,-8.5377955E-1,6.7669475E-1,1.2399819E0,-6.542443E-2,1.1148922E0,-6.585708E-2,6.9415435E-2,-2.1819815E-2,7.087982E-2,3.088834E-2,-6.568475E-2,4.2218324E-2,-9.362229E-2,5.1098358E-2,6.33119E-2,6.710013E-2,-3.9602462E-2],"categories":[],"categories_nodes":[],"categories_segments":[],"categories_sizes":[],"default_left":[0,0,0,0,0,0,0,0,0,0,0,0,0,0,0,0,0,0,0,0,0,0,0,0,0,0,0],"id":17,"left_children":[1,3,5,7,9,11,13,15,-1,17,19,21,23,-1,25,-1,-1,-1,-1,-1,-1,-1,-1,-1,-1,-1,-1],"loss_changes":[1.4150021E3,2.350799E2,9.052081E1,1.2317871E1,1.4877226E2,3.238916E1,5.5564526E1,5.0670082E1,0E0,5.4886726E1,5.8571E1,5.7859737E1,1.8355103E0,0E0,7.562872E0,0E0,0E0,0E0,0E0,0E0,0E0,0E0,0E0,0E0,0E0,0E0,0E0],"parents":[2147483647,0,0,1,1,2,2,3,3,4,4,5,5,6,6,7,7,9,9,10,10,11,11,12,12,14,14],"right_children":[2,4,6,8,10,12,14,16,-1,18,20,22,24,-1,26,-1,-1,-1,-1,-1,-1,-1,-1,-1,-1,-1,-1],"split_conditions":[1E0,3.7916672E-1,5.065568E-1,3.0322918E-1,4.325E-1,3.7634847E-1,6.312691E-1,3.0320936E-1,-6.406503E-2,1E0,9.988121E-1,4.9251693E-1,3.7906048E-1,-6.542443E-2,1.805655E-1,-6.585708E-2,6.9415435E-2,-2.1819815E-2,7.087982E-2,3.088834E-2,-6.568475E-2,4.2218324E-2,-9.362229E-2,5.1098358E-2,6.33119E-2,6.710013E-2,-3.9602462E-2],"split_indices":[32,2,11,14,31,2,5,14,0,33,25,11,2,0,10,0,0,0,0,0,0,0,0,0,0,0,0],"split_type":[0,0,0,0,0,0,0,0,0,0,0,0,0,0,0,0,0,0,0,0,0,0,0,0,0,0,0],"sum_hessian":[1.4479524E3,7.327224E2,7.1523E2,5.6004004E2,1.7268239E2,6.763981E2,3.8831917E1,3.4377583E1,5.256625E2,8.833876E1,8.434363E1,1.3067113E2,5.457269E2,2.48235E1,1.4008417E1,2.5966927E1,8.410657E0,2.0249943E1,6.808882E1,2.0001991E1,6.434164E1,1.2323407E2,7.4370527E0,6.294974E1,4.8277722E2,1.2782337E1,1.2260797E0],"tree_param":{"num_deleted":"0","num_feature":"36","num_nodes":"27","size_leaf_vector":"1"}},{"base_weights":[-4.2347137E-2,-9.504367E-1,9.80837E-1,7.171342E-1,-1.076513E0,1.0938046E0,-9.0765744E-1,-6.1376758E-2,1.0184195E0,-1.1434437E0,8.9222956E-1,1.1899436E0,5.772688E-1,5.6715865E-2,-7.078329E-2,-5.2710503E-2,6.0355544E-2,-2.0326385E-2,-6.339415E-2,-5.689921E-2,6.529177E-2,6.006652E-2,-7.209602E-2,3.8245793E-2,-9.241419E-2],"categories":[],"categories_nodes":[],"categories_segments":[],"categories_sizes":[],"default_left":[0,0,0,0,0,0,0,0,0,0,0,0,0,0,0,0,0,0,0,0,0,0,0,0,0],"id":18,"left_children":[1,3,5,7,9,11,13,-1,15,17,19,21,23,-1,-1,-1,-1,-1,-1,-1,-1,-1,-1,-1,-1],"loss_changes":[1.2417662E3,1.4962952E2,1.350611E2,3.0760817E1,8.781183E1,2.8781494E1,3.8967323E1,0E0,1.854218E1,5.793921E1,2.014252E1,1.6697266E1,4.467946E1,0E0,0E0,0E0,0E0,0E0,0E0,0E0,0E0,0E0,0E0,0E0,0E0],"parents":[2147483647,0,0,1,1,2,2,3,3,4,4,5,5,6,6,8,8,9,9,10,10,11,11,12,12],"right_children":[2,4,6,8,10,12,14,-1,16,18,20,22,24,-1,-1,-1,-1,-1,-1,-1,-1,-1,-1,-1,-1],"split_conditions":[1E0,7.272618E-1,9.3752354E-1,5.32E9,6E-1,2.5668401E-2,2.763635E-1,-6.1376758E-2,3.3732212E-1,6.3028246E-1,3.7906048E-1,9.3625015E-1,2.1811478E-1,5.6715865E-2,-7.078329E-2,-5.2710503E-2,6.0355544E-2,-2.0326385E-2,-6.339415E-2,-5.689921E-2,6.529177E-2,6.006652E-2,-7.209602E-2,3.8245793E-2,-9.241419E-2],"split_indices":[32,20,8,29,34,6,21,0,15,5,2,8,0,0,0,0,0,0,0,0,0,0,0,0,0],"split_type":[0,0,0,0,0,0,0,0,0,0,0,0,0,0,0,0,0,0,0,0,0,0,0,0,0],"sum_hessian":[1.334461E3,7.070319E2,6.2742914E2,4.9368084E1,6.576638E2,5.9241254E2,3.501665E1,6.2101107E0,4.3157974E1,6.36446E2,2.121784E1,4.9835397E2,9.405853E1,6.7304125E0,2.8286238E1,3.2184818E0,3.993949E1,9.256325E1,5.4388275E2,3.2946146E0,1.7923225E1,4.9674832E2,1.6056619E0,8.793991E1,6.118618E0],"tree_param":{"num_deleted":"0","num_feature":"36","num_nodes":"25","size_leaf_vector":"1"}},{"base_weights":[6.045737E-2,-8.417207E-1,9.988164E-1,9.151734E-2,-1.1477194E0,1.086603E0,-4.553524E-1,-6.392349E-2,4.3196502E-1,-1.2172083E0,6.58427E-1,6.28578E-1,1.1815026E0,-6.492149E-2,1.0223831E0,-4.0592056E-2,3.9600033E-2,-6.227545E-2,1.9820318E-2,-5.3218093E-2,6.987085E-2,3.6603414E-2,-9.784014E-2,5.94969E-2,-7.304917E-2,6.3805394E-2,-5.8926698E-2],"categories":[],"categories_nodes":[],"categories_segments":[],"categories_sizes":[],"default_left":[0,0,0,0,0,0,0,0,0,0,0,0,0,0,0,0,0,0,0,0,0,0,0,0,0,0,0],"id":19,"left_children":[1,3,5,7,9,11,13,-1,15,17,19,21,23,-1,25,-1,-1,-1,-1,-1,-1,-1,-1,-1,-1,-1,-1],"loss_changes":[1.1587922E3,1.9940329E2,8.614276E1,8.135971E1,6.6773254E1,2.6772339E1,4.9793056E1,0E0,6.3120773E1,2.3624756E1,2.7106491E1,3.1073929E1,1.3401733E1,0E0,9.707922E0,0E0,0E0,0E0,0E0,0E0,0E0,0E0,0E0,0E0,0E0,0E0,0E0],"parents":[2147483647,0,0,1,1,2,2,3,3,4,4,5,5,6,6,8,8,9,9,10,10,11,11,12,12,14,14],"right_children":[2,4,6,8,10,12,14,-1,16,18,20,22,24,-1,26,-1,-1,-1,-1,-1,-1,-1,-1,-1,-1,-1,-1],"split_conditions":[1E0,2.0620213E-1,2.2624563E-1,3.736107E-1,3.5466217E-2,1.445113E-1,3.7964875E-1,-6.392349E-2,-5.106E-1,6E-1,7.9738694E-1,2.7420409E-2,6.298208E-1,-6.492149E-2,6.050246E-1,-4.0592056E-2,3.9600033E-2,-6.227545E-2,1.9820318E-2,-5.3218093E-2,6.987085E-2,3.6603414E-2,-9.784014E-2,5.94969E-2,-7.304917E-2,6.3805394E-2,-5.8926698E-2],"split_indices":[32,0,0,2,9,4,2,0,30,34,13,9,18,0,28,0,0,0,0,0,0,0,0,0,0,0,0],"split_type":[0,0,0,0,0,0,0,0,0,0,0,0,0,0,0,0,0,0,0,0,0,0,0,0,0,0,0],"sum_hessian":[1.3668206E3,6.9689716E2,6.6992346E2,1.7225452E2,5.2464264E2,6.3202167E2,3.7901752E1,3.3737408E1,1.3851712E2,5.055196E2,1.912305E1,1.09783485E2,5.222382E2,2.4210514E1,1.3691239E1,3.0813072E1,1.0770404E2,4.9703043E2,8.489166E0,5.6082907E0,1.3514761E1,1.0624735E2,3.5361333E0,5.211243E2,1.1138511E0,1.26528E1,1.0384396E0],"tree_param":{"num_deleted":"0","num_feature":"36","num_nodes":"27","size_leaf_vector":"1"}},{"base_weights":[2.6795326E-2,-8.7340486E-1,9.729742E-1,-1.2992616E-3,-1.1464403E0,1.063396E0,-7.4712175E-1,-6.253039E-2,4.593444E-1,-6.173673E-2,8.625847E-1,1.076428E0,-7.584554E-2,5.3332146E-2,-6.297811E-2,-6.1311383E-2,3.900035E-2,-5.529501E-2,6.1469834E-2,4.0922876E-2,6.026829E-2],"categories":[],"categories_nodes":[],"categories_segments":[],"categories_sizes":[],"default_left":[0,0,0,0,0,0,0,0,0,0,0,0,0,0,0,0,0,0,0,0,0],"id":20,"left_children":[1,3,5,7,9,11,13,-1,15,-1,17,19,-1,-1,-1,-1,-1,-1,-1,-1,-1],"loss_changes":[1.0775564E3,1.54374E2,9.67262E1,9.010866E1,8.8647644E1,2.1351501E1,3.0520058E1,0E0,6.2789547E1,0E0,1.679339E1,1.8439697E1,0E0,0E0,0E0,0E0,0E0,0E0,0E0,0E0,0E0],"parents":[2147483647,0,0,1,1,2,2,3,3,4,4,5,5,6,6,8,8,10,10,11,11],"right_children":[2,4,6,8,10,12,14,-1,16,-1,18,20,-1,-1,-1,-1,-1,-1,-1,-1,-1],"split_conditions":[1E0,3.0341068E-1,5.065568E-1,-5.106E-1,6E-1,9.990888E-1,2.763635E-1,-6.253039E-2,3.736107E-1,-6.173673E-2,3.7906048E-1,3.7906048E-1,-7.584554E-2,5.3332146E-2,-6.297811E-2,-6.1311383E-2,3.900035E-2,-5.529501E-2,6.1469834E-2,4.0922876E-2,6.026829E-2],"split_indices":[32,14,11,30,34,25,21,0,2,0,2,2,0,0,0,0,0,0,0,0,0],"split_type":[0,0,0,0,0,0,0,0,0,0,0,0,0,0,0,0,0,0,0,0,0],"sum_hessian":[1.2631104E3,6.473216E2,6.157887E2,1.5458012E2,4.927415E2,5.853974E2,3.0391329E1,4.1180325E1,1.13399796E2,4.723669E2,2.037457E1,5.830355E2,2.361845E0,6.456671E0,2.3934658E1,1.7673658E1,9.5726135E1,2.8838084E0,1.7490763E1,1.9674602E2,3.8628952E2],"tree_param":{"num_deleted":"0","num_feature":"36","num_nodes":"21","size_leaf_vector":"1"}},{"base_weights":[4.569592E-2,-6.5590554E-1,8.7808025E-1,6.248669E-1,-9.5212215E-1,1.0423399E0,1.0736381E-1,-7.1173805E-1,8.5714984E-1,-1.1104616E0,-2.5279483E-1,5.033287E-1,1.1572533E0,-6.1604477E-2,9.6848565E-1,4.734135E-2,-6.450829E-2,5.5861752E-2,1.5273978E-2,-6.1477542E-2,-3.3752207E-2,1.523702E-2,-6.1555065E-2,4.722721E-2,-6.697858E-2,-4.6294858E-4,5.9157897E-2,5.6269612E-2,-6.3719824E-2],"categories":[],"categories_nodes":[],"categories_segments":[],"categories_sizes":[],"default_left":[0,0,0,0,0,0,0,0,0,0,0,0,0,0,0,0,0,0,0,0,0,0,0,0,0,0,0,0,0],"id":21,"left_children":[1,3,5,7,9,11,13,15,17,19,21,23,25,-1,27,-1,-1,-1,-1,-1,-1,-1,-1,-1,-1,-1,-1,-1,-1],"loss_changes":[7.517494E2,2.6560706E2,7.4418945E1,4.1534187E1,6.258313E1,2.94693E1,1.2177717E2,2.0468296E1,1.5836395E1,2.315802E1,5.82488E1,7.203038E1,1.207251E1,0E0,2.4025448E1,0E0,0E0,0E0,0E0,0E0,0E0,0E0,0E0,0E0,0E0,0E0,0E0,0E0,0E0],"parents":[2147483647,0,0,1,1,2,2,3,3,4,4,5,5,6,6,7,7,8,8,9,9,10,10,11,11,12,12,14,14],"right_children":[2,4,6,8,10,12,14,16,18,20,22,24,26,-1,28,-1,-1,-1,-1,-1,-1,-1,-1,-1,-1,-1,-1,-1,-1],"split_conditions":[3.7906048E-1,1.9977309E-1,2.148057E-1,1E0,1.4109066E-1,1.00843824E-1,1.3337192E-1,1.581734E-1,1.5818971E-1,-2.732E-1,2.2624563E-1,9.988719E-1,-6.705E-1,-6.1604477E-2,1.8718132E-1,4.734135E-2,-6.450829E-2,5.5861752E-2,1.5273978E-2,-6.1477542E-2,-3.3752207E-2,1.523702E-2,-6.1555065E-2,4.722721E-2,-6.697858E-2,-4.6294858E-4,5.9157897E-2,5.6269612E-2,-6.3719824E-2],"split_indices":[2,0,0,33,35,35,35,0,10,30,0,25,30,0,10,0,0,0,0,0,0,0,0,0,0,0,0,0,0],"split_type":[0,0,0,0,0,0,0,0,0,0,0,0,0,0,0,0,0,0,0,0,0,0,0,0,0,0,0,0,0],"sum_hessian":[1.2852513E3,6.97529E2,5.8772235E2,1.3081323E2,5.6671576E2,4.8417883E2,1.03543526E2,1.9062054E1,1.11751175E2,4.6161133E2,1.0510444E2,8.602952E1,3.9814932E2,4.0349735E1,6.3193794E1,4.764262E0,1.42977915E1,7.524955E1,3.650162E1,3.610407E2,1.00570625E2,6.7388405E1,3.7716034E1,6.980477E1,1.6224747E1,8.663561E0,3.8948575E2,5.9527626E1,3.6661673E0],"tree_param":{"num_deleted":"0","num_feature":"36","num_nodes":"29","size_leaf_vector":"1"}},{"base_weights":[1.575874E-2,-8.710959E-1,9.4417065E-1,-1.4874986E-1,-1.1735588E0,1.0297636E0,-4.233696E-1,-6.207775E-2,2.678261E-1,-6.0147393E-2,3.479214E-1,4.786761E-1,1.1073809E0,-6.184384E-2,4.864161E-2,-4.0498383E-2,3.0001724E-2,-5.1983763E-2,5.4702092E-2,6.4450316E-2,-1.4805637E-2,5.5766363E-2,-6.2275272E-2],"categories":[],"categories_nodes":[],"categories_segments":[],"categories_sizes":[],"default_left":[0,0,0,0,0,0,0,0,0,0,0,0,0,0,0,0,0,0,0,0,0,0,0],"id":22,"left_children":[1,3,5,7,9,11,13,-1,15,-1,17,19,21,-1,-1,-1,-1,-1,-1,-1,-1,-1,-1],"loss_changes":[9.8801917E2,1.3391547E2,6.9056885E1,8.3314186E1,1.9755432E1,2.3081299E1,4.1229332E1,0E0,4.8034172E1,0E0,1.0424846E1,4.4273277E1,1.042157E1,0E0,0E0,0E0,0E0,0E0,0E0,0E0,0E0,0E0,0E0],"parents":[2147483647,0,0,1,1,2,2,3,3,4,4,5,5,6,6,8,8,10,10,11,11,12,12],"right_children":[2,4,6,8,10,12,14,-1,16,-1,18,20,22,-1,-1,-1,-1,-1,-1,-1,-1,-1,-1],"split_conditions":[1E0,2.1074028E-1,2.2624563E-1,3.747425E-1,6.034E-1,3.7400886E-1,3.797975E-1,-6.207775E-2,-5.106E-1,-6.0147393E-2,6.3262594E-1,1.5448149E-1,9.990888E-1,-6.184384E-2,4.864161E-2,-4.0498383E-2,3.0001724E-2,-5.1983763E-2,5.4702092E-2,6.4450316E-2,-1.4805637E-2,5.5766363E-2,-6.2275272E-2],"split_indices":[32,0,0,2,34,2,2,0,30,0,5,10,25,0,0,0,0,0,0,0,0,0,0],"split_type":[0,0,0,0,0,0,0,0,0,0,0,0,0,0,0,0,0,0,0,0,0,0,0],"sum_hessian":[1.1979761E3,6.1273236E2,5.852437E2,1.8128261E2,4.3144977E2,5.510039E2,3.4239788E1,4.9485844E1,1.3179677E2,4.2347916E2,7.9706078E0,6.8909454E1,4.8209448E2,2.170647E1,1.25333185E1,3.071359E1,1.0108317E2,2.6495914E0,5.3210163E0,3.3357784E1,3.5551666E1,4.8099597E2,1.0984923E0],"tree_param":{"num_deleted":"0","num_feature":"36","num_nodes":"23","size_leaf_vector":"1"}},{"base_weights":[8.24428E-2,-7.9718906E-1,9.5083964E-1,8.47073E-2,-1.0905175E0,1.0235391E0,-3.3311656E-1,-6.2143244E-2,5.023655E-1,4.0308252E-1,-5.9698094E-2,4.572886E-1,1.0944524E0,-6.1019827E-2,5.8076527E-2,3.8041618E-2,-6.407516E-2,5.5163015E-2,-5.6294855E-2,6.172171E-2,-2.7976846E-2,5.6087E-2,3.2901324E-2],"categories":[],"categories_nodes":[],"categories_segments":[],"categories_sizes":[],"default_left":[0,0,0,0,0,0,0,0,0,0,0,0,0,0,0,0,0,0,0,0,0,0,0],"id":23,"left_children":[1,3,5,7,9,11,13,-1,15,17,-1,19,21,-1,-1,-1,-1,-1,-1,-1,-1,-1,-1],"loss_changes":[9.368869E2,1.5772488E2,5.794751E1,8.546973E1,7.114227E1,2.296283E1,4.627626E1,0E0,5.4972157E1,3.3755604E1,0E0,5.3438072E1,5.437561E0,0E0,0E0,0E0,0E0,0E0,0E0,0E0,0E0,0E0,0E0],"parents":[2147483647,0,0,1,1,2,2,3,3,4,4,5,5,6,6,8,8,9,9,11,11,12,12],"right_children":[2,4,6,8,10,12,14,-1,16,18,-1,20,22,-1,-1,-1,-1,-1,-1,-1,-1,-1,-1],"split_conditions":[1E0,8.386332E-1,5.065568E-1,-5.106E-1,1.6787399E-2,3.7395853E-1,3.250329E-1,-6.2143244E-2,8.841483E-2,1.6391955E-1,-5.9698094E-2,8.852358E-1,9.353748E-1,-6.1019827E-2,5.8076527E-2,3.8041618E-2,-6.407516E-2,5.5163015E-2,-5.6294855E-2,6.172171E-2,-2.7976846E-2,5.6087E-2,3.2901324E-2],"split_indices":[32,1,11,30,6,2,18,0,26,24,0,8,8,0,0,0,0,0,0,0,0,0,0],"split_type":[0,0,0,0,0,0,0,0,0,0,0,0,0,0,0,0,0,0,0,0,0,0,0],"sum_hessian":[1.2245089E3,6.083601E2,6.1614886E2,1.5202023E2,4.5633984E2,5.8332306E2,3.2825764E1,3.5907753E1,1.1611248E2,2.9370575E1,4.2696927E2,6.57501E1,5.17573E2,2.0713139E1,1.2112626E1,1.0191884E2,1.4193646E1,2.0336264E1,9.034312E0,3.7145954E1,2.8604145E1,4.8563812E2,3.1934849E1],"tree_param":{"num_deleted":"0","num_feature":"36","num_nodes":"23","size_leaf_vector":"1"}},{"base_weights":[8.346537E-3,-8.652294E-1,9.1251796E-1,-1.1445967E0,4.005206E-2,1.0077623E0,-8.282716E-1,-5.9621554E-2,2.3892988E-1,8.993131E-1,-7.5055146E-1,1.0279564E0,-6.925158E-2,5.3121496E-2,-6.6005945E-2,6.8705566E-2,-5.438167E-2,-1.4041391E-2,6.5410934E-2,2.5978958E-2,-6.1193317E-2,5.544391E-2,3.4859896E-2],"categories":[],"categories_nodes":[],"categories_segments":[],"categories_sizes":[],"default_left":[0,0,0,0,0,0,0,0,0,0,0,0,0,0,0,0,0,0,0,0,0,0,0],"id":24,"left_children":[1,3,5,7,9,11,13,-1,15,17,19,21,-1,-1,-1,-1,-1,-1,-1,-1,-1,-1,-1],"loss_changes":[8.94165E2,1.4566211E2,9.306613E1,2.9405823E1,9.357159E1,2.6930664E1,2.8748175E1,0E0,2.4893372E1,3.2208466E1,4.377813E1,1.3252869E1,0E0,0E0,0E0,0E0,0E0,0E0,0E0,0E0,0E0,0E0,0E0],"parents":[2147483647,0,0,1,1,2,2,3,3,4,4,5,5,6,6,8,8,9,9,10,10,11,11],"right_children":[2,4,6,8,10,12,14,-1,16,18,20,22,-1,-1,-1,-1,-1,-1,-1,-1,-1,-1,-1],"split_conditions":[1E0,3.7916672E-1,9.381988E-1,2.8000358E-1,4.325E-1,2.2624563E-1,2.763635E-1,-5.9621554E-2,6.16E8,1E0,9.988121E-1,2.5668401E-2,-6.925158E-2,5.3121496E-2,-6.6005945E-2,6.8705566E-2,-5.438167E-2,-1.4041391E-2,6.5410934E-2,2.5978958E-2,-6.1193317E-2,5.544391E-2,3.4859896E-2],"split_indices":[32,2,8,21,31,0,21,0,29,33,25,6,0,0,0,0,0,0,0,0,0,0,0],"split_type":[0,0,0,0,0,0,0,0,0,0,0,0,0,0,0,0,0,0,0,0,0,0,0],"sum_hessian":[1.130052E3,5.747721E2,5.5527985E2,4.3902567E2,1.3574644E2,5.268739E2,2.8405924E1,4.2448746E2,1.4538215E1,6.498285E1,7.076359E1,5.230302E2,3.843729E0,5.6245623E0,2.2781363E1,7.81491E0,6.7233043E0,1.6802483E1,4.818037E1,1.9184536E1,5.1579052E1,4.1833075E2,1.0469944E2],"tree_param":{"num_deleted":"0","num_feature":"36","num_nodes":"23","size_leaf_vector":"1"}},{"base_weights":[5.4370314E-2,-7.679784E-1,8.1112474E-1,1.1094176E-1,-1.1321911E0,9.3261296E-1,-6.1118633E-2,-7.2092795E-1,9.4560087E-1,5.221693E-1,-1.156199E0,-7.44598E-1,1.0052019E0,-6.25066E-2,3.4021858E-2,5.593964E-2,-5.9305426E-2,-3.4978405E-2,4.7511905E-2,-5.9254862E-2,9.629327E-3,4.9028143E-2,-5.8866482E-2,5.6231577E-2,2.6511416E-2],"categories":[],"categories_nodes":[],"categories_segments":[],"categories_sizes":[],"default_left":[0,0,0,0,0,0,0,0,0,0,0,0,0,0,0,0,0,0,0,0,0,0,0,0,0],"id":25,"left_children":[1,3,5,7,9,11,-1,13,15,17,19,21,23,-1,-1,-1,-1,-1,-1,-1,-1,-1,-1,-1,-1],"loss_changes":[7.040623E2,1.7369626E2,1.4668512E2,1.1161362E2,1.5833313E1,6.8500275E1,0E0,6.0613514E1,3.0930275E1,3.8935823E0,1.4972321E1,1.8817574E1,2.9685974E1,0E0,0E0,0E0,0E0,0E0,0E0,0E0,0E0,0E0,0E0,0E0,0E0],"parents":[2147483647,0,0,1,1,2,2,3,3,4,4,5,5,7,7,8,8,9,9,10,10,11,11,12,12],"right_children":[2,4,6,8,10,12,-1,14,16,18,20,22,24,-1,-1,-1,-1,-1,-1,-1,-1,-1,-1,-1,-1],"split_conditions":[5.504E-1,3.0342013E-1,2.2624563E-1,-2.732E-1,1.581734E-1,-6.705E-1,-6.1118633E-2,6.2219113E-1,3.9246058E-1,5.9802675E-1,3.5466217E-2,2.5866523E-1,2.4808446E-2,-6.25066E-2,3.4021858E-2,5.593964E-2,-5.9305426E-2,-3.4978405E-2,4.7511905E-2,-5.9254862E-2,9.629327E-3,4.9028143E-2,-5.8866482E-2,5.6231577E-2,2.6511416E-2],"split_indices":[34,14,0,30,0,30,0,28,22,28,9,11,6,0,0,0,0,0,0,0,0,0,0,0,0],"split_type":[0,0,0,0,0,0,0,0,0,0,0,0,0,0,0,0,0,0,0,0,0,0,0,0,0],"sum_hessian":[1.129357E3,5.412153E2,5.881418E2,1.5876883E2,3.8244644E2,5.554959E2,3.2645878E1,7.958553E1,7.9183304E1,5.1738086E0,3.7727264E2,2.2660248E1,5.3283563E2,5.784803E1,2.1737501E1,7.3672874E1,5.5104275E0,1.1778638E0,3.995945E0,3.694778E2,7.79483E0,4.290286E0,1.836996E1,4.2468353E2,1.08152115E2],"tree_param":{"num_deleted":"0","num_feature":"36","num_nodes":"25","size_leaf_vector":"1"}},{"base_weights":[1.4722072E-2,-8.1663436E-1,8.6936307E-1,-1.0738817E0,2.1857625E-2,2.8535888E-1,1.0602363E0,-2.1970285E-1,-5.8215912E-2,5.9771085E-1,-7.450594E-1,6.5817004E-1,-9.1085005E-1,1.0696492E0,-5.2174907E-2,-6.178076E-2,4.068694E-2,-6.1406206E-2,3.9154407E-2,-6.008591E-2,4.8078775E-2,3.897429E-2,-9.376763E-2,4.5897096E-2,-7.049949E-2,7.888914E-3,5.411873E-2],"categories":[],"categories_nodes":[],"categories_segments":[],"categories_sizes":[],"default_left":[0,0,0,0,0,0,0,0,0,0,0,0,0,0,0,0,0,0,0,0,0,0,0,0,0,0,0],"id":26,"left_children":[1,3,5,7,9,11,13,15,-1,17,19,21,23,25,-1,-1,-1,-1,-1,-1,-1,-1,-1,-1,-1,-1,-1],"loss_changes":[7.451269E2,1.1469177E2,5.7340088E1,3.1170929E1,5.5996655E1,5.8015244E1,8.826355E0,4.319144E1,0E0,2.5465918E1,4.3543823E1,3.1808857E1,2.960147E1,4.332947E0,0E0,0E0,0E0,0E0,0E0,0E0,0E0,0E0,0E0,0E0,0E0,0E0,0E0],"parents":[2147483647,0,0,1,1,2,2,3,3,4,4,5,5,6,6,7,7,9,9,10,10,11,11,12,12,13,13],"right_children":[2,4,6,8,10,12,14,16,-1,18,20,22,24,26,-1,-1,-1,-1,-1,-1,-1,-1,-1,-1,-1,-1,-1],"split_conditions":[1E0,3.7916672E-1,3.7634847E-1,1.9769311E-1,2.7697486E-1,4.9251693E-1,2.470974E-3,2.0941934E-3,-5.8215912E-2,8.509079E-2,6.258378E-1,2.6952662E-2,3.0339545E-1,1.4046013E-1,-5.2174907E-2,-6.178076E-2,4.068694E-2,-6.1406206E-2,3.9154407E-2,-6.008591E-2,4.8078775E-2,3.897429E-2,-9.376763E-2,4.5897096E-2,-7.049949E-2,7.888914E-3,5.411873E-2],"split_indices":[32,2,2,0,21,11,12,12,0,19,28,9,14,4,0,0,0,0,0,0,0,0,0,0,0,0,0],"split_type":[0,0,0,0,0,0,0,0,0,0,0,0,0,0,0,0,0,0,0,0,0,0,0,0,0,0,0],"sum_hessian":[1.0467202E3,5.3061053E2,5.161097E2,4.0582397E2,1.2478657E2,1.2774641E2,3.8836328E2,3.9181477E1,3.666425E2,7.1397285E1,5.3389282E1,9.7735794E1,3.0010609E1,3.871227E2,1.2405643E0,1.9659657E1,1.952182E1,6.062359E0,6.533493E1,4.2352516E1,1.1036766E1,9.393034E1,3.8054483E0,6.254772E0,2.3755836E1,5.5124445E0,3.8161026E2],"tree_param":{"num_deleted":"0","num_feature":"36","num_nodes":"27","size_leaf_vector":"1"}},{"base_weights":[-1.2763166E-3,-7.8736466E-1,8.4195554E-1,3.6355758E-1,-1.0336385E0,1.0359311E0,1.2429588E-1,-5.8473863E-2,7.4158716E-1,5.9304184E-1,-1.1338056E0,1.0478503E0,-6.450912E-2,-1.5252298E0,5.007332E-1,-6.2644295E-2,4.7215756E-2,-5.1691394E-2,5.3115584E-2,3.341484E-2,-5.810232E-2,2.0789174E-2,5.3538978E-2,-9.490473E-2,-5.36634E-2,-9.934531E-3,4.4629652E-2],"categories":[],"categories_nodes":[],"categories_segments":[],"categories_sizes":[],"default_left":[0,0,0,0,0,0,0,0,0,0,0,0,0,0,0,0,0,0,0,0,0,0,0,0,0,0,0],"id":27,"left_children":[1,3,5,7,9,11,13,-1,15,17,19,21,-1,23,25,-1,-1,-1,-1,-1,-1,-1,-1,-1,-1,-1,-1],"loss_changes":[6.764393E2,1.5007327E2,6.841083E1,5.5245697E1,7.160187E1,1.2094177E1,6.652031E1,0E0,3.1865131E1,2.0876781E1,2.1663086E1,5.1495056E0,0E0,1.3203926E0,2.401491E1,0E0,0E0,0E0,0E0,0E0,0E0,0E0,0E0,0E0,0E0,0E0,0E0],"parents":[2147483647,0,0,1,1,2,2,3,3,4,4,5,5,6,6,8,8,9,9,10,10,11,11,13,13,14,14],"right_children":[2,4,6,8,10,12,14,-1,16,18,20,22,-1,24,26,-1,-1,-1,-1,-1,-1,-1,-1,-1,-1,-1,-1],"split_conditions":[1E0,8.367909E-1,2.1452208E-1,-5.106E-1,2.7540076E-1,2.006658E-1,2.5860561E-2,-5.8473863E-2,7.234731E-2,1.6110893E-1,-8.302E-1,8.495329E-2,-6.450912E-2,2.255838E-1,9.9903274E-1,-6.2644295E-2,4.7215756E-2,-5.1691394E-2,5.3115584E-2,3.341484E-2,-5.810232E-2,2.0789174E-2,5.3538978E-2,-9.490473E-2,-5.36634E-2,-9.934531E-3,4.4629652E-2],"split_indices":[32,1,0,30,21,10,17,0,35,4,31,4,0,0,25,0,0,0,0,0,0,0,0,0,0,0,0],"split_type":[0,0,0,0,0,0,0,0,0,0,0,0,0,0,0,0,0,0,0,0,0,0,0,0,0,0,0],"sum_hessian":[1.0184939E3,5.2714154E2,4.9135233E2,9.2831535E1,4.3431E2,3.8645444E2,1.0489792E2,1.7948961E1,7.4882576E1,2.4907091E1,4.094029E2,3.8503104E2,1.4233954E0,1.892369E1,8.597423E1,6.4311986E0,6.845138E1,5.3067026E0,1.9600388E1,5.9670763E0,4.0343582E2,1.4148459E1,3.7088257E2,8.615937E0,1.0307753E1,3.1048773E1,5.4925453E1],"tree_param":{"num_deleted":"0","num_feature":"36","num_nodes":"27","size_leaf_vector":"1"}},{"base_weights":[2.8776782E-2,-7.4775404E-1,8.457262E-1,2.6433986E-1,-1.0313731E0,3.156196E-1,1.0347501E0,9.791214E-1,-7.897115E-1,1.0541604E0,-1.0774835E0,8.0240303E-1,-5.10777E-1,-1.0468074E-1,1.051106E0,-5.0809678E-2,5.7695E-2,4.5658156E-2,-6.1256867E-2,6.9095485E-2,-3.3903327E-2,-5.6363445E-2,-6.8350135E-5,5.40847E-2,1.5739074E-2,-8.822766E-2,1.5480332E-2,5.3172495E-2,-5.2206736E-2],"categories":[],"categories_nodes":[],"categories_segments":[],"categories_sizes":[],"default_left":[0,0,0,0,0,0,0,0,0,0,0,0,0,0,0,0,0,0,0,0,0,0,0,0,0,0,0,0,0],"id":28,"left_children":[1,3,5,7,9,11,13,15,17,19,21,23,25,-1,27,-1,-1,-1,-1,-1,-1,-1,-1,-1,-1,-1,-1,-1,-1],"loss_changes":[6.280088E2,1.4596387E2,4.8011475E1,8.507555E1,3.928E1,5.1997154E1,2.0373352E1,2.4581291E1,3.5055656E1,6.0952806E0,2.081604E1,1.0703102E1,5.0070114E1,0E0,1.0265533E1,0E0,0E0,0E0,0E0,0E0,0E0,0E0,0E0,0E0,0E0,0E0,0E0,0E0,0E0],"parents":[2147483647,0,0,1,1,2,2,3,3,4,4,5,5,6,6,7,7,8,8,9,9,10,10,11,11,12,12,14,14],"right_children":[2,4,6,8,10,12,14,16,18,20,22,24,26,-1,28,-1,-1,-1,-1,-1,-1,-1,-1,-1,-1,-1,-1,-1,-1],"split_conditions":[1E0,2.7697486E-1,3.7634847E-1,4.325E-1,1.2140993E-3,4.7067714E-1,-9.022E-1,1.5971823E-1,5.2849665E-2,1.9476222E-1,2.8000358E-1,9.141159E-1,3.9829493E-1,-1.0468074E-1,2.006658E-1,-5.0809678E-2,5.7695E-2,4.5658156E-2,-6.1256867E-2,6.9095485E-2,-3.3903327E-2,-5.6363445E-2,-6.8350135E-5,5.40847E-2,1.5739074E-2,-8.822766E-2,1.5480332E-2,5.3172495E-2,-5.2206736E-2],"split_indices":[32,21,2,31,26,11,31,4,24,0,21,8,22,0,10,0,0,0,0,0,0,0,0,0,0,0,0,0,0],"split_type":[0,0,0,0,0,0,0,0,0,0,0,0,0,0,0,0,0,0,0,0,0,0,0,0,0,0,0,0,0],"sum_hessian":[9.879501E2,5.0654813E2,4.8140195E2,1.1089339E2,3.9565472E2,1.2723853E2,3.541634E2,6.612397E1,4.4769417E1,8.085652E0,3.875691E2,8.009068E1,4.7147854E1,1.1814766E0,3.5298193E2,4.9378705E0,6.11861E1,8.893056E0,3.587636E1,6.9692554E0,1.1163967E0,3.7038602E2,1.718306E1,5.014897E1,2.994171E1,1.8192984E1,2.8954868E1,3.514041E2,1.5778009E0],"tree_param":{"num_deleted":"0","num_feature":"36","num_nodes":"29","size_leaf_vector":"1"}},{"base_weights":[4.5399714E-2,-7.0421374E-1,8.3566576E-1,1.22680545E-1,-9.9878097E-1,7.788368E-2,9.803754E-1,-5.7935964E-2,4.8669642E-1,-5.6848384E-2,3.5060823E-1,1.1467143E0,-5.69051E-1,1.0013366E0,-6.33676E-2,3.663998E-2,-5.9404172E-2,5.1275056E-2,-5.371979E-2,2.8212374E-2,6.069225E-2,-9.930708E-2,1.018406E-2,5.267625E-2,2.592654E-2],"categories":[],"categories_nodes":[],"categories_segments":[],"categories_sizes":[],"default_left":[0,0,0,0,0,0,0,0,0,0,0,0,0,0,0,0,0,0,0,0,0,0,0,0,0],"id":29,"left_children":[1,3,5,7,9,11,13,-1,15,-1,17,19,21,23,-1,-1,-1,-1,-1,-1,-1,-1,-1,-1,-1],"loss_changes":[5.7531573E2,1.2152991E2,5.176355E1,6.204767E1,6.8948944E1,5.3817467E1,1.9966705E1,0E0,4.3470505E1,0E0,3.4679924E1,4.616394E-1,5.3584946E1,9.374847E0,0E0,0E0,0E0,0E0,0E0,0E0,0E0,0E0,0E0,0E0,0E0],"parents":[2147483647,0,0,1,1,2,2,3,3,4,4,5,5,6,6,8,8,10,10,11,11,12,12,13,13],"right_children":[2,4,6,8,10,12,14,-1,16,-1,18,20,22,24,-1,-1,-1,-1,-1,-1,-1,-1,-1,-1,-1],"split_conditions":[1E0,8.386332E-1,3.7400886E-1,-5.106E-1,3.8399357E-1,1.5448149E-1,2.006658E-1,-5.7935964E-2,8.841483E-2,-5.6848384E-2,4.325E-1,1.1159155E-1,1.0243466E-1,4.9251693E-1,-6.33676E-2,3.663998E-2,-5.9404172E-2,5.1275056E-2,-5.371979E-2,2.8212374E-2,6.069225E-2,-9.930708E-2,1.018406E-2,5.267625E-2,2.592654E-2],"split_indices":[32,1,2,30,2,10,10,0,26,0,31,35,19,11,0,0,0,0,0,0,0,0,0,0,0],"split_type":[0,0,0,0,0,0,0,0,0,0,0,0,0,0,0,0,0,0,0,0,0,0,0,0,0],"sum_hessian":[9.691773E2,4.9743762E2,4.7173972E2,1.3081207E2,3.6662555E2,7.588753E1,3.9585217E2,2.845662E1,1.0235545E2,3.3271106E2,3.391448E1,2.8322344E1,4.756518E1,3.9274417E2,3.1080194E0,8.973208E1,1.2623373E1,2.3204838E1,1.0709639E1,3.898841E0,2.4423502E1,1.6230417E1,3.1334763E1,3.533654E2,3.9378773E1],"tree_param":{"num_deleted":"0","num_feature":"36","num_nodes":"25","size_leaf_vector":"1"}},{"base_weights":[-2.8400589E-3,-8.3687913E-1,8.339757E-1,-1.0918894E0,-6.7762164E-3,9.18064E-1,-6.6469026E-1,-2.5609857E-1,-5.6963902E-2,3.400074E-1,-5.5579968E-2,-5.151356E-1,9.6255404E-1,-6.0123708E-2,4.9440976E-2,4.4762854E-2,-5.6612205E-2,-6.1698747E-3,5.6384183E-2,5.385031E-2,-8.084362E-2,5.2580934E-2,3.4423262E-2],"categories":[],"categories_nodes":[],"categories_segments":[],"categories_sizes":[],"default_left":[0,0,0,0,0,0,0,0,0,0,0,0,0,0,0,0,0,0,0,0,0,0,0],"id":30,"left_children":[1,3,5,7,9,11,13,15,-1,17,-1,19,21,-1,-1,-1,-1,-1,-1,-1,-1,-1,-1],"loss_changes":[6.3623914E2,9.663843E1,5.7954987E1,1.3541138E1,4.187159E1,2.7996185E1,2.3202425E1,2.1218904E1,0E0,3.050591E1,0E0,2.5661572E1,9.495941E0,0E0,0E0,0E0,0E0,0E0,0E0,0E0,0E0,0E0,0E0],"parents":[2147483647,0,0,1,1,2,2,3,3,4,4,5,5,6,6,7,7,9,9,11,11,12,12],"right_children":[2,4,6,8,10,12,14,16,-1,18,-1,20,22,-1,-1,-1,-1,-1,-1,-1,-1,-1,-1],"split_conditions":[1E0,1.7552982E-1,2.268129E-1,8.256657E-2,2.2655667E-3,8.495329E-2,3.8574606E-1,5.646287E-1,-5.6963902E-2,1.2010582E-1,-5.5579968E-2,9.916256E-3,3.0345565E-1,-6.0123708E-2,4.9440976E-2,4.4762854E-2,-5.6612205E-2,-6.1698747E-3,5.6384183E-2,5.385031E-2,-8.084362E-2,5.2580934E-2,3.4423262E-2],"split_indices":[32,4,0,19,12,4,2,7,0,35,0,4,14,0,0,0,0,0,0,0,0,0,0],"split_type":[0,0,0,0,0,0,0,0,0,0,0,0,0,0,0,0,0,0,0,0,0,0,0],"sum_hessian":[9.0959955E2,4.5555554E2,4.5404404E2,3.482551E2,1.0730044E2,4.3028848E2,2.375554E1,1.9029892E1,3.2922522E2,8.219363E1,2.5106813E1,1.2636568E1,4.1765192E2,1.8131323E1,5.624217E0,8.213975E0,1.0815917E1,5.2279778E1,2.9913845E1,5.177257E0,7.4593115E0,3.130803E2,1.0457163E2],"tree_param":{"num_deleted":"0","num_feature":"36","num_nodes":"23","size_leaf_vector":"1"}},{"base_weights":[4.5244217E-2,-7.18491E-1,8.114691E-1,1.0883574E-1,-1.0409659E0,1.9701505E-1,1.0029707E0,5.852814E-1,-7.8976536E-1,4.4973742E-2,-1.0972441E0,5.2260935E-1,-6.503868E-2,1.0167286E0,-4.3241758E-2,-1.2231749E-2,6.3686796E-2,5.876848E-2,-5.910877E-2,3.470825E-3,-5.6370962E-2,2.9990003E-2,-1.183177E-1,5.22951E-2,1.8667523E-2],"categories":[],"categories_nodes":[],"categories_segments":[],"categories_sizes":[],"default_left":[0,0,0,0,0,0,0,0,0,0,0,0,0,0,0,0,0,0,0,0,0,0,0,0,0],"id":31,"left_children":[1,3,5,7,9,11,13,15,17,-1,19,21,-1,23,-1,-1,-1,-1,-1,-1,-1,-1,-1,-1,-1],"loss_changes":[5.35112E2,1.2230017E2,5.3510956E1,5.5842518E1,3.6984314E1,5.417631E1,9.815247E0,4.893828E1,3.6280075E1,0E0,1.137146E1,2.1672964E1,0E0,6.0973206E0,0E0,0E0,0E0,0E0,0E0,0E0,0E0,0E0,0E0,0E0,0E0],"parents":[2147483647,0,0,1,1,2,2,3,3,4,4,5,5,6,6,7,7,8,8,10,10,11,11,13,13],"right_children":[2,4,6,8,10,12,14,16,18,-1,20,22,-1,24,-1,-1,-1,-1,-1,-1,-1,-1,-1,-1,-1],"split_conditions":[1E0,3.0341068E-1,1.4705083E-1,6.319E-1,-6.808E-1,5.5293286E-1,2.3636192E-1,1E0,1.2140993E-3,4.4973742E-2,1.4702289E-1,1.2463841E-1,-6.503868E-2,7.29E9,-4.3241758E-2,-1.2231749E-2,6.3686796E-2,5.876848E-2,-5.910877E-2,3.470825E-3,-5.6370962E-2,2.9990003E-2,-1.183177E-1,5.22951E-2,1.8667523E-2],"split_indices":[32,14,4,31,31,3,0,33,26,0,10,24,0,29,0,0,0,0,0,0,0,0,0,0,0],"split_type":[0,0,0,0,0,0,0,0,0,0,0,0,0,0,0,0,0,0,0,0,0,0,0,0,0],"sum_hessian":[9.124234E2,4.5698526E2,4.5543814E2,1.2835251E2,3.2863275E2,1.0869786E2,3.4674026E2,8.410697E1,4.4245525E1,8.840328E0,3.1979242E2,8.982294E1,1.887493E1,3.4465723E2,2.083027E0,3.8427795E1,4.567918E1,7.0324974E0,3.7213028E1,8.029956E0,3.1176248E2,8.825716E1,1.565776E0,3.2910846E2,1.5548764E1],"tree_param":{"num_deleted":"0","num_feature":"36","num_nodes":"25","size_leaf_vector":"1"}},{"base_weights":[5.4676555E-2,-7.7233934E-1,8.3024573E-1,3.9792842E-1,-9.9595827E-1,-3.5943824E-1,9.0646785E-1,7.037375E-1,-5.5431753E-2,8.7163335E-1,-1.0689622E0,9.182473E-1,-7.31731E-2,1.0082369E0,3.275807E-1,-5.1821537E-2,4.809549E-2,-3.894734E-2,5.4843176E-2,-1.4748526E-2,-5.6226503E-2,5.4864414E-2,1.8824944E-2,5.1007308E-2,1.12534715E-2,-4.823298E-2,4.957841E-2],"categories":[],"categories_nodes":[],"categories_segments":[],"categories_sizes":[],"default_left":[0,0,0,0,0,0,0,0,0,0,0,0,0,0,0,0,0,0,0,0,0,0,0,0,0,0,0],"id":32,"left_children":[1,3,5,7,9,11,13,15,-1,17,19,21,-1,23,25,-1,-1,-1,-1,-1,-1,-1,-1,-1,-1,-1,-1],"loss_changes":[5.636438E2,1.1169722E2,4.1444885E1,3.2545113E1,4.965515E1,4.0867336E1,2.4792053E1,2.7020212E1,0E0,6.057042E0,1.4479279E1,9.062462E-1,0E0,3.148529E0,5.6934284E1,0E0,0E0,0E0,0E0,0E0,0E0,0E0,0E0,0E0,0E0,0E0,0E0],"parents":[2147483647,0,0,1,1,2,2,3,3,4,4,5,5,6,6,7,7,9,9,10,10,11,11,13,13,14,14],"right_children":[2,4,6,8,10,12,14,16,-1,18,20,22,-1,24,26,-1,-1,-1,-1,-1,-1,-1,-1,-1,-1,-1,-1],"split_conditions":[1E0,3.828837E-1,3.2869527E-1,8.255E-1,-6.808E-1,9.1134053E-1,4.9251693E-1,-5.106E-1,-5.5431753E-2,3.768875E-1,7.295427E-1,5.6503344E-1,-7.31731E-2,6.298208E-1,3.797975E-1,-5.1821537E-2,4.809549E-2,-3.894734E-2,5.4843176E-2,-1.4748526E-2,-5.6226503E-2,5.4864414E-2,1.8824944E-2,5.1007308E-2,1.12534715E-2,-4.823298E-2,4.957841E-2],"split_indices":[32,22,15,31,31,8,11,30,0,2,20,7,0,18,2,0,0,0,0,0,0,0,0,0,0,0,0],"split_type":[0,0,0,0,0,0,0,0,0,0,0,0,0,0,0,0,0,0,0,0,0,0,0,0,0,0,0],"sum_hessian":[8.767604E2,4.2430917E2,4.524512E2,6.794616E1,3.56363E2,2.7019041E1,4.2543216E2,5.6924297E1,1.1021864E1,1.2994616E1,3.433684E2,1.2602478E1,1.4416564E1,3.611924E2,6.423975E1,6.9647884E0,4.9959507E1,1.2650864E0,1.1729529E1,2.3423014E1,3.199454E2,8.701339E0,3.9011388E0,3.5548416E2,5.708262E0,2.1650713E1,4.2589043E1],"tree_param":{"num_deleted":"0","num_feature":"36","num_nodes":"27","size_leaf_vector":"1"}},{"base_weights":[2.00982E-2,5.996005E-1,-7.11642E-1,7.3951954E-1,-7.8623104E-1,-1.0639591E0,-1.6550206E-2,-9.419613E-2,8.902861E-1,7.183925E-1,-5.705591E-2,-5.609673E-2,6.0080945E-1,-9.26676E-1,6.684546E-1,5.0333608E-2,-2.881608E-2,5.1190484E-2,2.0699559E-2,4.6425294E-2,1.8996691E-2,-3.8058322E-2,5.7448685E-2,-6.50635E-2,-1.1124406E-2,-9.700331E-2,3.851181E-2],"categories":[],"categories_nodes":[],"categories_segments":[],"categories_sizes":[],"default_left":[0,0,0,0,0,0,0,0,0,0,0,0,0,0,0,0,0,0,0,0,0,0,0,0,0,0,0],"id":33,"left_children":[1,3,5,7,9,11,13,15,17,19,-1,-1,21,23,25,-1,-1,-1,-1,-1,-1,-1,-1,-1,-1,-1,-1],"loss_changes":[3.5476434E2,9.110704E1,9.053284E1,5.344951E1,2.3939604E1,2.4355621E1,7.8793E1,3.5569042E1,2.2447784E1,2.785182E-1,0E0,0E0,7.5255218E0,1.4025051E1,2.064328E1,0E0,0E0,0E0,0E0,0E0,0E0,0E0,0E0,0E0,0E0,0E0,0E0],"parents":[2147483647,0,0,1,1,2,2,3,3,4,4,5,5,6,6,7,7,8,8,9,9,12,12,13,13,14,14],"right_children":[2,4,6,8,10,12,14,16,18,20,-1,-1,22,24,26,-1,-1,-1,-1,-1,-1,-1,-1,-1,-1,-1,-1],"split_conditions":[2.1319845E-1,8.255E-1,1.3195731E-1,1E0,1.581734E-1,9.256E-1,6.312136E-1,3.027598E-1,2.4571797E-2,2.3686218E-1,-5.705591E-2,-5.609673E-2,3.036113E-1,9.5511943E-1,2.5508147E-2,5.0333608E-2,-2.881608E-2,5.1190484E-2,2.0699559E-2,4.6425294E-2,1.8996691E-2,-3.8058322E-2,5.7448685E-2,-6.50635E-2,-1.1124406E-2,-9.700331E-2,3.851181E-2],"split_indices":[0,31,35,33,0,31,5,14,6,3,0,0,14,8,17,0,0,0,0,0,0,0,0,0,0,0,0],"split_type":[0,0,0,0,0,0,0,0,0,0,0,0,0,0,0,0,0,0,0,0,0,0,0,0,0,0,0],"sum_hessian":[8.3461304E2,4.6585742E2,3.6875558E2,4.2355954E2,4.2297874E1,2.4436504E2,1.2439056E2,6.492264E1,3.586369E2,7.877054E0,3.442082E1,2.3645654E2,7.9084935E0,5.3266148E1,7.112441E1,1.944184E1,4.5480797E1,2.792133E2,7.942364E1,3.7843895E0,4.0926647E0,2.1580362E0,5.7504573E0,3.421664E1,1.9049507E1,1.9927176E0,6.91317E1],"tree_param":{"num_deleted":"0","num_feature":"36","num_nodes":"27","size_leaf_vector":"1"}},{"base_weights":[2.752142E-2,-6.085752E-1,7.9192954E-1,2.215402E-1,-1.0249803E0,9.426637E-1,9.9222146E-2,-4.9065313E-1,9.014367E-1,-6.9557875E-2,-1.0957583E0,7.105321E-1,1.048991E0,-6.5206915E-1,9.68713E-1,-4.82507E-2,3.6579527E-2,-5.296598E-2,5.2466698E-2,-5.2972108E-2,3.4416452E-2,-5.617539E-2,9.406654E-3,-1.2676227E-1,3.8651686E-2,1.9417157E-2,5.2879374E-2,-7.868584E-2,2.0982979E-2,5.466911E-2,2.5631862E-3],"categories":[],"categories_nodes":[],"categories_segments":[],"categories_sizes":[],"default_left":[0,0,0,0,0,0,0,0,0,0,0,0,0,0,0,0,0,0,0,0,0,0,0,0,0,0,0,0,0,0,0],"id":34,"left_children":[1,3,5,7,9,11,13,15,17,19,21,23,25,27,29,-1,-1,-1,-1,-1,-1,-1,-1,-1,-1,-1,-1,-1,-1,-1,-1],"loss_changes":[3.9570203E2,1.5377321E2,3.8498856E1,7.2692924E1,1.993982E1,6.744049E0,4.45107E1,4.3333023E1,2.3350624E1,1.6846104E1,1.002713E1,2.1926739E1,7.592926E-1,3.684455E1,3.5512657E0,0E0,0E0,0E0,0E0,0E0,0E0,0E0,0E0,0E0,0E0,0E0,0E0,0E0,0E0,0E0,0E0],"parents":[2147483647,0,0,1,1,2,2,3,3,4,4,5,5,6,6,7,7,8,8,9,9,10,10,11,11,12,12,13,13,14,14],"right_children":[2,4,6,8,10,12,14,16,18,20,22,24,26,28,30,-1,-1,-1,-1,-1,-1,-1,-1,-1,-1,-1,-1,-1,-1,-1,-1],"split_conditions":[6E-1,3.0342013E-1,9.3252563E-1,-2.732E-1,7.7308123E-3,3.7906048E-1,3.797975E-1,6.2219113E-1,3.855E-1,5.939876E-1,3.05163E-1,-9.022E-1,2.7594206E-1,2.4739346E-1,3.3598226E-1,-4.82507E-2,3.6579527E-2,-5.296598E-2,5.2466698E-2,-5.2972108E-2,3.4416452E-2,-5.617539E-2,9.406654E-3,-1.2676227E-1,3.8651686E-2,1.9417157E-2,5.2879374E-2,-7.868584E-2,2.0982979E-2,5.466911E-2,2.5631862E-3],"split_indices":[34,14,8,30,26,2,2,28,34,23,14,31,21,18,15,0,0,0,0,0,0,0,0,0,0,0,0,0,0,0,0],"split_type":[0,0,0,0,0,0,0,0,0,0,0,0,0,0,0,0,0,0,0,0,0,0,0,0,0,0,0,0,0,0,0],"sum_hessian":[8.118129E2,4.432061E2,3.6860687E2,1.4821104E2,2.9499503E2,3.0243558E2,6.6171295E1,7.25222E1,7.568885E1,2.0482834E1,2.7451218E2,9.7423965E1,2.050116E2,3.5632645E1,3.0538649E1,5.2397026E1,2.0125175E1,4.8764544E0,7.081239E1,8.709445E0,1.1773389E1,2.688268E2,5.6853786E0,1.0931398E0,9.6330826E1,3.2265272E0,2.0178508E2,1.8905884E1,1.6726763E1,2.6716473E1,3.822176E0],"tree_param":{"num_deleted":"0","num_feature":"36","num_nodes":"31","size_leaf_vector":"1"}},{"base_weights":[5.8771115E-2,-7.928745E-1,7.914921E-1,2.48644E-1,-1.0025703E0,2.5046933E-1,9.6222055E-1,6.9162726E-1,-5.701471E-2,-5.5447903E-2,6.581896E-2,1.0630285E0,-1.9312567E-1,9.795501E-1,-4.594775E-2,4.669599E-2,-5.797528E-2,4.486702E-2,-5.383519E-2,5.8090623E-2,1.0365645E-2,1.861833E-2,-8.130896E-2,5.1395744E-2,2.6514545E-2],"categories":[],"categories_nodes":[],"categories_segments":[],"categories_sizes":[],"default_left":[0,0,0,0,0,0,0,0,0,0,0,0,0,0,0,0,0,0,0,0,0,0,0,0,0],"id":35,"left_children":[1,3,5,7,9,11,13,15,-1,-1,17,19,21,23,-1,-1,-1,-1,-1,-1,-1,-1,-1,-1,-1],"loss_changes":[5.045922E2,8.193059E1,3.9903625E1,3.9846737E1,3.5480835E1,3.8269875E1,1.1658539E1,2.2949167E1,0E0,0E0,2.8664099E1,2.9245224E0,5.6649345E1,6.570587E0,0E0,0E0,0E0,0E0,0E0,0E0,0E0,0E0,0E0,0E0,0E0],"parents":[2147483647,0,0,1,1,2,2,3,3,4,4,5,5,6,6,7,7,10,10,11,11,12,12,13,13],"right_children":[2,4,6,8,10,12,14,16,-1,-1,18,20,22,24,-1,-1,-1,-1,-1,-1,-1,-1,-1,-1,-1],"split_conditions":[1E0,1.5818971E-1,1.4662756E-1,6.319E-1,3.8399357E-1,9.064362E-1,2.3636192E-1,3.4402767E-1,-5.701471E-2,-5.5447903E-2,4.325E-1,5.32E9,7.977765E-1,2.08017E-1,-4.594775E-2,4.669599E-2,-5.797528E-2,4.486702E-2,-5.383519E-2,5.8090623E-2,1.0365645E-2,1.861833E-2,-8.130896E-2,5.1395744E-2,2.6514545E-2],"split_indices":[32,10,4,31,2,8,0,27,0,0,31,29,16,18,0,0,0,0,0,0,0,0,0,0,0],"split_type":[0,0,0,0,0,0,0,0,0,0,0,0,0,0,0,0,0,0,0,0,0,0,0,0,0],"sum_hessian":[8.066116E2,3.7299515E2,4.3361642E2,6.248055E1,3.1051462E2,1.0460377E2,3.2901263E2,4.7752556E1,1.4727993E1,2.823599E2,2.815473E1,3.6446384E1,6.815739E1,3.2648434E2,2.528313E0,4.266383E1,5.088728E0,1.6419392E1,1.1735339E1,3.2353752E1,4.092631E0,4.940286E1,1.875453E1,2.9359003E2,3.2894318E1],"tree_param":{"num_deleted":"0","num_feature":"36","num_nodes":"25","size_leaf_vector":"1"}},{"base_weights":[1.0349451E-1,-5.0636816E-1,7.736882E-1,3.3031002E-1,-1.0053246E0,9.072423E-1,9.155625E-3,-5.4692984E-2,6.2026554E-1,4.563935E-1,-1.0838398E0,9.2588925E-1,-7.238304E-2,-1.8952129E0,3.373941E-1,4.003481E-2,-5.4507293E-2,-4.4372424E-2,4.990303E-2,2.5520781E-2,-5.547611E-2,3.6609415E-2,5.16663E-2,-1.0858859E-1,-4.6799395E-2,3.5887714E-2,-6.082967E-2],"categories":[],"categories_nodes":[],"categories_segments":[],"categories_sizes":[],"default_left":[0,0,0,0,0,0,0,0,0,0,0,0,0,0,0,0,0,0,0,0,0,0,0,0,0,0,0],"id":36,"left_children":[1,3,5,7,9,11,13,-1,15,17,19,21,-1,23,25,-1,-1,-1,-1,-1,-1,-1,-1,-1,-1,-1,-1],"loss_changes":[3.2855487E2,1.760733E2,3.9090393E1,6.593057E1,3.0788086E1,1.5654144E1,3.686586E1,0E0,4.158625E1,1.11923685E1,1.0834961E1,5.986389E0,0E0,2.6765633E-1,3.0594025E1,0E0,0E0,0E0,0E0,0E0,0E0,0E0,0E0,0E0,0E0,0E0,0E0],"parents":[2147483647,0,0,1,1,2,2,3,3,4,4,5,5,6,6,8,8,9,9,10,10,11,11,13,13,14,14],"right_children":[2,4,6,8,10,12,14,-1,16,18,20,22,-1,24,26,-1,-1,-1,-1,-1,-1,-1,-1,-1,-1,-1,-1],"split_conditions":[5.792E-1,3.0342013E-1,2.26847E-3,-5.106E-1,4.9875034E-3,9.3752354E-1,2.322409E-3,-5.4692984E-2,8.255E-1,1.4415047E-1,3.5957262E-1,3.7906048E-1,-7.238304E-2,9.382852E-1,8.122925E-1,4.003481E-2,-5.4507293E-2,-4.4372424E-2,4.990303E-2,2.5520781E-2,-5.547611E-2,3.6609415E-2,5.16663E-2,-1.0858859E-1,-4.6799395E-2,3.5887714E-2,-6.082967E-2],"split_indices":[34,14,12,30,26,8,12,0,31,24,3,2,0,8,16,0,0,0,0,0,0,0,0,0,0,0,0],"split_type":[0,0,0,0,0,0,0,0,0,0,0,0,0,0,0,0,0,0,0,0,0,0,0,0,0,0,0],"sum_hessian":[8.0189246E2,4.1997144E2,3.8192105E2,1.5701607E2,2.6295538E2,3.2496683E2,5.6954216E1,2.6091312E1,1.3092476E2,1.3159128E1,2.4979623E2,3.230159E2,1.9509271E0,7.671565E0,4.928265E1,1.1891259E2,1.2012172E1,3.5969517E0,9.562177E0,3.6610258E0,2.4613521E2,1.1803044E2,2.0498546E2,4.973532E0,2.6980329E0,4.0024273E1,9.258379E0],"tree_param":{"num_deleted":"0","num_feature":"36","num_nodes":"27","size_leaf_vector":"1"}},{"base_weights":[5.512221E-2,-7.1492183E-1,7.626186E-1,6.9689795E-2,-5.4652896E-2,8.1345963E-1,-5.281024E-2,8.221166E-1,-5.6982166E-1,4.9687824E-1,1.0073298E0,-5.3828407E-2,5.5106964E-2,-5.7947766E-2,4.411876E-2,5.444437E-2,8.940272E-3,5.101599E-2,-1.1268927E-3],"categories":[],"categories_nodes":[],"categories_segments":[],"categories_sizes":[],"default_left":[0,0,0,0,0,0,0,0,0,0,0,0,0,0,0,0,0,0,0],"id":37,"left_children":[1,3,5,7,-1,9,-1,11,13,15,17,-1,-1,-1,-1,-1,-1,-1,-1],"loss_changes":[4.0356183E2,1.0532156E2,3.6554306E1,5.643136E1,0E0,2.2581833E1,0E0,2.981356E1,5.531418E1,2.707336E1,3.1303406E0,0E0,0E0,0E0,0E0,0E0,0E0,0E0,0E0],"parents":[2147483647,0,0,1,1,2,2,3,3,5,5,7,7,8,8,9,9,10,10],"right_children":[2,4,6,8,-1,10,-1,12,14,16,18,-1,-1,-1,-1,-1,-1,-1,-1],"split_conditions":[1E0,1.6872445E-1,5.1996297E-1,5.903E-1,-5.4652896E-2,3.7906048E-1,-5.281024E-2,4.512301E-2,6.219173E-1,3.9618778E-1,7.4193996E-1,-5.3828407E-2,5.5106964E-2,-5.7947766E-2,4.411876E-2,5.444437E-2,8.940272E-3,5.101599E-2,-1.1268927E-3],"split_indices":[32,10,11,31,0,2,0,17,28,11,20,0,0,0,0,0,0,0,0],"split_type":[0,0,0,0,0,0,0,0,0,0,0,0,0,0,0,0,0,0,0],"sum_hessian":[7.387469E2,3.53732E2,3.850149E2,1.1530212E2,2.384299E2,3.7508307E2,9.931824E0,5.284316E1,6.2458954E1,1.4381026E2,2.3127281E2,6.4261646E0,4.6416996E1,4.457678E1,1.7882175E1,4.9414585E1,9.439567E1,2.2840118E2,2.8716195E0],"tree_param":{"num_deleted":"0","num_feature":"36","num_nodes":"19","size_leaf_vector":"1"}},{"base_weights":[4.442147E-2,-6.413117E-1,7.234622E-1,1.682067E-1,-1.0546749E0,-8.395652E-1,8.0499756E-1,4.272829E-1,-5.4631837E-2,3.1877313E-2,-5.4281354E-2,4.8677213E-2,-1.4448833E0,9.2869854E-1,1.8654802E-1,-6.062413E-2,3.2137766E-2,-8.48387E-2,-4.883843E-2,4.71167E-2,-4.5092855E-2,-1.1652137E-1,3.0010039E-2],"categories":[],"categories_nodes":[],"categories_segments":[],"categories_sizes":[],"default_left":[0,0,0,0,0,0,0,0,0,0,0,0,0,0,0,0,0,0,0,0,0,0,0],"id":38,"left_children":[1,3,5,7,9,11,13,15,-1,-1,-1,-1,17,19,21,-1,-1,-1,-1,-1,-1,-1,-1],"loss_changes":[3.3627826E2,1.2042679E2,4.6915863E1,4.042756E1,1.3159271E1,2.1686672E1,2.6247284E1,3.6889038E1,0E0,0E0,0E0,0E0,2.359581E-2,8.026932E0,6.2633747E1,0E0,0E0,0E0,0E0,0E0,0E0,0E0,0E0],"parents":[2147483647,0,0,1,1,2,2,3,3,4,4,5,5,6,6,7,7,12,12,13,13,14,14],"right_children":[2,4,6,8,10,12,14,16,-1,-1,-1,-1,18,20,22,-1,-1,-1,-1,-1,-1,-1,-1],"split_conditions":[1E0,2.0620213E-1,8.870212E-2,8.255E-1,-8.302E-1,1.672497E-1,3.148092E-2,8.17523E-2,-5.4631837E-2,3.1877313E-2,-5.4281354E-2,4.8677213E-2,4.9251693E-1,5.062643E-1,3.959205E-1,-6.062413E-2,3.2137766E-2,-8.48387E-2,-4.883843E-2,4.71167E-2,-4.5092855E-2,-1.1652137E-1,3.0010039E-2],"split_indices":[32,0,4,31,31,0,18,19,0,0,0,0,11,11,22,0,0,0,0,0,0,0,0],"split_type":[0,0,0,0,0,0,0,0,0,0,0,0,0,0,0,0,0,0,0,0,0,0,0],"sum_hessian":[7.201874E2,3.5835556E2,3.6183185E2,1.21333206E2,2.3702235E2,1.7478233E1,3.443536E2,1.0119992E2,2.0133291E1,3.9054446E0,2.331169E2,4.22244E0,1.3255793E1,2.8653903E2,5.7814575E1,1.1216233E1,8.998368E1,6.9118557E0,6.3439374E0,2.8490207E2,1.6369607E0,7.506371E0,5.0308205E1],"tree_param":{"num_deleted":"0","num_feature":"36","num_nodes":"23","size_leaf_vector":"1"}},{"base_weights":[-1.9010134E-2,-7.398061E-1,6.746564E-1,-1.0259802E0,2.5137797E-2,-1.9471146E-1,8.931978E-1,5.2720096E-2,-5.4492246E-2,-4.8637894E-1,8.929169E-1,9.757345E-1,-9.413596E-1,9.539953E-1,3.4131515E-1,-5.7186168E-2,3.0405348E-2,-4.5240264E-2,5.5758018E-2,5.3598877E-2,1.1524639E-2,-8.090954E-2,2.0876056E-2,4.8328783E-2,-5.253436E-2,4.1414082E-2,-1.01363696E-1],"categories":[],"categories_nodes":[],"categories_segments":[],"categories_sizes":[],"default_left":[0,0,0,0,0,0,0,0,0,0,0,0,0,0,0,0,0,0,0,0,0,0,0,0,0,0,0],"id":39,"left_children":[1,3,5,7,9,11,13,-1,-1,15,17,19,21,23,25,-1,-1,-1,-1,-1,-1,-1,-1,-1,-1,-1,-1],"loss_changes":[3.3376495E2,7.1686356E1,6.48069E1,3.2804413E1,4.042865E1,6.1356773E1,8.801773E0,0E0,0E0,4.1944763E1,1.4499956E1,1.7200279E0,3.9977936E1,7.181137E0,3.4610546E1,0E0,0E0,0E0,0E0,0E0,0E0,0E0,0E0,0E0,0E0,0E0,0E0],"parents":[2147483647,0,0,1,1,2,2,3,3,4,4,5,5,6,6,9,9,10,10,11,11,12,12,13,13,14,14],"right_children":[2,4,6,8,10,12,14,-1,-1,16,18,20,22,24,26,-1,-1,-1,-1,-1,-1,-1,-1,-1,-1,-1,-1],"split_conditions":[1E0,3.7916672E-1,1.445113E-1,1.2140993E-3,5.448E-1,8.852358E-1,2.08017E-1,5.2720096E-2,-5.4492246E-2,-2.732E-1,-6.705E-1,8.607674E-1,7.94E9,1.7881757E-1,3.03496E-1,-5.7186168E-2,3.0405348E-2,-4.5240264E-2,5.5758018E-2,5.3598877E-2,1.1524639E-2,-8.090954E-2,2.0876056E-2,4.8328783E-2,-5.253436E-2,4.1414082E-2,-1.01363696E-1],"split_indices":[32,2,4,26,34,8,18,0,0,30,30,16,29,35,14,0,0,0,0,0,0,0,0,0,0,0,0],"split_type":[0,0,0,0,0,0,0,0,0,0,0,0,0,0,0,0,0,0,0,0,0,0,0,0,0,0,0],"sum_hessian":[6.6554236E2,3.26356E2,3.3918637E2,2.3725499E2,8.9101006E1,6.815834E1,2.71028E2,6.604511E0,2.3065048E2,5.63341E1,3.2766903E1,2.6426043E1,4.17323E1,2.4347702E2,2.7550999E1,3.5167583E1,2.1166517E1,3.2672164E0,2.9499687E1,2.3015337E1,3.4107065E0,2.7729809E1,1.400249E1,2.4247324E2,1.0037906E0,2.3392052E1,4.1589475E0],"tree_param":{"num_deleted":"0","num_feature":"36","num_nodes":"27","size_leaf_vector":"1"}},{"base_weights":[1.0444194E-2,-7.4773514E-1,6.926935E-1,-5.4435547E-2,9.410955E-2,9.8943543E-1,3.531508E-1,5.2361E-1,-5.4319877E-2,1.0045099E0,-5.4281447E-3,-5.77478E-1,5.8270997E-1,-5.1969673E-2,3.842994E-2,5.0980844E-2,6.225352E-4,1.2281406E-2,-7.0750296E-2,-1.3611893E-1,3.148554E-2],"categories":[],"categories_nodes":[],"categories_segments":[],"categories_sizes":[],"default_left":[0,0,0,0,0,0,0,0,0,0,0,0,0,0,0,0,0,0,0,0,0],"id":40,"left_children":[1,3,5,-1,7,9,11,13,-1,15,-1,17,19,-1,-1,-1,-1,-1,-1,-1,-1],"loss_changes":[3.432721E2,9.033006E1,3.484442E1,0E0,4.69787E1,3.1850739E0,3.5469765E1,2.6756762E1,0E0,2.7362366E0,0E0,2.3125843E1,2.228358E1,0E0,0E0,0E0,0E0,0E0,0E0,0E0,0E0],"parents":[2147483647,0,0,1,1,2,2,4,4,5,5,6,6,7,7,9,9,11,11,12,12],"right_children":[2,4,6,-1,8,10,12,14,-1,16,-1,18,20,-1,-1,-1,-1,-1,-1,-1,-1],"split_conditions":[1E0,3.7916672E-1,2.0279853E-1,-5.4435547E-2,3.0344865E-1,7.973153E-1,3.7341166E-1,-5.106E-1,-5.4319877E-2,7.51E9,-5.4281447E-3,6.004338E-1,2.0359E-3,-5.1969673E-2,3.842994E-2,5.0980844E-2,6.225352E-4,1.2281406E-2,-7.0750296E-2,-1.3611893E-1,3.148554E-2],"split_indices":[32,2,0,0,14,13,2,30,0,29,0,28,12,0,0,0,0,0,0,0,0],"split_type":[0,0,0,0,0,0,0,0,0,0,0,0,0,0,0,0,0,0,0,0,0],"sum_hessian":[6.6162476E2,3.133286E2,3.482961E2,2.2279556E2,9.053305E1,1.8484102E2,1.6345511E2,6.678963E1,2.3743423E1,1.8242168E2,2.4193294E0,3.204196E1,1.3141315E2,8.610825E0,5.8178806E1,1.796581E2,2.7635837E0,1.6516544E1,1.5525415E1,1.0444638E0,1.3036868E2],"tree_param":{"num_deleted":"0","num_feature":"36","num_nodes":"21","size_leaf_vector":"1"}},{"base_weights":[7.386017E-2,-6.5209717E-1,7.331947E-1,3.1349072E-1,-9.818501E-1,3.3656213E-1,9.9223226E-1,9.2171854E-1,-5.848503E-1,-2.4448618E-2,-5.4000724E-2,5.743198E-1,-8.1651646E-1,5.245831E-3,1.0022988E0,-4.436333E-2,5.3750914E-2,4.6575304E-2,-5.6223728E-2,5.0825644E-2,-5.6163628E-2,-1.14237584E-1,3.1867668E-2,4.6066977E-2,-6.839479E-2,5.08892E-2,1.7382601E-2],"categories":[],"categories_nodes":[],"categories_segments":[],"categories_sizes":[],"default_left":[0,0,0,0,0,0,0,0,0,0,0,0,0,0,0,0,0,0,0,0,0,0,0,0,0,0,0],"id":41,"left_children":[1,3,5,7,9,11,13,15,17,19,-1,21,23,-1,25,-1,-1,-1,-1,-1,-1,-1,-1,-1,-1,-1,-1],"loss_changes":[3.14488E2,9.98958E1,3.5036575E1,4.445817E1,2.1908356E1,3.8171146E1,1.7504578E0,1.4352997E1,2.8101215E1,2.7138704E1,0E0,2.2109234E1,2.4182596E1,0E0,1.7272644E0,0E0,0E0,0E0,0E0,0E0,0E0,0E0,0E0,0E0,0E0,0E0,0E0],"parents":[2147483647,0,0,1,1,2,2,3,3,4,4,5,5,6,6,7,7,8,8,9,9,11,11,12,12,14,14],"right_children":[2,4,6,8,10,12,14,16,18,20,-1,22,24,-1,26,-1,-1,-1,-1,-1,-1,-1,-1,-1,-1,-1,-1],"split_conditions":[1E0,2.7697486E-1,3.7930316E-1,4.325E-1,7.9688716E-1,4.9251693E-1,1.1398766E-4,3.7916672E-1,5.2849665E-2,5.646287E-1,-5.4000724E-2,-8.689E-1,-9.118E-1,5.245831E-3,7.408902E-1,-4.436333E-2,5.3750914E-2,4.6575304E-2,-5.6223728E-2,5.0825644E-2,-5.6163628E-2,-1.14237584E-1,3.1867668E-2,4.6066977E-2,-6.839479E-2,5.08892E-2,1.7382601E-2],"split_indices":[32,21,2,31,13,11,29,2,24,7,0,31,31,0,20,0,0,0,0,0,0,0,0,0,0,0,0],"split_type":[0,0,0,0,0,0,0,0,0,0,0,0,0,0,0,0,0,0,0,0,0,0,0,0,0,0,0],"sum_hessian":[6.550341E2,3.1177103E2,3.4326312E2,7.937962E1,2.323914E2,1.3652238E2,2.0674074E2,4.731718E1,3.206244E1,2.172786E1,2.1066354E2,1.1360058E2,2.2921806E1,2.4472837E0,2.0429344E2,3.3225265E0,4.3994656E1,8.224683E0,2.3837757E1,1.1196171E1,1.0531689E1,1.690198E0,1.1191038E2,5.3592777E0,1.7562529E1,1.9903082E2,5.262628E0],"tree_param":{"num_deleted":"0","num_feature":"36","num_nodes":"27","size_leaf_vector":"1"}},{"base_weights":[1.018967E-2,5.471214E-1,-6.1236006E-1,6.7012084E-1,-8.943895E-1,-9.3048835E-1,3.9466345E-1,-1.8122776E-1,7.6006496E-1,1.8427778E-2,-5.446106E-2,-1.058814E0,-1.6702244E-1,-7.486674E-1,9.082354E-1,4.4841006E-2,-6.448402E-2,1.354671E-2,4.301532E-2,-5.794092E-2,-3.0832896E-2,-6.549828E-2,2.312077E-2,-5.1885743E-2,2.7071765E-2,-5.523188E-3,4.946564E-2],"categories":[],"categories_nodes":[],"categories_segments":[],"categories_sizes":[],"default_left":[0,0,0,0,0,0,0,0,0,0,0,0,0,0,0,0,0,0,0,0,0,0,0,0,0,0,0],"id":42,"left_children":[1,3,5,7,9,11,13,15,17,-1,-1,19,21,23,25,-1,-1,-1,-1,-1,-1,-1,-1,-1,-1,-1,-1],"loss_changes":[2.0486668E2,5.8943336E1,9.129304E1,2.339795E1,6.8724957E0,2.0983429E1,4.110103E1,3.6806076E1,1.32469635E1,0E0,0E0,7.4531097E0,2.3818567E1,8.722947E0,4.0699425E0,0E0,0E0,0E0,0E0,0E0,0E0,0E0,0E0,0E0,0E0,0E0,0E0],"parents":[2147483647,0,0,1,1,2,2,3,3,4,4,5,5,6,6,7,7,8,8,11,11,12,12,13,13,14,14],"right_children":[2,4,6,8,10,12,14,16,18,-1,-1,20,22,24,26,-1,-1,-1,-1,-1,-1,-1,-1,-1,-1,-1,-1],"split_conditions":[2.1121301E-1,8.255E-1,3.797975E-1,1.0067418E-1,6.383845E-2,6.324571E-1,5.765E-1,3.595281E-1,1E0,1.8427778E-2,-5.446106E-2,2.1701571E-1,3.9434883E-1,6.3573205E-1,5.657616E-1,4.4841006E-2,-6.448402E-2,1.354671E-2,4.301532E-2,-5.794092E-2,-3.0832896E-2,-6.549828E-2,2.312077E-2,-5.1885743E-2,2.7071765E-2,-5.523188E-3,4.946564E-2],"split_indices":[0,31,2,4,19,5,34,11,33,0,0,10,22,5,7,0,0,0,0,0,0,0,0,0,0,0,0],"split_type":[0,0,0,0,0,0,0,0,0,0,0,0,0,0,0,0,0,0,0,0,0,0,0,0,0,0,0],"sum_hessian":[6.1088153E2,3.2806006E2,2.8282147E2,3.0276154E2,2.529852E1,2.1498247E2,6.7839005E1,2.8833061E1,2.7392847E2,3.2619727E0,2.2036547E1,1.8371608E2,3.1266397E1,2.0885422E1,4.6953587E1,1.4713793E1,1.4119268E1,4.722E1,2.2670848E2,1.485068E2,3.5209267E1,1.071989E1,2.0546509E1,1.7222382E1,3.663039E0,3.4347806E0,4.3518806E1],"tree_param":{"num_deleted":"0","num_feature":"36","num_nodes":"27","size_leaf_vector":"1"}},{"base_weights":[8.450255E-2,-5.161885E-1,6.7026937E-1,1.3065596E-1,-9.7738314E-1,3.049869E-1,9.290527E-1,-5.3270776E-2,3.6121517E-1,4.0198978E-2,-5.30045E-2,5.254792E-1,-7.729548E-1,9.4837743E-1,-1.2881939E-2,1.758099E-3,6.2474567E-2,3.3389162E-2,-5.4113068E-2,4.8374705E-2,-6.7493185E-2,4.9750425E-2,3.105585E-2],"categories":[],"categories_nodes":[],"categories_segments":[],"categories_sizes":[],"default_left":[0,0,0,0,0,0,0,0,0,0,0,0,0,0,0,0,0,0,0,0,0,0,0],"id":43,"left_children":[1,3,5,7,9,11,13,-1,15,-1,-1,17,19,21,-1,-1,-1,-1,-1,-1,-1,-1,-1],"loss_changes":[2.1897017E2,9.18084E1,2.9494019E1,3.5902733E1,2.7301788E1,3.1806744E1,4.461502E0,0E0,3.14468E1,0E0,0E0,2.5952187E1,2.4238686E1,2.1465912E0,0E0,0E0,0E0,0E0,0E0,0E0,0E0,0E0,0E0],"parents":[2147483647,0,0,1,1,2,2,3,3,4,4,5,5,6,6,8,8,11,11,12,12,13,13],"right_children":[2,4,6,8,10,12,14,-1,16,-1,-1,18,20,22,-1,-1,-1,-1,-1,-1,-1,-1,-1],"split_conditions":[1E0,2.1074028E-1,3.7906048E-1,3.736107E-1,-6.808E-1,4.9251693E-1,8.3119583E-1,-5.3270776E-2,6.191571E-1,4.0198978E-2,-5.30045E-2,1.6523173E-1,-9.118E-1,6.050246E-1,-1.2881939E-2,1.758099E-3,6.2474567E-2,3.3389162E-2,-5.4113068E-2,4.8374705E-2,-6.7493185E-2,4.9750425E-2,3.105585E-2],"split_indices":[32,0,2,2,31,11,16,0,28,0,0,35,31,28,0,0,0,0,0,0,0,0,0],"split_type":[0,0,0,0,0,0,0,0,0,0,0,0,0,0,0,0,0,0,0,0,0,0,0],"sum_hessian":[6.2032996E2,3.063221E2,3.140078E2,1.2779752E2,1.7852458E2,1.3111398E2,1.8289384E2,2.006829E1,1.0772923E2,7.534012E0,1.7099057E2,1.0927447E2,2.183951E1,1.8016081E2,2.733019E0,7.956387E1,2.816536E1,1.0092597E2,8.348497E0,5.2684226E0,1.6571087E1,1.5590556E2,2.4255255E1],"tree_param":{"num_deleted":"0","num_feature":"36","num_nodes":"23","size_leaf_vector":"1"}},{"base_weights":[9.585006E-2,-5.879753E-1,6.527101E-1,1.1384399E-1,-9.5543456E-1,2.0780586E-1,9.4340986E-1,-5.8001804E-1,8.6969453E-1,6.7903996E-2,-1.0452695E0,4.7184163E-1,-8.185246E-1,-1.6945308E-1,9.719043E-1,-5.728167E-2,3.2850787E-2,5.137672E-2,-5.562058E-2,-4.8416328E-2,3.7014123E-2,2.088857E-2,-5.373695E-2,2.8498089E-2,-8.444416E-2,-6.3246675E-2,3.4932647E-2,-4.3116417E-2,3.6598098E-2,5.0515037E-2,2.3846596E-2],"categories":[],"categories_nodes":[],"categories_segments":[],"categories_sizes":[],"default_left":[0,0,0,0,0,0,0,0,0,0,0,0,0,0,0,0,0,0,0,0,0,0,0,0,0,0,0,0,0,0,0],"id":44,"left_children":[1,3,5,7,9,11,13,15,17,19,21,23,25,27,29,-1,-1,-1,-1,-1,-1,-1,-1,-1,-1,-1,-1,-1,-1,-1,-1],"loss_changes":[2.3013177E2,7.008042E1,4.287384E1,4.9873756E1,1.645221E1,3.6396366E1,6.5426025E0,3.5512802E1,1.5363789E1,1.1390303E1,7.514267E0,2.3505278E1,1.954735E1,4.2991595E0,3.2480469E0,0E0,0E0,0E0,0E0,0E0,0E0,0E0,0E0,0E0,0E0,0E0,0E0,0E0,0E0,0E0,0E0],"parents":[2147483647,0,0,1,1,2,2,3,3,4,4,5,5,6,6,7,7,8,8,9,9,10,10,11,11,12,12,13,13,14,14],"right_children":[2,4,6,8,10,12,14,16,18,20,22,24,26,28,30,-1,-1,-1,-1,-1,-1,-1,-1,-1,-1,-1,-1,-1,-1,-1,-1],"split_conditions":[5.504E-1,3.0342013E-1,3.7906048E-1,-2.732E-1,7.7308123E-3,4.9251693E-1,-6.705E-1,6.22919E-1,3.9246058E-1,6.323934E-1,3.5957262E-1,1.6925381E-1,8.354E-1,5.6909734E-1,1.4576374E-1,-5.728167E-2,3.2850787E-2,5.137672E-2,-5.562058E-2,-4.8416328E-2,3.7014123E-2,2.088857E-2,-5.373695E-2,2.8498089E-2,-8.444416E-2,-6.3246675E-2,3.4932647E-2,-4.3116417E-2,3.6598098E-2,5.0515037E-2,2.3846596E-2],"split_indices":[34,14,2,30,26,11,30,28,22,5,3,35,34,7,18,0,0,0,0,0,0,0,0,0,0,0,0,0,0,0,0],"split_type":[0,0,0,0,0,0,0,0,0,0,0,0,0,0,0,0,0,0,0,0,0,0,0,0,0,0,0,0,0,0,0],"sum_hessian":[6.023377E2,2.703237E2,3.32014E2,9.313434E1,1.7718936E2,1.3188469E2,2.0012932E2,4.867963E1,4.445471E1,1.4319174E1,1.6287018E2,1.0532806E2,2.6556637E1,4.8728065E0,1.9525652E2,3.3456177E1,1.5223453E1,4.1621857E1,2.8328536E0,5.4617267E0,8.857447E0,2.9556913E0,1.5991449E2,1.0145703E2,3.8710225E0,2.0647615E1,5.909022E0,2.7796116E0,2.093195E0,1.8023407E2,1.5022434E1],"tree_param":{"num_deleted":"0","num_feature":"36","num_nodes":"31","size_leaf_vector":"1"}},{"base_weights":[1.6770737E-2,-6.624665E-1,6.355057E-1,1.3396545E-1,-9.5629E-1,8.0900925E-1,-9.103251E-2,6.8525416E-1,-9.19534E-1,5.4347064E-2,-1.024135E0,-8.349894E-3,9.06337E-1,5.3479964E-1,-1.312118E0,-4.718863E-2,4.526821E-2,-5.7194915E-2,3.950157E-2,-5.329771E-2,1.5009651E-2,4.6449568E-2,-1.0368522E-1,4.6899177E-2,-1.00759445E-2,-7.61993E-2,4.271992E-2,-8.449645E-2,-5.830826E-4],"categories":[],"categories_nodes":[],"categories_segments":[],"categories_sizes":[],"default_left":[0,0,0,0,0,0,0,0,0,0,0,0,0,0,0,0,0,0,0,0,0,0,0,0,0,0,0,0,0],"id":45,"left_children":[1,3,5,7,9,11,13,15,17,-1,19,21,23,25,27,-1,-1,-1,-1,-1,-1,-1,-1,-1,-1,-1,-1,-1,-1],"loss_changes":[2.3414328E2,6.2279327E1,3.6823715E1,4.2710125E1,2.8025116E1,1.8736923E1,4.433641E1,1.811473E1,1.0614418E1,0E0,1.0754791E1,5.2343414E1,7.565399E0,2.6609035E1,9.628803E0,0E0,0E0,0E0,0E0,0E0,0E0,0E0,0E0,0E0,0E0,0E0,0E0,0E0,0E0],"parents":[2147483647,0,0,1,1,2,2,3,3,4,4,5,5,6,6,7,7,8,8,10,10,11,11,12,12,13,13,14,14],"right_children":[2,4,6,8,10,12,14,16,18,-1,20,22,24,26,28,-1,-1,-1,-1,-1,-1,-1,-1,-1,-1,-1,-1,-1,-1],"split_conditions":[1E0,7.972028E-1,2.1612933E-1,5.647044E-1,5.9366345E-1,3.2948315E-1,1.5078539E-1,-5.106E-1,6.405E-1,5.4347064E-2,6E-1,1.5692554E-1,7.51E9,2.5860561E-2,7.4045986E-1,-4.718863E-2,4.526821E-2,-5.7194915E-2,3.950157E-2,-5.329771E-2,1.5009651E-2,4.6449568E-2,-1.0368522E-1,4.6899177E-2,-1.00759445E-2,-7.61993E-2,4.271992E-2,-8.449645E-2,-5.830826E-4],"split_indices":[32,13,0,7,23,15,35,30,34,0,34,10,29,17,20,0,0,0,0,0,0,0,0,0,0,0,0,0,0],"split_type":[0,0,0,0,0,0,0,0,0,0,0,0,0,0,0,0,0,0,0,0,0,0,0,0,0,0,0,0,0],"sum_hessian":[5.55127E2,2.6459174E2,2.9053525E2,7.145401E1,1.9313774E2,2.3443631E2,5.6098927E1,4.7137066E1,2.4316942E1,5.7242503E0,1.874135E2,2.5042599E1,2.0939372E2,3.7461266E1,1.8637661E1,5.21956E0,4.1917507E1,2.1788317E1,2.528626E0,1.8186569E2,5.5478034E0,1.7603584E1,7.4390135E0,2.0372746E2,5.666251E0,4.527521E0,3.2933746E1,1.4209889E1,4.4277716E0],"tree_param":{"num_deleted":"0","num_feature":"36","num_nodes":"29","size_leaf_vector":"1"}},{"base_weights":[3.4813743E-2,-6.672266E-1,6.5352476E-1,-1.025434E0,1.0958855E-1,2.2310947E-1,9.4085014E-1,4.483967E-1,-5.355544E-2,8.062893E-1,-6.9530535E-1,4.9365005E-1,-1.3518949E0,9.557803E-1,-4.066446E-2,4.546954E-2,-3.222178E-2,-5.309629E-2,5.917075E-2,3.9456774E-2,-5.5775512E-2,-1.0525029E-1,2.7986938E-2,-8.274789E-2,-5.118942E-2,5.0527163E-2,3.0525465E-2],"categories":[],"categories_nodes":[],"categories_segments":[],"categories_sizes":[],"default_left":[0,0,0,0,0,0,0,0,0,0,0,0,0,0,0,0,0,0,0,0,0,0,0,0,0,0,0],"id":46,"left_children":[1,3,5,7,9,11,13,15,-1,17,19,21,23,25,-1,-1,-1,-1,-1,-1,-1,-1,-1,-1,-1,-1,-1],"loss_changes":[2.3623889E2,7.1015E1,3.5538887E1,1.2226227E1,4.61619E1,5.053425E1,5.3091125E0,3.583497E0,0E0,3.2293716E1,2.4749973E1,1.8456718E1,3.816986E-2,2.6359406E0,0E0,0E0,0E0,0E0,0E0,0E0,0E0,0E0,0E0,0E0,0E0,0E0,0E0],"parents":[2147483647,0,0,1,1,2,2,3,3,4,4,5,5,6,6,7,7,9,9,10,10,11,11,12,12,13,13],"right_children":[2,4,6,8,10,12,14,16,-1,18,20,22,24,26,-1,-1,-1,-1,-1,-1,-1,-1,-1,-1,-1,-1,-1],"split_conditions":[1E0,4.512301E-2,3.7906048E-1,3.538025E-1,5.903E-1,4.9251693E-1,2.006658E-1,1.7812234E-1,-5.355544E-2,1E0,5.2849665E-2,-8.689E-1,5.599106E-1,6.050246E-1,-4.066446E-2,4.546954E-2,-3.222178E-2,-5.309629E-2,5.917075E-2,3.9456774E-2,-5.5775512E-2,-1.0525029E-1,2.7986938E-2,-8.274789E-2,-5.118942E-2,5.0527163E-2,3.0525465E-2],"split_indices":[32,17,2,22,31,11,10,0,0,33,24,31,3,28,0,0,0,0,0,0,0,0,0,0,0,0,0],"split_type":[0,0,0,0,0,0,0,0,0,0,0,0,0,0,0,0,0,0,0,0,0,0,0,0,0,0,0],"sum_hessian":[5.41874E2,2.5380623E2,2.880678E2,1.7348721E2,8.0319016E1,1.1603024E2,1.7203757E2,4.9498153E0,1.685374E2,4.3052155E1,3.7266857E1,9.960716E1,1.6423082E1,1.7103693E2,1.0006331E0,3.5993464E0,1.3504689E0,6.9260178E0,3.6126137E1,8.028151E0,2.9238707E1,1.705227E0,9.790193E1,6.435148E0,9.987934E0,1.4595967E2,2.5077263E1],"tree_param":{"num_deleted":"0","num_feature":"36","num_nodes":"27","size_leaf_vector":"1"}},{"base_weights":[8.727393E-2,-5.1217103E-1,5.8723E-1,2.7364025E-1,-9.714539E-1,7.351964E-1,-3.801308E-1,-5.0612547E-2,5.1892203E-1,2.174988E-1,-1.031437E0,-3.785507E-1,7.9399955E-1,7.678219E-1,-1.0668303E0,3.516015E-2,-5.240941E-2,-4.340466E-2,4.527468E-2,2.0075588E-2,-5.3078562E-2,-4.80725E-2,3.387322E-2,-4.237178E-2,4.0825095E-2,5.1772863E-2,-2.7409054E-3,-7.560957E-2,3.4070686E-2],"categories":[],"categories_nodes":[],"categories_segments":[],"categories_sizes":[],"default_left":[0,0,0,0,0,0,0,0,0,0,0,0,0,0,0,0,0,0,0,0,0,0,0,0,0,0,0,0,0],"id":47,"left_children":[1,3,5,7,9,11,13,-1,15,17,19,21,23,25,27,-1,-1,-1,-1,-1,-1,-1,-1,-1,-1,-1,-1,-1,-1],"loss_changes":[1.5994087E2,8.788349E1,4.1918617E1,2.9016308E1,1.11670685E1,1.6847183E1,3.176173E1,0E0,2.28358E1,6.9067926E0,6.741089E0,8.867459E0,9.567841E0,3.4194746E0,2.047904E1,0E0,0E0,0E0,0E0,0E0,0E0,0E0,0E0,0E0,0E0,0E0,0E0,0E0,0E0],"parents":[2147483647,0,0,1,1,2,2,3,3,4,4,5,5,6,6,8,8,9,9,10,10,11,11,12,12,13,13,14,14],"right_children":[2,4,6,8,10,12,14,-1,16,18,20,22,24,26,28,-1,-1,-1,-1,-1,-1,-1,-1,-1,-1,-1,-1,-1,-1],"split_conditions":[5.504E-1,3.0340344E-1,3.486814E-1,-5.106E-1,4.1139345E-3,-6.705E-1,1.6497408E-1,-5.0612547E-2,1.7348616E-1,3.037725E-1,3.595281E-1,6E-1,1.2797359E-4,2.0158791E-3,4.2557836E-1,3.516015E-2,-5.240941E-2,-4.340466E-2,4.527468E-2,2.0075588E-2,-5.3078562E-2,-4.80725E-2,3.387322E-2,-4.237178E-2,4.0825095E-2,5.1772863E-2,-2.7409054E-3,-7.560957E-2,3.4070686E-2],"split_indices":[34,14,27,30,26,30,10,0,10,14,11,34,29,12,22,0,0,0,0,0,0,0,0,0,0,0,0,0,0],"split_type":[0,0,0,0,0,0,0,0,0,0,0,0,0,0,0,0,0,0,0,0,0,0,0,0,0,0,0,0,0],"sum_hessian":[5.316732E2,2.4176895E2,2.8990424E2,8.933138E1,1.5243756E2,2.5165186E2,3.825238E1,1.3809276E1,7.552211E1,7.1950607E0,1.4524251E2,1.2347585E1,2.3930428E2,1.4273424E1,2.3978958E1,6.806896E1,7.4531493E0,2.6895025E0,4.5055585E0,2.737636E0,1.4250487E2,8.0137205E0,4.3338647E0,2.7404695E0,2.365638E2,1.0574459E1,3.6989646E0,1.9218191E1,4.7607665E0],"tree_param":{"num_deleted":"0","num_feature":"36","num_nodes":"29","size_leaf_vector":"1"}},{"base_weights":[8.94511E-2,-5.5249643E-1,6.5638626E-1,3.591478E-1,-9.8622966E-1,3.2137427E-1,9.238688E-1,7.0333034E-1,-5.177059E-1,-5.2802097E-2,6.0886633E-2,8.7022334E-1,-4.1390304E-2,9.6839166E-1,5.3155535E-1,-2.8360117E-2,4.6314146E-2,5.2463014E-2,-5.477921E-2,-4.4257067E-2,4.516679E-2,4.948012E-2,-3.6867026E-2,-1.5419064E-1,7.0173875E-3,2.1115977E-2,4.9364362E-2,4.258956E-2,-1.1813539E-1],"categories":[],"categories_nodes":[],"categories_segments":[],"categories_sizes":[],"default_left":[0,0,0,0,0,0,0,0,0,0,0,0,0,0,0,0,0,0,0,0,0,0,0,0,0,0,0,0,0],"id":48,"left_children":[1,3,5,7,9,11,13,15,17,-1,19,21,23,25,27,-1,-1,-1,-1,-1,-1,-1,-1,-1,-1,-1,-1,-1,-1],"loss_changes":[1.9004662E2,9.721737E1,2.4545036E1,2.44198E1,1.2218201E1,2.4846043E1,2.168396E0,1.685981E1,2.2016155E1,0E0,9.835281E0,1.0254505E1,4.244236E1,9.9398804E-1,1.8578426E1,0E0,0E0,0E0,0E0,0E0,0E0,0E0,0E0,0E0,0E0,0E0,0E0,0E0,0E0],"parents":[2147483647,0,0,1,1,2,2,3,3,4,4,5,5,6,6,7,7,8,8,10,10,11,11,12,12,13,13,14,14],"right_children":[2,4,6,8,10,12,14,16,18,-1,20,22,24,26,28,-1,-1,-1,-1,-1,-1,-1,-1,-1,-1,-1,-1,-1,-1],"split_conditions":[1E0,8.378578E-1,3.7906048E-1,6.319E-1,2.9495196E-2,9.141159E-1,3.035076E-1,8.354369E-2,1.2140993E-3,-5.2802097E-2,1.2361258E-1,5.92E9,3.033435E-1,2.501946E-2,2.77584E-2,-2.8360117E-2,4.6314146E-2,5.2463014E-2,-5.477921E-2,-4.4257067E-2,4.516679E-2,4.948012E-2,-3.6867026E-2,-1.5419064E-1,7.0173875E-3,2.1115977E-2,4.9364362E-2,4.258956E-2,-1.1813539E-1],"split_indices":[32,1,2,31,9,8,14,19,26,0,35,29,14,9,26,0,0,0,0,0,0,0,0,0,0,0,0,0,0],"split_type":[0,0,0,0,0,0,0,0,0,0,0,0,0,0,0,0,0,0,0,0,0,0,0,0,0,0,0,0,0],"sum_hessian":[5.2019196E2,2.439687E2,2.7622324E2,7.870796E1,1.6526074E2,1.23608986E2,1.5261424E2,5.6664078E1,2.2043886E1,1.5492332E2,1.033742E1,4.8631897E1,7.497709E1,1.3574086E2,1.6873388E1,8.228507E0,4.843557E1,5.7194357E0,1.632445E1,4.8454967E0,5.4919243E0,4.5627937E1,3.0039608E0,3.3261728E0,7.165092E1,5.3208637E0,1.3042E2,1.5827816E1,1.0455725E0],"tree_param":{"num_deleted":"0","num_feature":"36","num_nodes":"29","size_leaf_vector":"1"}},{"base_weights":[8.1034675E-2,5.224928E-1,-5.8876055E-1,8.573211E-2,8.022288E-1,-9.8158634E-1,7.5516656E-2,-5.2286755E-2,3.9485976E-1,4.723643E-1,9.275146E-1,3.0288128E-2,-5.2097708E-2,-6.687806E-2,3.9526528E-1,3.0017255E-2,-5.1327772E-2,3.5707504E-2,-2.7803868E-2,-1.5139061E-2,4.7396358E-2,2.6461145E-2,-5.994488E-2],"categories":[],"categories_nodes":[],"categories_segments":[],"categories_sizes":[],"default_left":[0,0,0,0,0,0,0,0,0,0,0,0,0,0,0,0,0,0,0,0,0,0,0],"id":49,"left_children":[1,3,5,7,9,11,13,-1,15,17,19,-1,-1,-1,21,-1,-1,-1,-1,-1,-1,-1,-1],"loss_changes":[1.5116153E2,3.7566353E1,5.3084038E1,4.286902E1,7.3170395E0,1.287059E1,3.505694E1,0E0,2.8674267E1,1.3748179E1,3.6763382E0,0E0,0E0,0E0,1.4107266E1,0E0,0E0,0E0,0E0,0E0,0E0,0E0,0E0],"parents":[2147483647,0,0,1,1,2,2,3,3,4,4,5,5,6,6,8,8,9,9,10,10,14,14],"right_children":[2,4,6,8,10,12,14,-1,16,18,20,-1,-1,-1,22,-1,-1,-1,-1,-1,-1,-1,-1],"split_conditions":[9.304703E-1,1E0,1E0,-5.106E-1,1.5379266E-1,-6.808E-1,3.7341166E-1,-5.2286755E-2,8.255E-1,1.263718E-1,-9.022E-1,3.0288128E-2,-5.2097708E-2,-6.687806E-2,2.268129E-1,3.0017255E-2,-5.1327772E-2,3.5707504E-2,-2.7803868E-2,-1.5139061E-2,4.7396358E-2,2.6461145E-2,-5.994488E-2],"split_indices":[8,32,32,30,4,31,2,0,31,4,31,0,0,0,0,0,0,0,0,0,0,0,0],"split_type":[0,0,0,0,0,0,0,0,0,0,0,0,0,0,0,0,0,0,0,0,0,0,0],"sum_hessian":[5.091818E2,3.0703604E2,2.0214575E2,1.2038366E2,1.8665237E2,1.2672702E2,7.541873E1,2.5321007E1,9.506265E1,5.2691475E1,1.339609E2,4.3119345E0,1.22415085E2,1.3329219E1,6.208951E1,8.356047E1,1.1502185E1,4.290917E1,9.782307E0,1.9605715E0,1.3200034E2,5.78928E1,4.196712E0],"tree_param":{"num_deleted":"0","num_feature":"36","num_nodes":"23","size_leaf_vector":"1"}},{"base_weights":[4.615409E-2,-6.217312E-1,6.018833E-1,1.0242605E-1,-9.9731964E-1,6.740026E-1,-5.739593E-2,7.530481E-1,-5.9779656E-1,4.770816E-1,-5.244836E-2,2.3279314E-1,8.1977177E-1,4.980674E-2,-5.0939657E-2,5.350659E-2,-5.6866195E-2,-3.1786673E-2,4.479726E-2,3.8565572E-2,-3.247225E-2,4.3328505E-2,1.7175633E-2],"categories":[],"categories_nodes":[],"categories_segments":[],"categories_sizes":[],"default_left":[0,0,0,0,0,0,0,0,0,0,0,0,0,0,0,0,0,0,0,0,0,0,0],"id":50,"left_children":[1,3,5,7,9,11,-1,13,15,17,-1,19,21,-1,-1,-1,-1,-1,-1,-1,-1,-1,-1],"loss_changes":[1.7933948E2,5.979769E1,3.405031E1,3.50126E1,1.1512848E1,1.613771E1,0E0,1.8143217E1,3.460039E1,3.1713378E0,0E0,3.1119272E1,3.9468613E0,0E0,0E0,0E0,0E0,0E0,0E0,0E0,0E0,0E0,0E0],"parents":[2147483647,0,0,1,1,2,2,3,3,4,4,5,5,7,7,8,8,9,9,11,11,12,12],"right_children":[2,4,6,8,10,12,-1,14,16,18,-1,20,22,-1,-1,-1,-1,-1,-1,-1,-1,-1,-1],"split_conditions":[1E0,1.6615398E-1,9.381988E-1,5.903E-1,-6.808E-1,1.3728572E-1,-5.739593E-2,7.325932E-1,3.573803E-3,3.768875E-1,-5.244836E-2,4.439136E-1,7.29E9,4.980674E-2,-5.0939657E-2,5.350659E-2,-5.6866195E-2,-3.1786673E-2,4.479726E-2,3.8565572E-2,-3.247225E-2,4.3328505E-2,1.7175633E-2],"split_indices":[32,10,8,31,31,4,0,20,26,2,0,11,29,0,0,0,0,0,0,0,0,0,0],"split_type":[0,0,0,0,0,0,0,0,0,0,0,0,0,0,0,0,0,0,0,0,0,0,0],"sum_hessian":[4.811739E2,2.1848088E2,2.62693E2,7.486463E1,1.4361624E2,2.5288498E2,9.808022E0,3.8767654E1,3.6096973E1,4.5817566E0,1.3903448E2,6.3445923E1,1.8943906E2,3.4475594E1,4.29206E0,8.582143E0,2.7514832E1,1.1113698E0,3.470387E0,3.947569E1,2.3970234E1,1.7174359E2,1.7695467E1],"tree_param":{"num_deleted":"0","num_feature":"36","num_nodes":"23","size_leaf_vector":"1"}},{"base_weights":[9.031047E-2,4.8535016E-1,-5.6950396E-1,3.0532135E-2,7.318957E-1,-9.6593696E-1,1.1428658E-1,2.896809E-1,-5.2565135E-2,8.49946E-1,2.3526594E-1,-5.2179016E-2,5.9975815E-1,-6.9104455E-2,4.1185567E-1,-5.042839E-2,2.398645E-2,4.3741107E-2,-1.3184326E-2,-1.0838884E-1,2.7745077E-2,-2.673239E-2,4.7339555E-2,-1.0470261E-1,2.852363E-2],"categories":[],"categories_nodes":[],"categories_segments":[],"categories_sizes":[],"default_left":[0,0,0,0,0,0,0,0,0,0,0,0,0,0,0,0,0,0,0,0,0,0,0,0,0],"id":51,"left_children":[1,3,5,7,9,11,13,15,-1,17,19,-1,21,-1,23,-1,-1,-1,-1,-1,-1,-1,-1,-1,-1],"loss_changes":[1.2490401E2,3.3574547E1,4.8774353E1,3.012472E1,1.1188408E1,1.445327E1,3.0303272E1,2.1849134E1,0E0,4.567856E0,3.0919712E1,0E0,2.8718526E0,0E0,2.3640526E1,0E0,0E0,0E0,0E0,0E0,0E0,0E0,0E0,0E0,0E0],"parents":[2147483647,0,0,1,1,2,2,3,3,4,4,5,5,6,6,7,7,9,9,10,10,12,12,14,14],"right_children":[2,4,6,8,10,12,14,16,-1,18,20,-1,22,-1,24,-1,-1,-1,-1,-1,-1,-1,-1,-1,-1],"split_conditions":[9.3150544E-1,5.464E-1,5.792E-1,3.0345565E-1,9.244025E-1,9.256E-1,2.5508147E-2,3.736107E-1,-5.2565135E-2,2.1452208E-1,5.1455516E-1,-5.2179016E-2,3.037614E-1,-6.9104455E-2,2.241708E-3,-5.042839E-2,2.398645E-2,4.3741107E-2,-1.3184326E-2,-1.0838884E-1,2.7745077E-2,-2.673239E-2,4.7339555E-2,-1.0470261E-1,2.852363E-2],"split_indices":[8,34,34,14,8,31,17,2,0,0,3,0,14,0,12,0,0,0,0,0,0,0,0,0,0],"split_type":[0,0,0,0,0,0,0,0,0,0,0,0,0,0,0,0,0,0,0,0,0,0,0,0,0],"sum_hessian":[4.771363E2,2.9861557E2,1.785207E2,1.0536535E2,1.9325023E2,1.1274391E2,6.5776794E1,8.559393E1,1.9771418E1,1.555614E2,3.768883E1,1.0773478E2,5.0091333E0,1.0306127E1,5.5470673E1,1.0379947E1,7.521398E1,1.523722E2,3.189217E0,3.7457786E0,3.394305E1,1.0467657E0,3.9623678E0,2.5757508E0,5.289492E1],"tree_param":{"num_deleted":"0","num_feature":"36","num_nodes":"25","size_leaf_vector":"1"}},{"base_weights":[1.14759795E-1,-4.2217636E-1,6.048595E-1,1.751239E-1,-9.396418E-1,2.1060598E-1,8.786893E-1,4.0217885E-1,-5.3004917E-2,7.247434E-1,-5.173388E-2,3.9571917E-1,-1.5295885E0,9.095761E-1,2.1061549E-1,2.9970704E-2,-5.0385494E-2,1.828117E-2,4.3826766E-2,2.6488751E-2,-5.108079E-2,-9.675811E-2,-4.7788695E-2,-4.1120793E-3,4.6187658E-2,-9.8450676E-2,4.5495726E-2],"categories":[],"categories_nodes":[],"categories_segments":[],"categories_sizes":[],"default_left":[0,0,0,0,0,0,0,0,0,0,0,0,0,0,0,0,0,0,0,0,0,0,0,0,0,0,0],"id":52,"left_children":[1,3,5,7,9,11,13,15,-1,17,-1,19,21,23,25,-1,-1,-1,-1,-1,-1,-1,-1,-1,-1,-1,-1],"loss_changes":[1.2416667E2,6.979729E1,2.6435783E1,2.9992842E1,1.9868431E1,3.3586445E1,2.8046036E0,2.556892E1,0E0,6.746817E-2,0E0,1.8274925E1,4.891739E-1,2.0231705E0,1.3555033E1,0E0,0E0,0E0,