{"learner":{"attributes":{"scikit_learn":"{\"_estimator_type\": \"classifier\"}"},"feature_names":["RevolvingUtilizationOfUnsecuredLines","age","NumberOfTime30-59DaysPastDueNotWorse","DebtRatio","MonthlyIncome","NumberOfOpenCreditLinesAndLoans","NumberOfTimes90DaysLate","NumberRealEstateLoansOrLines","NumberOfTime60-89DaysPastDueNotWorse","NumberOfDependents","log_monthly_income","log_debt_ratio","total_times_past_due","has_dependents","income_per_dependent","credit_lines_per_age","real_estate_flag","util_low","util_moderate","util_high","util_maxed","age_under30","age_30to45","age_45to60","age_60plus"],"feature_types":["float","int","int","float","float","int","int","int","int","float","float","float","int","int","float","float","int","i","i","i","i","i","i","i","i"],"gradient_booster":{"model":{"cats":{"enc":[],"feature_segments":[],"sorted_idx":[]},"gbtree_model_param":{"num_parallel_tree":"1","num_trees":"300"},"iteration_indptr":[0,1,2,3,4,5,6,7,8,9,10,11,12,13,14,15,16,17,18,19,20,21,22,23,24,25,26,27,28,29,30,31,32,33,34,35,36,37,38,39,40,41,42,43,44,45,46,47,48,49,50,51,52,53,54,55,56,57,58,59,60,61,62,63,64,65,66,67,68,69,70,71,72,73,74,75,76,77,78,79,80,81,82,83,84,85,86,87,88,89,90,91,92,93,94,95,96,97,98,99,100,101,102,103,104,105,106,107,108,109,110,111,112,113,114,115,116,117,118,119,120,121,122,123,124,125,126,127,128,129,130,131,132,133,134,135,136,137,138,139,140,141,142,143,144,145,146,147,148,149,150,151,152,153,154,155,156,157,158,159,160,161,162,163,164,165,166,167,168,169,170,171,172,173,174,175,176,177,178,179,180,181,182,183,184,185,186,187,188,189,190,191,192,193,194,195,196,197,198,199,200,201,202,203,204,205,206,207,208,209,210,211,212,213,214,215,216,217,218,219,220,221,222,223,224,225,226,227,228,229,230,231,232,233,234,235,236,237,238,239,240,241,242,243,244,245,246,247,248,249,250,251,252,253,254,255,256,257,258,259,260,261,262,263,264,265,266,267,268,269,270,271,272,273,274,275,276,277,278,279,280,281,282,283,284,285,286,287,288,289,290,291,292,293,294,295,296,297,298,299,300],"tree_info":[0,0,0,0,0,0,0,0,0,0,0,0,0,0,0,0,0,0,0,0,0,0,0,0,0,0,0,0,0,0,0,0,0,0,0,0,0,0,0,0,0,0,0,0,0,0,0,0,0,0,0,0,0,0,0,0,0,0,0,0,0,0,0,0,0,0,0,0,0,0,0,0,0,0,0,0,0,0,0,0,0,0,0,0,0,0,0,0,0,0,0,0,0,0,0,0,0,0,0,0,0,0,0,0,0,0,0,0,0,0,0,0,0,0,0,0,0,0,0,0,0,0,0,0,0,0,0,0,0,0,0,0,0,0,0,0,0,0,0,0,0,0,0,0,0,0,0,0,0,0,0,0,0,0,0,0,0,0,0,0,0,0,0,0,0,0,0,0,0,0,0,0,0,0,0,0,0,0,0,0,0,0,0,0,0,0,0,0,0,0,0,0,0,0,0,0,0,0,0,0,0,0,0,0,0,0,0,0,0,0,0,0,0,0,0,0,0,0,0,0,0,0,0,0,0,0,0,0,0,0,0,0,0,0,0,0,0,0,0,0,0,0,0,0,0,0,0,0,0,0,0,0,0,0,0,0,0,0,0,0,0,0,0,0,0,0,0,0,0,0,0,0,0,0,0,0,0,0,0,0,0,0,0,0,0,0,0,0,0,0,0,0,0,0,0,0,0,0,0,0],"trees":[{"base_weights":[-7.4872724E-3,-8.712905E-1,1.1876425E0,-1.3369815E0,3.4216043E-2,6.2956977E-1,1.5250194E0,-1.4110315E0,-5.3211606E-1,1.4533126E-1,-6.125014E-1,4.4166163E-2,1.1531473E0,1.2288342E0,1.717018E0,-7.7076785E-2,-5.3204563E-2,-4.1440804E-2,1.4010223E-3,-1.0411467E-2,1.8936759E-2,-3.7244752E-2,-5.3004264E-3,3.5211902E-2,-1.1788151E-2,7.0395775E-2,4.7366537E-2,4.2527135E-2,7.158308E-2,7.690462E-2,8.8440776E-2],"categories":[],"categories_nodes":[],"categories_segments":[],"categories_sizes":[],"default_left":[0,0,0,0,0,0,0,0,0,0,0,0,0,0,0,0,0,0,0,0,0,0,0,0,0,0,0,0,0,0,0],"id":0,"left_children":[1,3,5,7,9,11,13,15,17,19,21,23,25,27,29,-1,-1,-1,-1,-1,-1,-1,-1,-1,-1,-1,-1,-1,-1,-1,-1],"loss_changes":[4.316128E4,1.0233604E4,3.301545E3,9.544121E2,5.9243384E2,2.0260437E3,6.195039E2,6.628164E2,2.246878E2,5.8064215E2,8.0979126E1,5.770178E2,1.8163428E2,3.2890918E2,5.8720703E1,0E0,0E0,0E0,0E0,0E0,0E0,0E0,0E0,0E0,0E0,0E0,0E0,0E0,0E0,0E0,0E0],"parents":[2147483647,0,0,1,1,2,2,3,3,4,4,5,5,6,6,7,7,8,8,9,9,10,10,11,11,12,12,13,13,14,14],"right_children":[2,4,6,8,10,12,14,16,18,20,22,24,26,28,30,-1,-1,-1,-1,-1,-1,-1,-1,-1,-1,-1,-1,-1,-1,-1,-1],"split_conditions":[1E0,4.2788398E-1,2E0,3E0,1E0,6.1024314E-1,1E0,1.5674569E-1,2.962963E-1,7.467655E-1,2.0588236E-1,1E0,1E0,5.484671E-1,3E0,-7.7076785E-2,-5.3204563E-2,-4.1440804E-2,1.4010223E-3,-1.0411467E-2,1.8936759E-2,-3.7244752E-2,-5.3004264E-3,3.5211902E-2,-1.1788151E-2,7.0395775E-2,4.7366537E-2,4.2527135E-2,7.158308E-2,7.690462E-2,8.8440776E-2],"split_indices":[12,0,12,7,24,0,6,0,15,0,15,2,2,0,12,0,0,0,0,0,0,0,0,0,0,0,0,0,0,0,0],"split_type":[0,0,0,0,0,0,0,0,0,0,0,0,0,0,0,0,0,0,0,0,0,0,0,0,0,0,0,0,0,0,0],"sum_hessian":[4.180649E4,2.4267182E4,1.7539307E4,1.602516E4,8.242021E3,6.609333E3,1.0929973E4,1.4674326E4,1.3508337E3,7.0342188E3,1.2078032E3,3.1209421E3,3.4883909E3,4.301576E3,6.6283965E3,1.0660759E4,4.0135671E3,8.8276196E2,4.680718E2,2.7971694E3,4.2370493E3,9.571423E2,2.506609E2,9.289548E2,2.1919873E3,1.5562101E3,1.9321808E3,1.5031881E3,2.7983882E3,1.4949701E3,5.133427E3],"tree_param":{"num_deleted":"0","num_feature":"25","num_nodes":"31","size_leaf_vector":"1"}},{"base_weights":[8.631077E-3,-8.252451E-1,1.1429874E0,-1.283137E0,5.4685153E-2,5.888414E-1,1.470173E0,-1.3482832E0,-5.617537E-1,1.6170542E-1,-5.777708E-1,-2.518665E-3,1.0754193E0,1.2101557E0,1.6416541E0,-7.2970435E-2,-5.201584E-2,-3.76545E-2,1.1283729E-2,-7.6042847E-3,1.9551933E-2,-3.8845476E-2,-1.7685747E-2,2.6724506E-2,-1.0529681E-2,6.762714E-2,4.239978E-2,4.1117486E-2,6.92284E-2,7.664545E-2,8.6000435E-2],"categories":[],"categories_nodes":[],"categories_segments":[],"categories_sizes":[],"default_left":[0,0,0,0,0,0,0,0,0,0,0,0,0,0,0,0,0,0,0,0,0,0,0,0,0,0,0,0,0,0,0],"id":1,"left_children":[1,3,5,7,9,11,13,15,17,19,21,23,25,27,29,-1,-1,-1,-1,-1,-1,-1,-1,-1,-1,-1,-1,-1,-1,-1,-1],"loss_changes":[3.990515E4,9.796377E3,3.2397031E3,7.50791E2,5.634224E2,1.9097307E3,4.990625E2,5.0041797E2,1.9999332E2,5.1236273E2,5.347766E1,3.3497897E2,2.2832764E2,3.0117725E2,5.5039062E1,0E0,0E0,0E0,0E0,0E0,0E0,0E0,0E0,0E0,0E0,0E0,0E0,0E0,0E0,0E0,0E0],"parents":[2147483647,0,0,1,1,2,2,3,3,4,4,5,5,6,6,7,7,8,8,9,9,10,10,11,11,12,12,13,13,14,14],"right_children":[2,4,6,8,10,12,14,16,18,20,22,24,26,28,30,-1,-1,-1,-1,-1,-1,-1,-1,-1,-1,-1,-1,-1,-1,-1,-1],"split_conditions":[1E0,4.2788398E-1,2E0,3E0,1E0,5.682483E-1,1E0,1.6078572E-1,5E0,7.714485E-1,9E0,1E0,1E0,4.950174E-1,4E0,-7.2970435E-2,-5.201584E-2,-3.76545E-2,1.1283729E-2,-7.6042847E-3,1.9551933E-2,-3.8845476E-2,-1.7685747E-2,2.6724506E-2,-1.0529681E-2,6.762714E-2,4.239978E-2,4.1117486E-2,6.92284E-2,7.664545E-2,8.6000435E-2],"split_indices":[12,0,12,7,24,0,6,0,7,0,5,2,2,0,12,0,0,0,0,0,0,0,0,0,0,0,0,0,0,0,0],"split_type":[0,0,0,0,0,0,0,0,0,0,0,0,0,0,0,0,0,0,0,0,0,0,0,0,0,0,0,0,0,0,0],"sum_hessian":[4.2184934E4,2.4312705E4,1.787223E4,1.5990976E4,8.321729E3,6.635929E3,1.1236301E4,1.46656875E4,1.3252877E3,7.118008E3,1.2037207E3,2.995887E3,3.6400422E3,4.4686025E3,6.767698E3,1.0774216E4,3.8914722E3,1.0662455E3,2.5904227E2,3.0057078E3,4.1123003E3,6.359908E2,5.677299E2,8.362049E2,2.1596821E3,1.6385118E3,2.0015304E3,1.3880299E3,3.0805725E3,2.8428196E3,3.9248784E3],"tree_param":{"num_deleted":"0","num_feature":"25","num_nodes":"31","size_leaf_vector":"1"}},{"base_weights":[3.6906947E-3,-7.974342E-1,8.788352E-1,-1.0643E0,3.7970874E-1,5.4817194E-1,1.5454988E0,-1.1445534E0,1.0265703E0,1.5951554E-1,1.2420738E0,2.2266985E-1,1.0777E0,1.475211E0,1.6359271E0,-5.945303E-2,2.5484687E-2,4.205128E-2,7.5325474E-2,4.820153E-4,6.0915638E-2,5.5607308E-2,7.356222E-2,5.552012E-3,6.301424E-2,4.7543254E-2,7.1349315E-2,6.961006E-2,7.9199456E-2,5.1020768E-2,8.229258E-2],"categories":[],"categories_nodes":[],"categories_segments":[],"categories_sizes":[],"default_left":[0,0,0,0,0,0,0,0,0,0,0,0,0,0,0,0,0,0,0,0,0,0,0,0,0,0,0,0,0,0,0],"id":2,"left_children":[1,3,5,7,9,11,13,15,17,19,21,23,25,27,29,-1,-1,-1,-1,-1,-1,-1,-1,-1,-1,-1,-1,-1,-1,-1,-1],"loss_changes":[2.9362021E4,6.8689365E3,4.4113525E3,2.9920547E3,7.672327E2,2.3061067E3,3.976172E1,1.2644492E3,5.7450623E1,5.1105963E2,2.2836304E1,9.5985974E2,2.2430225E2,3.1599121E1,1.5991699E1,0E0,0E0,0E0,0E0,0E0,0E0,0E0,0E0,0E0,0E0,0E0,0E0,0E0,0E0,0E0,0E0],"parents":[2147483647,0,0,1,1,2,2,3,3,4,4,5,5,6,6,7,7,8,8,9,9,10,10,11,11,12,12,13,13,14,14],"right_children":[2,4,6,8,10,12,14,16,18,20,22,24,26,28,30,-1,-1,-1,-1,-1,-1,-1,-1,-1,-1,-1,-1,-1,-1,-1,-1],"split_conditions":[4.950174E-1,1E0,1E0,1E0,1E0,1E0,1E0,1E0,2E0,1E0,1E0,1E0,1E0,2E0,2.4E1,-5.945303E-2,2.5484687E-2,4.205128E-2,7.5325474E-2,4.820153E-4,6.0915638E-2,5.5607308E-2,7.356222E-2,5.552012E-3,6.301424E-2,4.7543254E-2,7.1349315E-2,6.961006E-2,7.9199456E-2,5.1020768E-2,8.229258E-2],"split_indices":[0,2,6,6,8,2,8,8,6,6,6,8,8,6,1,0,0,0,0,0,0,0,0,0,0,0,0,0,0,0,0],"split_type":[0,0,0,0,0,0,0,0,0,0,0,0,0,0,0,0,0,0,0,0,0,0,0,0,0,0,0,0,0,0,0],"sum_hessian":[4.1877934E4,2.1863621E4,2.001431E4,1.7823107E4,4.0405151E3,1.3379793E4,6.6345176E3,1.7164729E4,6.5837836E2,3.2196152E3,8.2089984E2,8.287109E3,5.0926836E3,3.7427104E3,2.8918071E3,1.671529E4,4.4944003E2,4.7679968E2,1.8157869E2,2.8212673E3,3.9834793E2,5.276198E2,2.9328006E2,7.4831567E3,8.039527E2,3.738763E3,1.3539205E3,2.1306125E3,1.6120979E3,4.7534344E1,2.8442727E3],"tree_param":{"num_deleted":"0","num_feature":"25","num_nodes":"31","size_leaf_vector":"1"}},{"base_weights":[5.3422595E-3,-7.603479E-1,8.4192085E-1,-1.0169935E0,3.6711156E-1,5.2666396E-1,1.4825947E0,-1.0956118E0,1.0025585E0,1.6548868E-1,1.2828374E0,2.0729573E-1,1.046908E0,1.4163028E0,1.5660087E0,-5.7060122E-2,2.5440155E-2,4.206861E-2,7.6063536E-2,-5.3708404E-3,3.673994E-2,6.468284E-2,-7.783028E-2,4.9809087E-3,6.0468107E-2,4.711941E-2,7.359423E-2,6.6686265E-2,7.60269E-2,5.5793107E-2,7.8604534E-2],"categories":[],"categories_nodes":[],"categories_segments":[],"categories_sizes":[],"default_left":[0,0,0,0,0,0,0,0,0,0,0,0,0,0,0,0,0,0,0,0,0,0,0,0,0,0,0,0,0,0,0],"id":3,"left_children":[1,3,5,7,9,11,13,15,17,19,21,23,25,27,29,-1,-1,-1,-1,-1,-1,-1,-1,-1,-1,-1,-1,-1,-1,-1,-1],"loss_changes":[2.672609E4,6.303875E3,4.0263428E3,2.8185977E3,7.457145E2,2.2202944E3,3.413867E1,1.2499902E3,5.4357117E1,5.146903E2,2.4405762E1,8.935342E2,2.2440527E2,2.9596191E1,6.190918E0,0E0,0E0,0E0,0E0,0E0,0E0,0E0,0E0,0E0,0E0,0E0,0E0,0E0,0E0,0E0,0E0],"parents":[2147483647,0,0,1,1,2,2,3,3,4,4,5,5,6,6,7,7,8,8,9,9,10,10,11,11,12,12,13,13,14,14],"right_children":[2,4,6,8,10,12,14,16,18,20,22,24,26,28,30,-1,-1,-1,-1,-1,-1,-1,-1,-1,-1,-1,-1,-1,-1,-1,-1],"split_conditions":[4.950174E-1,1E0,1E0,1E0,1E0,1E0,1E0,1E0,1E0,2E0,3.592E3,1E0,1.0001091E0,2E0,2.3E1,-5.7060122E-2,2.5440155E-2,4.206861E-2,7.6063536E-2,-5.3708404E-3,3.673994E-2,6.468284E-2,-7.783028E-2,4.9809087E-3,6.0468107E-2,4.711941E-2,7.359423E-2,6.6686265E-2,7.60269E-2,5.5793107E-2,7.8604534E-2],"split_indices":[0,2,6,6,6,2,8,8,8,2,3,8,0,6,1,0,0,0,0,0,0,0,0,0,0,0,0,0,0,0,0],"split_type":[0,0,0,0,0,0,0,0,0,0,0,0,0,0,0,0,0,0,0,0,0,0,0,0,0,0,0,0,0,0,0],"sum_hessian":[4.1721008E4,2.1783473E4,1.9937535E4,1.7744385E4,4.0390886E3,1.3363546E4,6.5739883E3,1.7079943E4,6.6444006E2,3.3112124E3,7.278761E2,8.281243E3,5.082303E3,3.6729497E3,2.9010388E3,1.6608295E4,4.7164838E2,5.0891898E2,1.5552107E2,2.2388193E3,1.0723931E3,7.2565546E2,2.2206402E0,7.4787134E3,8.0252966E2,4.081665E3,1.0006382E3,2.0570793E3,1.6158704E3,4.1132507E1,2.8599062E3],"tree_param":{"num_deleted":"0","num_feature":"25","num_nodes":"31","size_leaf_vector":"1"}},{"base_weights":[-2.1125025E-3,-7.062058E-1,9.814806E-1,-3.559192E-2,-1.191704E0,4.779669E-1,1.2836185E0,2.2922005E-1,-3.3249727E-1,-1.2298479E0,-7.370378E-2,7.820823E-1,-1.917499E-1,1.0528007E0,1.4377823E0,4.4774837E-3,3.6448628E-2,-2.5194291E-2,1.3198571E-2,-6.6844635E-2,-4.7796737E-2,6.1182543E-3,-6.8062685E-2,4.9044084E-2,1.7481964E-2,1.8473504E-2,-2.0377038E-2,4.2414967E-2,6.253817E-2,6.6051655E-2,7.610851E-2],"categories":[],"categories_nodes":[],"categories_segments":[],"categories_sizes":[],"default_left":[0,0,0,0,0,0,0,0,0,0,0,0,0,0,0,0,0,0,0,0,0,0,0,0,0,0,0,0,0,0,0],"id":4,"left_children":[1,3,5,7,9,11,13,15,17,19,21,23,25,27,29,-1,-1,-1,-1,-1,-1,-1,-1,-1,-1,-1,-1,-1,-1,-1,-1],"loss_changes":[2.8693887E4,7.8618594E3,2.629043E3,7.9743713E2,5.972285E2,1.3207656E3,3.828789E2,3.7413727E2,4.8892682E2,3.9586328E2,1.1709571E2,3.8302637E2,2.4547424E2,1.7421338E2,6.1770508E1,0E0,0E0,0E0,0E0,0E0,0E0,0E0,0E0,0E0,0E0,0E0,0E0,0E0,0E0,0E0,0E0],"parents":[2147483647,0,0,1,1,2,2,3,3,4,4,5,5,6,6,7,7,8,8,9,9,10,10,11,11,12,12,13,13,14,14],"right_children":[2,4,6,8,10,12,14,16,18,20,22,24,26,28,30,-1,-1,-1,-1,-1,-1,-1,-1,-1,-1,-1,-1,-1,-1,-1,-1],"split_conditions":[1E0,1E0,2E0,1E0,4E0,1E0,1E0,2.361111E-1,2.9032257E-1,2.0833333E-1,6.4E1,1E0,1E0,3E0,4E0,4.4774837E-3,3.6448628E-2,-2.5194291E-2,1.3198571E-2,-6.6844635E-2,-4.7796737E-2,6.1182543E-3,-6.8062685E-2,4.9044084E-2,1.7481964E-2,1.8473504E-2,-2.0377038E-2,4.2414967E-2,6.253817E-2,6.6051655E-2,7.610851E-2],"split_indices":[12,17,12,18,7,17,6,15,15,15,1,18,2,12,12,0,0,0,0,0,0,0,0,0,0,0,0,0,0,0,0],"split_type":[0,0,0,0,0,0,0,0,0,0,0,0,0,0,0,0,0,0,0,0,0,0,0,0,0,0,0,0,0,0,0],"sum_hessian":[4.1430746E4,2.4146236E4,1.7284512E4,1.0140433E4,1.4005805E4,6.483057E3,1.0801453E4,5.3600205E3,4.780412E3,1.3543624E4,4.6218036E2,4.4583657E3,2.0246917E3,4.328519E3,6.472934E3,4.1901426E3,1.169878E3,3.713527E3,1.0668849E3,9.735235E3,3.8083887E3,4.018859E2,6.0294468E1,3.0534082E3,1.4049574E3,5.620981E2,1.4625936E3,2.1316985E3,2.1968208E3,2.722731E3,3.7502034E3],"tree_param":{"num_deleted":"0","num_feature":"25","num_nodes":"31","size_leaf_vector":"1"}},{"base_weights":[-1.5915066E-4,-7.700249E-1,6.988574E-1,-9.734339E-1,2.2206694E-1,3.6767423E-1,1.1237991E0,-1.0237423E0,5.879151E-1,2.0300914E-3,1.0982975E0,2.3482135E-1,1.2426516E0,9.649813E-1,1.3877617E0,-5.6880947E-2,-3.3519767E-2,2.3482298E-2,6.281837E-2,-1.1935241E-2,2.7776426E-2,-6.1474968E-2,5.5222142E-2,-6.061004E-3,2.4071265E-2,-7.9917766E-2,6.2378455E-2,2.9051218E-2,5.42722E-2,6.3538596E-2,7.200039E-2],"categories":[],"categories_nodes":[],"categories_segments":[],"categories_sizes":[],"default_left":[0,0,0,0,0,0,0,0,0,0,0,0,0,0,0,0,0,0,0,0,0,0,0,0,0,0,0,0,0,0,0],"id":5,"left_children":[1,3,5,7,9,11,13,15,17,19,21,23,25,27,29,-1,-1,-1,-1,-1,-1,-1,-1,-1,-1,-1,-1,-1,-1,-1,-1],"loss_changes":[2.2178162E4,3.9579414E3,3.039412E3,1.2790146E3,6.4352014E2,1.4109711E3,3.952539E2,6.3369727E2,3.9624496E1,3.5573956E2,1.0941284E1,9.256105E2,2.4349121E1,2.7271143E2,1.987793E1,0E0,0E0,0E0,0E0,0E0,0E0,0E0,0E0,0E0,0E0,0E0,0E0,0E0,0E0,0E0,0E0],"parents":[2147483647,0,0,1,1,2,2,3,3,4,4,5,5,6,6,7,7,8,8,9,9,10,10,11,11,12,12,13,13,14,14],"right_children":[2,4,6,8,10,12,14,16,18,20,22,24,26,28,30,-1,-1,-1,-1,-1,-1,-1,-1,-1,-1,-1,-1,-1,-1,-1,-1],"split_conditions":[3.9730495E-1,1E0,1E0,1E0,1E0,1E0,1E0,1.7196178E-1,2E0,2E0,8.98E2,7.714485E-1,1.25E2,6.992552E-1,8.8057065E-1,-5.6880947E-2,-3.3519767E-2,2.3482298E-2,6.281837E-2,-1.1935241E-2,2.7776426E-2,-6.1474968E-2,5.5222142E-2,-6.061004E-3,2.4071265E-2,-7.9917766E-2,6.2378455E-2,2.9051218E-2,5.42722E-2,6.3538596E-2,7.200039E-2],"split_indices":[0,2,2,8,8,8,8,0,8,2,4,0,4,0,0,0,0,0,0,0,0,0,0,0,0,0,0,0,0,0,0],"split_type":[0,0,0,0,0,0,0,0,0,0,0,0,0,0,0,0,0,0,0,0,0,0,0,0,0,0,0,0,0,0,0],"sum_hessian":[4.1209945E4,1.9611076E4,2.1598867E4,1.6274356E4,3.3367195E3,1.2139598E4,9.4592705E3,1.5766681E4,5.0767578E2,2.6677922E3,6.6892706E2,1.0540448E4,1.5991487E3,5.908796E3,3.5504746E3,1.1922182E4,3.8444988E3,4.328026E2,7.487315E1,1.8595715E3,8.082208E2,1.2371573E0,6.6768994E2,4.313385E3,6.2270635E3,2.2032747E0,1.5969454E3,1.4124965E3,4.4963E3,1.1039111E3,2.4465635E3],"tree_param":{"num_deleted":"0","num_feature":"25","num_nodes":"31","size_leaf_vector":"1"}},{"base_weights":[1.04642855E-2,-6.4123666E-1,9.2028236E-1,-1.0617003E0,-3.6007904E-2,4.75613E-1,1.1961632E0,-1.2048136E0,-7.4057865E-1,-3.3999553E-1,1.8125442E-1,-1.42536545E-2,8.197921E-1,9.678798E-1,1.350262E0,-6.112326E-2,-3.1543357E-4,-4.0070783E-2,4.655849E-5,-2.6533296E-2,1.45705445E-2,1.3869728E-2,-2.224323E-2,2.4527827E-2,-1.0626334E-2,5.4703813E-2,3.0489555E-2,3.232233E-2,5.7534337E-2,6.256097E-2,7.119053E-2],"categories":[],"categories_nodes":[],"categories_segments":[],"categories_sizes":[],"default_left":[0,0,0,0,0,0,0,0,0,0,0,0,0,0,0,0,0,0,0,0,0,0,0,0,0,0,0,0,0,0,0],"id":6,"left_children":[1,3,5,7,9,11,13,15,17,19,21,23,25,27,29,-1,-1,-1,-1,-1,-1,-1,-1,-1,-1,-1,-1,-1,-1,-1,-1],"loss_changes":[2.4290252E4,6.0740986E3,2.0968672E3,6.4638086E2,6.463616E2,1.1039884E3,3.6984375E2,2.0606445E2,1.9598608E2,4.9124515E2,3.436931E2,2.706507E2,2.2085107E2,2.4930273E2,4.4083008E1,0E0,0E0,0E0,0E0,0E0,0E0,0E0,0E0,0E0,0E0,0E0,0E0,0E0,0E0,0E0,0E0],"parents":[2147483647,0,0,1,1,2,2,3,3,4,4,5,5,6,6,7,7,8,8,9,9,10,10,11,11,12,12,13,13,14,14],"right_children":[2,4,6,8,10,12,14,16,18,20,22,24,26,28,30,-1,-1,-1,-1,-1,-1,-1,-1,-1,-1,-1,-1,-1,-1,-1,-1],"split_conditions":[1E0,3.216711E-1,2E0,2.0588236E-1,6.650588E-1,4.673542E-1,1E0,4E0,4E0,2.881356E-1,1E0,1E0,1E0,5.8952236E-1,4E0,-6.112326E-2,-3.1543357E-4,-4.0070783E-2,4.655849E-5,-2.6533296E-2,1.45705445E-2,1.3869728E-2,-2.224323E-2,2.4527827E-2,-1.0626334E-2,5.4703813E-2,3.0489555E-2,3.232233E-2,5.7534337E-2,6.256097E-2,7.119053E-2],"split_indices":[12,0,12,15,0,0,6,7,7,15,24,2,2,0,12,0,0,0,0,0,0,0,0,0,0,0,0,0,0,0,0],"split_type":[0,0,0,0,0,0,0,0,0,0,0,0,0,0,0,0,0,0,0,0,0,0,0,0,0,0,0,0,0,0,0],"sum_hessian":[4.0964527E4,2.3868129E4,1.70964E4,1.4083386E4,9.784742E3,6.5468325E3,1.0549567E4,9.739888E3,4.3434976E3,4.0781455E3,5.706597E3,2.7020254E3,3.844807E3,4.254376E3,6.2951914E3,9.598502E3,1.4138612E2,4.0140825E3,3.2941516E2,3.1323933E3,9.457521E2,4.947473E3,7.59124E2,7.6156903E2,1.9404563E3,1.6654017E3,2.1794053E3,1.5440237E3,2.7103525E3,2.6903252E3,3.6048665E3],"tree_param":{"num_deleted":"0","num_feature":"25","num_nodes":"31","size_leaf_vector":"1"}},{"base_weights":[-7.2611324E-3,-6.3554287E-1,8.725128E-1,-1.0407325E0,-5.246486E-2,4.381278E-1,1.1449609E0,-1.1701688E0,-7.3720014E-1,-3.5598263E-1,1.6151807E-1,3.7832946E-2,8.81179E-1,9.2518073E-1,1.2973145E0,-5.9672594E-2,-3.2722767E-2,-4.1442093E-2,-1.3304129E-2,-2.5038207E-2,2.0603783E-2,1.542569E-3,3.0490844E-2,2.6863633E-2,-8.466588E-3,5.448348E-2,3.4908406E-2,3.384829E-2,5.620684E-2,5.9581336E-2,6.872799E-2],"categories":[],"categories_nodes":[],"categories_segments":[],"categories_sizes":[],"default_left":[0,0,0,0,0,0,0,0,0,0,0,0,0,0,0,0,0,0,0,0,0,0,0,0,0,0,0,0,0,0,0],"id":7,"left_children":[1,3,5,7,9,11,13,15,17,19,21,23,25,27,29,-1,-1,-1,-1,-1,-1,-1,-1,-1,-1,-1,-1,-1,-1,-1,-1],"loss_changes":[2.2311256E4,5.5633066E3,1.9896855E3,5.449746E2,6.271715E2,1.1498265E3,3.4482715E2,1.1614844E2,1.7921411E2,4.442162E2,3.3175464E2,3.5261694E2,1.1665918E2,2.0834375E2,4.816797E1,0E0,0E0,0E0,0E0,0E0,0E0,0E0,0E0,0E0,0E0,0E0,0E0,0E0,0E0,0E0,0E0],"parents":[2147483647,0,0,1,1,2,2,3,3,4,4,5,5,6,6,7,7,8,8,9,9,10,10,11,11,12,12,13,13,14,14],"right_children":[2,4,6,8,10,12,14,16,18,20,22,24,26,28,30,-1,-1,-1,-1,-1,-1,-1,-1,-1,-1,-1,-1,-1,-1,-1,-1],"split_conditions":[1E0,3.216711E-1,2E0,2.0833333E-1,6.650588E-1,6.992552E-1,1E0,3E0,3E0,3.2692307E-1,2.361111E-1,1E0,1E0,6.992552E-1,4E0,-5.9672594E-2,-3.2722767E-2,-4.1442093E-2,-1.3304129E-2,-2.5038207E-2,2.0603783E-2,1.542569E-3,3.0490844E-2,2.6863633E-2,-8.466588E-3,5.448348E-2,3.4908406E-2,3.384829E-2,5.620684E-2,5.9581336E-2,6.872799E-2],"split_indices":[12,0,12,15,0,0,6,7,7,15,15,2,2,0,12,0,0,0,0,0,0,0,0,0,0,0,0,0,0,0,0],"split_type":[0,0,0,0,0,0,0,0,0,0,0,0,0,0,0,0,0,0,0,0,0,0,0,0,0,0,0,0,0,0,0],"sum_hessian":[4.03624E4,2.3546896E4,1.6815502E4,1.3892207E4,9.654689E3,6.4825225E3,1.033298E4,9.737124E3,4.1550835E3,3.9918723E3,5.662817E3,3.4061584E3,3.076364E3,4.2332773E3,6.0997026E3,9.315249E3,4.2187518E2,3.4778193E3,6.77264E2,3.359032E3,6.3284033E2,4.3856035E3,1.2772133E3,9.9816205E2,2.4079963E3,1.4357577E3,1.6406062E3,1.8854353E3,2.3478423E3,2.582594E3,3.5171084E3],"tree_param":{"num_deleted":"0","num_feature":"25","num_nodes":"31","size_leaf_vector":"1"}},{"base_weights":[1.204459E-2,-2.5990227E-1,1.1974753E0,-5.16859E-1,5.253337E-1,1.0920922E0,1.3172853E0,-7.2467303E-1,2.2632706E-1,3.0431572E-1,8.6251056E-1,1.0159403E0,1.2624032E0,3.1101465E-1,1.323664E0,-3.853921E-2,3.7917193E-2,1.6752541E-2,-1.3103043E-2,1.0898146E-2,5.77663E-2,3.8997736E-2,6.548131E-2,5.0988734E-2,-8.976563E-2,-6.713883E-3,6.342264E-2,5.0473303E-2,-1.8025978E-2,6.1293133E-2,6.756425E-2],"categories":[],"categories_nodes":[],"categories_segments":[],"categories_sizes":[],"default_left":[0,0,0,0,0,0,0,0,0,0,0,0,0,0,0,0,0,0,0,0,0,0,0,0,0,0,0,0,0,0,0],"id":8,"left_children":[1,3,5,7,9,11,13,15,17,19,21,23,25,27,29,-1,-1,-1,-1,-1,-1,-1,-1,-1,-1,-1,-1,-1,-1,-1,-1],"loss_changes":[1.3064147E4,6.65125E3,9.4038086E1,3.8359897E3,6.05426E2,5.0972168E1,2.2271484E1,1.3278564E3,2.8831244E2,3.6064557E2,1.17746826E2,3.189795E1,1.0654175E1,1.14177E1,7.8286133E0,0E0,0E0,0E0,0E0,0E0,0E0,0E0,0E0,0E0,0E0,0E0,0E0,0E0,0E0,0E0,0E0],"parents":[2147483647,0,0,1,1,2,2,3,3,4,4,5,5,6,6,7,7,8,8,9,9,10,10,11,11,12,12,13,13,14,14],"right_children":[2,4,6,8,10,12,14,16,18,20,22,24,26,28,30,-1,-1,-1,-1,-1,-1,-1,-1,-1,-1,-1,-1,-1,-1,-1,-1],"split_conditions":[1E0,1E0,2E0,1E0,2E0,2E0,2.3E1,1E0,5.8E1,1E0,1E0,8.4E1,1.25E2,1.3186666E3,1.1817636E-1,-3.853921E-2,3.7917193E-2,1.6752541E-2,-1.3103043E-2,1.0898146E-2,5.77663E-2,3.8997736E-2,6.548131E-2,5.0988734E-2,-8.976563E-2,-6.713883E-3,6.342264E-2,5.0473303E-2,-1.8025978E-2,6.1293133E-2,6.756425E-2],"split_indices":[6,2,6,19,2,2,1,20,1,20,20,1,4,14,3,0,0,0,0,0,0,0,0,0,0,0,0,0,0,0,0],"split_type":[0,0,0,0,0,0,0,0,0,0,0,0,0,0,0,0,0,0,0,0,0,0,0,0,0,0,0,0,0,0,0],"sum_hessian":[4.0522832E4,3.2961902E4,7.560931E3,2.4835271E4,8.1266294E3,4.0280415E3,3.5328894E3,1.9408248E4,5.4270234E3,4.9100293E3,3.2166E3,2.7882737E3,1.239768E3,2.2567095E1,3.5103223E3,1.8823455E4,5.847926E2,4.439113E3,9.879108E2,4.4588423E3,4.511867E2,2.7175696E3,4.9903064E2,2.785112E3,3.1615107E0,5.2554393E0,1.2345125E3,1.0815183E1,1.1751912E1,7.830497E2,2.7272727E3],"tree_param":{"num_deleted":"0","num_feature":"25","num_nodes":"31","size_leaf_vector":"1"}},{"base_weights":[-7.7399873E-4,-5.8370817E-1,8.159314E-1,-9.881602E-1,-4.9178798E-2,4.0467292E-1,1.079146E0,-1.1307139E0,-7.722157E-1,1.0587831E-1,-3.8119188E-1,-2.728762E-2,7.2160465E-1,8.66116E-1,1.2257881E0,-4.8549186E-2,-6.160577E-2,-4.88268E-2,-2.949515E-2,-5.749815E-4,2.6176145E-2,-1.4774128E-2,-5.05754E-2,-6.860678E-3,3.151031E-2,2.4799174E-2,4.545008E-2,2.6886994E-2,5.080069E-2,5.7818778E-2,6.605133E-2],"categories":[],"categories_nodes":[],"categories_segments":[],"categories_sizes":[],"default_left":[0,0,0,0,0,0,0,0,0,0,0,0,0,0,0,0,0,0,0,0,0,0,0,0,0,0,0,0,0,0,0],"id":9,"left_children":[1,3,5,7,9,11,13,15,17,19,21,23,25,27,29,-1,-1,-1,-1,-1,-1,-1,-1,-1,-1,-1,-1,-1,-1,-1,-1],"loss_changes":[1.899611E4,5.0334204E3,1.7984688E3,4.0712988E2,5.163751E2,8.880863E2,3.1546094E2,1.2807715E2,1.958606E2,3.3519614E2,1.7220575E2,1.9857082E2,1.5774927E2,2.0296289E2,3.8128906E1,0E0,0E0,0E0,0E0,0E0,0E0,0E0,0E0,0E0,0E0,0E0,0E0,0E0,0E0,0E0,0E0],"parents":[2147483647,0,0,1,1,2,2,3,3,4,4,5,5,6,6,7,7,8,8,9,9,10,10,11,11,12,12,13,13,14,14],"right_children":[2,4,6,8,10,12,14,16,18,20,22,24,26,28,30,-1,-1,-1,-1,-1,-1,-1,-1,-1,-1,-1,-1,-1,-1,-1,-1],"split_conditions":[1E0,2.9749E-1,2E0,1.7741935E-1,5.3E1,4.8495376E-1,1E0,5.5E1,3.8613164E-1,2.857143E-1,8.09E2,1E0,9.328589E-1,4.950174E-1,5E0,-4.8549186E-2,-6.160577E-2,-4.88268E-2,-2.949515E-2,-5.749815E-4,2.6176145E-2,-1.4774128E-2,-5.05754E-2,-6.860678E-3,3.151031E-2,2.4799174E-2,4.545008E-2,2.6886994E-2,5.080069E-2,5.7818778E-2,6.605133E-2],"split_indices":[12,0,12,15,1,0,6,1,3,15,3,6,0,0,12,0,0,0,0,0,0,0,0,0,0,0,0,0,0,0,0],"split_type":[0,0,0,0,0,0,0,0,0,0,0,0,0,0,0,0,0,0,0,0,0,0,0,0,0,0,0,0,0,0,0],"sum_hessian":[3.9898625E4,2.3281463E4,1.6617164E4,1.3252843E4,1.0028621E4,6.4858765E3,1.0131287E4,7.9804116E3,5.2724307E3,6.8365083E3,3.1921123E3,2.7452144E3,3.740662E3,4.1334463E3,5.9978413E3,3.103025E3,4.877387E3,2.484105E3,2.7883254E3,5.337414E3,1.4990941E3,2.8113047E3,3.8080774E2,2.352665E3,3.925492E2,1.698889E3,2.0417731E3,1.2969176E3,2.8365286E3,3.4769058E3,2.5209355E3],"tree_param":{"num_deleted":"0","num_feature":"25","num_nodes":"31","size_leaf_vector":"1"}},{"base_weights":[-3.470098E-3,-5.755318E-1,6.243443E-1,-7.6436144E-1,2.3044004E-1,3.7440395E-1,1.1703627E0,-8.2475704E-1,7.8063524E-1,6.838367E-2,9.1728735E-1,1.4857313E-1,7.6408494E-1,1.090027E0,1.2492821E0,-4.7670905E-2,-2.008315E-2,3.0626288E-2,6.0110178E-2,-2.140675E-3,4.458409E-2,-8.926271E-2,4.64153E-2,1.5240525E-2,-1.2364584E-2,3.3437785E-2,5.8316447E-2,5.1436216E-2,6.0170945E-2,2.5774622E-2,6.280813E-2],"categories":[],"categories_nodes":[],"categories_segments":[],"categories_sizes":[],"default_left":[0,0,0,0,0,0,0,0,0,0,0,0,0,0,0,0,0,0,0,0,0,0,0,0,0,0,0,0,0,0,0],"id":10,"left_children":[1,3,5,7,9,11,13,15,17,19,21,23,25,27,29,-1,-1,-1,-1,-1,-1,-1,-1,-1,-1,-1,-1,-1,-1,-1,-1],"loss_changes":[1.4176085E4,3.1433408E3,2.5677827E3,1.5619883E3,4.3637494E2,1.1360671E3,3.6100586E1,8.7623535E2,4.3911926E1,2.9057184E2,2.3944397E1,5.0569687E2,1.8085327E2,1.917041E1,1.4366211E1,0E0,0E0,0E0,0E0,0E0,0E0,0E0,0E0,0E0,0E0,0E0,0E0,0E0,0E0,0E0,0E0],"parents":[2147483647,0,0,1,1,2,2,3,3,4,4,5,5,6,6,7,7,8,8,9,9,10,10,11,11,12,12,13,13,14,14],"right_children":[2,4,6,8,10,12,14,16,18,20,22,24,26,28,30,-1,-1,-1,-1,-1,-1,-1,-1,-1,-1,-1,-1,-1,-1,-1,-1],"split_conditions":[4.950174E-1,1E0,1E0,1E0,1E0,1E0,2E0,2.3165122E-1,2E0,1E0,1.2172858E-3,5.3E1,1.0001091E0,1E0,2.3E1,-4.7670905E-2,-2.008315E-2,3.0626288E-2,6.0110178E-2,-2.140675E-3,4.458409E-2,-8.926271E-2,4.64153E-2,1.5240525E-2,-1.2364584E-2,3.3437785E-2,5.8316447E-2,5.1436216E-2,6.0170945E-2,2.5774622E-2,6.280813E-2],"split_indices":[0,2,6,6,8,2,6,0,6,6,11,1,0,8,1,0,0,0,0,0,0,0,0,0,0,0,0,0,0,0,0],"split_type":[0,0,0,0,0,0,0,0,0,0,0,0,0,0,0,0,0,0,0,0,0,0,0,0,0,0,0,0,0,0,0],"sum_hessian":[3.946937E4,2.0651709E4,1.881766E4,1.6731717E4,3.9199915E3,1.2909852E4,5.9078096E3,1.6102711E4,6.290063E2,3.1725518E3,7.474397E2,8.1741113E3,4.7357397E3,2.9349763E3,2.9728333E3,1.2346837E4,3.7558738E3,4.5143845E2,1.7756784E2,2.7958796E3,3.766721E2,2.381194E0,7.4505853E2,5.8611147E3,2.3129968E3,3.830579E3,9.051609E2,1.9115911E3,1.02338525E3,2.8321604E1,2.9445117E3],"tree_param":{"num_deleted":"0","num_feature":"25","num_nodes":"31","size_leaf_vector":"1"}},{"base_weights":[-5.405104E-4,-5.412361E-1,7.5749177E-1,-8.744026E-1,2.0527866E-2,3.7561232E-1,1.0062177E0,-9.4323415E-1,-1.5288655E-1,9.2814215E-2,-6.7100465E-1,-1.4379518E-1,6.1082476E-1,7.3335874E-1,1.1057153E0,-5.130325E-2,-3.3004597E-2,3.7816506E-2,-1.5649786E-2,-2.6416262E-3,1.41764E-2,-4.939138E-2,-2.4123391E-2,1.9196523E-2,-1.7572053E-2,4.4236984E-2,2.1076573E-2,2.8064698E-2,4.776236E-2,4.6265673E-2,5.914485E-2],"categories":[],"categories_nodes":[],"categories_segments":[],"categories_sizes":[],"default_left":[0,0,0,0,0,0,0,0,0,0,0,0,0,0,0,0,0,0,0,0,0,0,0,0,0,0,0,0,0,0,0],"id":11,"left_children":[1,3,5,7,9,11,13,15,17,19,21,23,25,27,29,-1,-1,-1,-1,-1,-1,-1,-1,-1,-1,-1,-1,-1,-1,-1,-1],"loss_changes":[1.6121777E4,4.2969365E3,1.5550654E3,7.155703E2,4.2736182E2,7.893952E2,2.684043E2,3.0787402E2,1.8311952E2,2.150048E2,4.7852386E1,2.2089255E2,2.3020984E2,1.00742065E2,1.00055664E2,0E0,0E0,0E0,0E0,0E0,0E0,0E0,0E0,0E0,0E0,0E0,0E0,0E0,0E0,0E0,0E0],"parents":[2147483647,0,0,1,1,2,2,3,3,4,4,5,5,6,6,7,7,8,8,9,9,10,10,11,11,12,12,13,13,14,14],"right_children":[2,4,6,8,10,12,14,16,18,20,22,24,26,28,30,-1,-1,-1,-1,-1,-1,-1,-1,-1,-1,-1,-1,-1,-1,-1,-1],"split_conditions":[1E0,4.0538007E-1,2E0,3E0,6.4E1,2.8588828E-1,5.8952236E-1,1.84198E-1,4E1,5.0412655E-1,6.650588E-1,1E0,1E0,1E0,3E0,-5.130325E-2,-3.3004597E-2,3.7816506E-2,-1.5649786E-2,-2.6416262E-3,1.41764E-2,-4.939138E-2,-2.4123391E-2,1.9196523E-2,-1.7572053E-2,4.4236984E-2,2.1076573E-2,2.8064698E-2,4.776236E-2,4.6265673E-2,5.914485E-2],"split_indices":[12,0,12,7,1,0,0,0,1,3,0,2,2,8,12,0,0,0,0,0,0,0,0,0,0,0,0,0,0,0,0],"split_type":[0,0,0,0,0,0,0,0,0,0,0,0,0,0,0,0,0,0,0,0,0,0,0,0,0,0,0,0,0,0,0],"sum_hessian":[3.9332383E4,2.2957412E4,1.6374969E4,1.4410433E4,8.54698E3,6.4596724E3,9.915297E3,1.3155145E4,1.2552885E3,7.7388945E3,8.0808594E2,2.0135786E3,4.4460938E3,2.6517058E3,7.2635913E3,1.0175703E4,2.9794407E3,1.8739558E2,1.0678928E3,4.3883027E3,3.3505918E3,2.9989462E2,5.0819128E2,5.683318E2,1.4452468E3,1.815426E3,2.6306675E3,1.4955227E3,1.156183E3,2.1803376E3,5.0832534E3],"tree_param":{"num_deleted":"0","num_feature":"25","num_nodes":"31","size_leaf_vector":"1"}},{"base_weights":[4.6421117E-3,-5.0764346E-1,7.2739E-1,-2.9299889E-2,-8.81488E-1,3.369994E-1,9.7997326E-1,-1.6113389E-1,2.674616E-1,-9.8501384E-1,-4.2891103E-1,5.686704E-1,-1.4604126E-1,7.498476E-1,1.1017487E0,1.1940745E-3,-2.1102566E-2,2.8039804E-2,2.9308836E-3,-4.0958967E-2,-5.48594E-2,-2.9756287E-3,-3.0455014E-2,3.5609648E-2,1.3530497E-2,1.5689576E-2,-1.6304899E-2,4.6340138E-2,2.3187602E-2,5.104952E-2,6.002667E-2],"categories":[],"categories_nodes":[],"categories_segments":[],"categories_sizes":[],"default_left":[0,0,0,0,0,0,0,0,0,0,0,0,0,0,0,0,0,0,0,0,0,0,0,0,0,0,0,0,0,0,0],"id":12,"left_children":[1,3,5,7,9,11,13,15,17,19,21,23,25,27,29,-1,-1,-1,-1,-1,-1,-1,-1,-1,-1,-1,-1,-1,-1,-1,-1],"loss_changes":[1.443158E4,4.078977E3,1.5939033E3,3.9156714E2,5.994619E2,7.110003E2,2.7425293E2,3.3453882E2,1.8856694E2,1.9292188E2,1.5873315E2,1.8348718E2,1.7066405E2,1.7169556E2,4.9966797E1,0E0,0E0,0E0,0E0,0E0,0E0,0E0,0E0,0E0,0E0,0E0,0E0,0E0,0E0,0E0,0E0],"parents":[2147483647,0,0,1,1,2,2,3,3,4,4,5,5,6,6,7,7,8,8,9,9,10,10,11,11,12,12,13,13,14,14],"right_children":[2,4,6,8,10,12,14,16,18,20,22,24,26,28,30,-1,-1,-1,-1,-1,-1,-1,-1,-1,-1,-1,-1,-1,-1,-1,-1],"split_conditions":[1E0,1E0,2E0,2.264151E-1,2.5581396E-1,1E0,3E0,1E0,1E0,3.491E3,4E1,1E0,1E0,2E0,5E0,1.1940745E-3,-2.1102566E-2,2.8039804E-2,2.9308836E-3,-4.0958967E-2,-5.48594E-2,-2.9756287E-3,-3.0455014E-2,3.5609648E-2,1.3530497E-2,1.5689576E-2,-1.6304899E-2,4.6340138E-2,2.3187602E-2,5.104952E-2,6.002667E-2],"split_indices":[12,17,12,15,15,17,12,18,18,14,1,18,2,2,12,0,0,0,0,0,0,0,0,0,0,0,0,0,0,0,0],"split_type":[0,0,0,0,0,0,0,0,0,0,0,0,0,0,0,0,0,0,0,0,0,0,0,0,0,0,0,0,0,0,0],"sum_hessian":[3.8975586E4,2.2808885E4,1.61667E4,1.0006452E4,1.2802433E4,6.351779E3,9.814922E3,6.92883E3,3.077622E3,1.0418134E4,2.3842983E3,4.2927544E3,2.0590242E3,3.398933E3,6.415989E3,4.0546233E3,2.8742068E3,1.2792083E3,1.798414E3,4.2069785E3,6.211156E3,7.821585E2,1.6021399E3,2.8965928E3,1.3961619E3,5.791741E2,1.4798501E3,2.0986445E3,1.3002885E3,3.5363179E3,2.8796707E3],"tree_param":{"num_deleted":"0","num_feature":"25","num_nodes":"31","size_leaf_vector":"1"}},{"base_weights":[-7.101509E-4,-4.9590138E-1,7.0149904E-1,-4.640183E-2,-8.475613E-1,3.294498E-1,9.47251E-1,1.0339581E-1,-3.7284783E-1,-9.1149956E-1,-1.6133729E-1,5.3135437E-1,-7.65335E-2,7.466089E-1,1.0897167E0,-2.5123197E-3,1.6801547E-2,-1.4471047E-2,-4.9777653E-2,-5.209115E-2,-3.5256963E-2,-1.6487082E-2,2.8019413E-2,4.0121365E-2,1.7606704E-2,1.9745082E-2,-1.3203359E-2,2.9250408E-2,4.5513038E-2,4.9730983E-2,5.813777E-2],"categories":[],"categories_nodes":[],"categories_segments":[],"categories_sizes":[],"default_left":[0,0,0,0,0,0,0,0,0,0,0,0,0,0,0,0,0,0,0,0,0,0,0,0,0,0,0,0,0,0,0],"id":13,"left_children":[1,3,5,7,9,11,13,15,17,19,21,23,25,27,29,-1,-1,-1,-1,-1,-1,-1,-1,-1,-1,-1,-1,-1,-1,-1,-1],"loss_changes":[1.3384771E4,3.5681729E3,1.4551558E3,4.8461826E2,5.5554395E2,5.1921423E2,2.731953E2,2.4282706E2,1.6164789E2,3.108369E2,1.3153374E2,2.0522583E2,1.8616844E2,1.048147E2,3.776367E1,0E0,0E0,0E0,0E0,0E0,0E0,0E0,0E0,0E0,0E0,0E0,0E0,0E0,0E0,0E0,0E0],"parents":[2147483647,0,0,1,1,2,2,3,3,4,4,5,5,6,6,7,7,8,8,9,9,10,10,11,11,12,12,13,13,14,14],"right_children":[2,4,6,8,10,12,14,16,18,20,22,24,26,28,30,-1,-1,-1,-1,-1,-1,-1,-1,-1,-1,-1,-1,-1,-1,-1,-1],"split_conditions":[1E0,1E0,2E0,5.3E1,3E0,1E0,1E0,5.212884E-1,8.09E2,1.7391305E-1,5E0,1E0,1E0,3E0,4E0,-2.5123197E-3,1.6801547E-2,-1.4471047E-2,-4.9777653E-2,-5.209115E-2,-3.5256963E-2,-1.6487082E-2,2.8019413E-2,4.0121365E-2,1.7606704E-2,1.9745082E-2,-1.3203359E-2,2.9250408E-2,4.5513038E-2,4.9730983E-2,5.813777E-2],"split_indices":[12,17,12,1,7,17,6,3,3,15,7,2,2,12,12,0,0,0,0,0,0,0,0,0,0,0,0,0,0,0,0],"split_type":[0,0,0,0,0,0,0,0,0,0,0,0,0,0,0,0,0,0,0,0,0,0,0,0,0,0,0,0,0,0,0],"sum_hessian":[3.8490094E4,2.2572486E4,1.5917608E4,9.908435E3,1.2664051E4,6.3327144E3,9.584894E3,6.7923047E3,3.1161301E3,1.1584361E4,1.07969E3,4.2291533E3,2.103561E3,3.9824436E3,5.60245E3,4.0911309E3,2.701174E3,2.7492627E3,3.6686743E2,7.0978076E3,4.4865537E3,8.758629E2,2.0382703E2,1.6818525E3,2.5473008E3,5.9833057E2,1.5052305E3,2.0060801E3,1.9763634E3,2.4400728E3,3.1623774E3],"tree_param":{"num_deleted":"0","num_feature":"25","num_nodes":"31","size_leaf_vector":"1"}},{"base_weights":[7.1701296E-3,-4.651533E-1,6.7428756E-1,-8.1056017E-1,-3.4169924E-2,3.2723325E-1,9.206401E-1,-8.737695E-1,-1.4719157E-1,-2.4785256E-1,1.3258065E-1,2.7726205E-2,6.661328E-1,7.500696E-1,1.1034199E0,-4.8091643E-2,-2.8619457E-2,-5.838873E-2,-1.8758858E-3,-1.8629296E-2,9.579291E-3,1.2979162E-3,2.5064385E-2,2.2816168E-2,-7.6479004E-3,2.4790166E-2,4.5751594E-2,2.8898595E-2,4.2332165E-2,5.272452E-2,5.9767872E-2],"categories":[],"categories_nodes":[],"categories_segments":[],"categories_sizes":[],"default_left":[0,0,0,0,0,0,0,0,0,0,0,0,0,0,0,0,0,0,0,0,0,0,0,0,0,0,0,0,0,0,0],"id":14,"left_children":[1,3,5,7,9,11,13,15,17,19,21,23,25,27,29,-1,-1,-1,-1,-1,-1,-1,-1,-1,-1,-1,-1,-1,-1,-1,-1],"loss_changes":[1.2050236E4,3.3331304E3,1.3550625E3,5.210415E2,3.550076E2,6.6815063E2,2.882085E2,3.0062305E2,1.21121025E2,2.3943875E2,2.1999162E2,2.707653E2,1.3047205E2,7.926611E1,1.8861816E1,0E0,0E0,0E0,0E0,0E0,0E0,0E0,0E0,0E0,0E0,0E0,0E0,0E0,0E0,0E0,0E0],"parents":[2147483647,0,0,1,1,2,2,3,3,4,4,5,5,6,6,7,7,8,8,9,9,10,10,11,11,12,12,13,13,14,14],"right_children":[2,4,6,8,10,12,14,16,18,20,22,24,26,28,30,-1,-1,-1,-1,-1,-1,-1,-1,-1,-1,-1,-1,-1,-1,-1,-1],"split_conditions":[1E0,2.9749E-1,6.992552E-1,3E0,6.650588E-1,2E0,3E0,2.264151E-1,2.6540628E-1,2.9032257E-1,2.361111E-1,1E0,1E0,9.52361E-1,6E0,-4.8091643E-2,-2.8619457E-2,-5.838873E-2,-1.8758858E-3,-1.8629296E-2,9.579291E-3,1.2979162E-3,2.5064385E-2,2.2816168E-2,-7.6479004E-3,2.4790166E-2,4.5751594E-2,2.8898595E-2,4.2332165E-2,5.272452E-2,5.9767872E-2],"split_indices":[12,0,0,7,0,12,12,15,11,15,15,2,6,0,12,0,0,0,0,0,0,0,0,0,0,0,0,0,0,0,0],"split_type":[0,0,0,0,0,0,0,0,0,0,0,0,0,0,0,0,0,0,0,0,0,0,0,0,0,0,0,0,0,0,0],"sum_hessian":[3.8241164E4,2.2389533E4,1.5851631E4,1.2428205E4,9.961328E3,6.5817637E3,9.269867E3,1.1346712E4,1.081493E3,4.3660127E3,5.595316E3,3.494518E3,3.0872454E3,4.7977246E3,4.472143E3,8.77923E3,2.567482E3,1.04005936E2,9.774871E2,3.4008445E3,9.651681E2,4.341047E3,1.2542692E3,1.0358574E3,2.4586606E3,1.8346964E3,1.2525491E3,1.7270474E3,3.0706772E3,2.9269043E3,1.5452386E3],"tree_param":{"num_deleted":"0","num_feature":"25","num_nodes":"31","size_leaf_vector":"1"}},{"base_weights":[-2.3132183E-3,-4.615645E-1,6.4934903E-1,-4.2599402E-2,-7.9876E-1,4.197125E-1,1.0103395E0,-2.6959518E-1,1.2963621E-1,-8.5942185E-1,-1.6697632E-1,1.5563385E-1,7.0922154E-1,8.6502385E-1,1.0791193E0,-1.8621948E-2,1.6137876E-2,1.245277E-3,2.4737595E-2,-5.2138854E-2,-3.6671877E-2,-2.8174296E-2,1.4594742E-3,2.3020622E-3,3.1914074E-2,3.0445946E-2,4.407152E-2,3.8550824E-2,5.6077916E-2,5.1587045E-2,5.7655014E-2],"categories":[],"categories_nodes":[],"categories_segments":[],"categories_sizes":[],"default_left":[0,0,0,0,0,0,0,0,0,0,0,0,0,0,0,0,0,0,0,0,0,0,0,0,0,0,0,0,0,0,0],"id":15,"left_children":[1,3,5,7,9,11,13,15,17,19,21,23,25,27,29,-1,-1,-1,-1,-1,-1,-1,-1,-1,-1,-1,-1,-1,-1,-1,-1],"loss_changes":[1.1268803E4,3.1203408E3,1.2899375E3,3.8516028E2,4.6887744E2,7.2738586E2,5.954785E1,2.590316E2,2.1418358E2,2.5715918E2,8.350337E1,2.6326062E2,7.7864746E1,4.6139526E1,1.3193359E1,0E0,0E0,0E0,0E0,0E0,0E0,0E0,0E0,0E0,0E0,0E0,0E0,0E0,0E0,0E0,0E0],"parents":[2147483647,0,0,1,1,2,2,3,3,4,4,5,5,6,6,7,7,8,8,9,9,10,10,11,11,12,12,13,13,14,14],"right_children":[2,4,6,8,10,12,14,16,18,20,22,24,26,28,30,-1,-1,-1,-1,-1,-1,-1,-1,-1,-1,-1,-1,-1,-1,-1,-1],"split_conditions":[1E0,1E0,3E0,6.650588E-1,3E0,7.1213615E-1,1E0,3.3333334E-1,2.361111E-1,1.2643678E-1,3.810285E-1,1E0,1E0,2E0,6E0,-1.8621948E-2,1.6137876E-2,1.245277E-3,2.4737595E-2,-5.2138854E-2,-3.6671877E-2,-2.8174296E-2,1.4594742E-3,2.3020622E-3,3.1914074E-2,3.0445946E-2,4.407152E-2,3.8550824E-2,5.6077916E-2,5.1587045E-2,5.7655014E-2],"split_indices":[12,17,12,0,7,0,6,15,15,15,11,6,6,8,12,0,0,0,0,0,0,0,0,0,0,0,0,0,0,0,0],"split_type":[0,0,0,0,0,0,0,0,0,0,0,0,0,0,0,0,0,0,0,0,0,0,0,0,0,0,0,0,0,0,0],"sum_hessian":[3.7651453E4,2.2086525E4,1.5564927E4,9.849569E3,1.2236956E4,9.514585E3,6.0503423E3,4.2490376E3,5.6005317E3,1.1164605E4,1.0723503E3,4.9766333E3,4.537951E3,1.9480814E3,4.1022607E3,3.6207734E3,6.2826434E2,4.3529805E3,1.2475513E3,4.5440312E3,6.6205747E3,3.5431058E2,7.180398E2,4.0566123E3,9.200212E2,2.870546E3,1.6674054E3,1.4285815E3,5.1949994E2,2.5098616E3,1.592399E3],"tree_param":{"num_deleted":"0","num_feature":"25","num_nodes":"31","size_leaf_vector":"1"}},{"base_weights":[-1.8956746E-3,-4.3249854E-1,6.2044895E-1,-5.8490896E-1,1.0264616E-1,2.8089452E-1,8.568121E-1,-6.8373305E-1,-2.2459881E-2,1.8667401E-1,-3.7097865E-1,5.959045E-1,1.07293166E-1,6.3454306E-1,9.7952735E-1,-3.5926323E-2,2.4994168E-2,-1.8377595E-2,1.7220976E-2,6.0554678E-3,3.5532784E-2,-3.1057833E-2,4.2779534E-3,4.081362E-2,2.279279E-2,2.3455995E-3,4.4537853E-2,4.0413532E-2,1.8014543E-2,4.223863E-2,5.243829E-2],"categories":[],"categories_nodes":[],"categories_segments":[],"categories_sizes":[],"default_left":[0,0,0,0,0,0,0,0,0,0,0,0,0,0,0,0,0,0,0,0,0,0,0,0,0,0,0,0,0,0,0],"id":16,"left_children":[1,3,5,7,9,11,13,15,17,19,21,23,25,27,29,-1,-1,-1,-1,-1,-1,-1,-1,-1,-1,-1,-1,-1,-1,-1,-1],"loss_changes":[9.983242E3,1.7959253E3,1.2224688E3,9.5256396E2,1.9434946E2,3.4194247E2,2.4436133E2,6.006543E2,3.245191E2,1.4237527E2,8.410624E1,6.819739E1,1.907543E2,1.5206604E2,5.3089355E1,0E0,0E0,0E0,0E0,0E0,0E0,0E0,0E0,0E0,0E0,0E0,0E0,0E0,0E0,0E0,0E0],"parents":[2147483647,0,0,1,1,2,2,3,3,4,4,5,5,6,6,7,7,8,8,9,9,10,10,11,11,12,12,13,13,14,14],"right_children":[2,4,6,8,10,12,14,16,18,20,22,24,26,28,30,-1,-1,-1,-1,-1,-1,-1,-1,-1,-1,-1,-1,-1,-1,-1,-1],"split_conditions":[1E0,1E0,2E0,2.962963E-1,6E1,1E0,3E0,1E0,5.212884E-1,3.125E-1,9E0,4E0,1E0,2E0,4E0,-3.5926323E-2,2.4994168E-2,-1.8377595E-2,1.7220976E-2,6.0554678E-3,3.5532784E-2,-3.1057833E-2,4.2779534E-3,4.081362E-2,2.279279E-2,2.3455995E-3,4.4537853E-2,4.0413532E-2,1.8014543E-2,4.223863E-2,5.243829E-2],"split_indices":[12,19,12,15,1,2,12,20,3,15,5,5,20,2,12,0,0,0,0,0,0,0,0,0,0,0,0,0,0,0,0],"split_type":[0,0,0,0,0,0,0,0,0,0,0,0,0,0,0,0,0,0,0,0,0,0,0,0,0,0,0,0,0,0,0],"sum_hessian":[3.7251215E4,2.201751E4,1.5233703E4,1.7136812E4,4.880697E3,6.252984E3,8.980719E3,1.4575616E4,2.5611973E3,4.1457812E3,7.349154E2,2.220792E3,4.0321921E3,3.1967502E3,5.7839688E3,1.41597705E4,4.1584586E2,1.3197859E3,1.2414114E3,3.6858147E3,4.5996667E2,4.7452176E2,2.6039365E2,8.610672E2,1.3597249E3,3.7446533E3,2.8753867E2,1.9558512E3,1.2408989E3,1.967649E3,3.8163196E3],"tree_param":{"num_deleted":"0","num_feature":"25","num_nodes":"31","size_leaf_vector":"1"}},{"base_weights":[9.243177E-3,-4.399803E-1,4.9560067E-1,-5.1263994E-1,6.7120415E-1,3.0357984E-1,9.687446E-1,-6.217051E-1,-1.9209634E-3,5.1554954E-1,1.0370708E0,2.1292971E-1,8.4502864E-1,8.869204E-1,1.052408E0,-3.7773866E-2,-1.5526972E-2,-5.704708E-3,3.1587087E-2,2.6785104E-2,-6.412571E-2,4.8185556E-4,5.2398026E-2,7.849723E-3,3.8915176E-2,3.657354E-2,4.7799073E-2,4.4518698E-2,-1.1900121E-1,1.7998641E-2,5.3033173E-2],"categories":[],"categories_nodes":[],"categories_segments":[],"categories_sizes":[],"default_left":[0,0,0,0,0,0,0,0,0,0,0,0,0,0,0,0,0,0,0,0,0,0,0,0,0,0,0,0,0,0,0],"id":17,"left_children":[1,3,5,7,9,11,13,15,17,19,21,23,25,27,29,-1,-1,-1,-1,-1,-1,-1,-1,-1,-1,-1,-1,-1,-1,-1,-1],"loss_changes":[8.083401E3,1.553196E3,1.6136875E3,1.0055962E3,6.6715515E1,6.201128E2,3.417041E1,6.18999E2,2.2595619E2,3.0777893E1,3.9222717E0,3.4226553E2,2.2131958E1,3.1440063E1,1.4080811E1,0E0,0E0,0E0,0E0,0E0,0E0,0E0,0E0,0E0,0E0,0E0,0E0,0E0,0E0,0E0,0E0],"parents":[2147483647,0,0,1,1,2,2,3,3,4,4,5,5,6,6,7,7,8,8,9,9,10,10,11,11,12,12,13,13,14,14],"right_children":[2,4,6,8,10,12,14,16,18,20,22,24,26,28,30,-1,-1,-1,-1,-1,-1,-1,-1,-1,-1,-1,-1,-1,-1,-1,-1],"split_conditions":[4.950174E-1,1E0,1E0,1E0,2E0,1E0,2E0,1.84198E-1,1E0,4.2857143E-1,2.714441E-3,1.0019999E0,9.606919E-1,1.8723E4,2.3E1,-3.7773866E-2,-1.5526972E-2,-5.704708E-3,3.1587087E-2,2.6785104E-2,-6.412571E-2,4.8185556E-4,5.2398026E-2,7.849723E-3,3.8915176E-2,3.657354E-2,4.7799073E-2,4.4518698E-2,-1.1900121E-1,1.7998641E-2,5.3033173E-2],"split_indices":[0,6,6,2,6,8,6,0,8,15,3,0,0,14,1,0,0,0,0,0,0,0,0,0,0,0,0,0,0,0,0],"split_type":[0,0,0,0,0,0,0,0,0,0,0,0,0,0,0,0,0,0,0,0,0,0,0,0,0,0,0,0,0,0,0],"sum_hessian":[3.6995816E4,1.9232156E4,1.776366E4,1.8052268E4,1.1798878E3,1.2636786E4,5.1268745E3,1.487538E4,3.1768875E3,8.294254E2,3.5046234E2,1.0825723E4,1.8110641E3,2.597792E3,2.5290825E3,1.0402045E4,4.4733354E3,2.6997825E3,4.77105E2,8.2092664E2,8.498791E0,3.695366E0,3.4676697E2,9.852267E3,9.7345624E2,8.9877704E2,9.12287E2,2.5957754E3,2.016559E0,3.0323214E1,2.4987595E3],"tree_param":{"num_deleted":"0","num_feature":"25","num_nodes":"31","size_leaf_vector":"1"}},{"base_weights":[1.507146E-4,-4.3312895E-1,4.6816796E-1,-5.692364E-1,1.2042571E-1,3.3526108E-1,9.340668E-1,-7.1209925E-1,-2.9868072E-1,-2.008216E-2,7.188061E-1,1.8242058E-1,6.1509097E-1,7.7830607E-1,9.865259E-1,-3.7398368E-2,1.6253209E-2,-2.0000808E-2,4.8448024E-3,-4.0347273E-3,4.153326E-2,-8.94659E-2,3.6392108E-2,1.4388973E-2,-5.6002103E-3,2.3893697E-2,4.0505167E-2,4.3873582E-2,2.7117325E-2,4.609808E-2,5.3717762E-2],"categories":[],"categories_nodes":[],"categories_segments":[],"categories_sizes":[],"default_left":[0,0,0,0,0,0,0,0,0,0,0,0,0,0,0,0,0,0,0,0,0,0,0,0,0,0,0,0,0,0,0],"id":18,"left_children":[1,3,5,7,9,11,13,15,17,19,21,23,25,27,29,-1,-1,-1,-1,-1,-1,-1,-1,-1,-1,-1,-1,-1,-1,-1,-1],"loss_changes":[7.414134E3,1.4304988E3,1.08804E3,5.8880615E2,3.1511084E2,5.8483765E2,3.1104004E1,3.7121826E2,2.112013E2,1.5662141E2,1.745459E1,2.7446634E2,1.288833E2,2.2629578E1,1.5534424E1,0E0,0E0,0E0,0E0,0E0,0E0,0E0,0E0,0E0,0E0,0E0,0E0,0E0,0E0,0E0,0E0],"parents":[2147483647,0,0,1,1,2,2,3,3,4,4,5,5,6,6,7,7,8,8,9,9,10,10,11,11,12,12,13,13,14,14],"right_children":[2,4,6,8,10,12,14,16,18,20,22,24,26,28,30,-1,-1,-1,-1,-1,-1,-1,-1,-1,-1,-1,-1,-1,-1,-1,-1],"split_conditions":[4.950174E-1,1E0,1E0,2.0588236E-1,1E0,1E0,8.563954E-1,1E0,3.283488E-1,4E0,6.801283E0,5.4E1,9.783159E-1,8.654517E0,5.333667E-1,-3.7398368E-2,1.6253209E-2,-2.0000808E-2,4.8448024E-3,-4.0347273E-3,4.153326E-2,-8.94659E-2,3.6392108E-2,1.4388973E-2,-5.6002103E-3,2.3893697E-2,4.0505167E-2,4.3873582E-2,2.7117325E-2,4.609808E-2,5.3717762E-2],"split_indices":[0,2,8,15,8,2,0,8,0,7,10,1,0,10,3,0,0,0,0,0,0,0,0,0,0,0,0,0,0,0,0],"split_type":[0,0,0,0,0,0,0,0,0,0,0,0,0,0,0,0,0,0,0,0,0,0,0,0,0,0,0,0,0,0,0],"sum_hessian":[3.6560027E4,1.8984596E4,1.7575432E4,1.5237891E4,3.7467056E3,1.3675845E4,3.8995864E3,9.971146E3,5.2667446E3,3.0350103E3,7.116953E2,8.845932E3,4.829913E3,9.864552E2,2.913131E3,9.638111E3,3.3303482E2,4.192687E3,1.0740576E3,2.834004E3,2.010064E2,1.8475809E0,7.098478E2,6.5146943E3,2.3312373E3,2.8370918E3,1.9928212E3,6.92643E2,2.9381223E2,1.6855577E3,1.2275734E3],"tree_param":{"num_deleted":"0","num_feature":"25","num_nodes":"31","size_leaf_vector":"1"}},{"base_weights":[-4.973434E-3,-3.885363E-1,5.553696E-1,-6.974991E-1,-2.8305106E-2,2.307662E-1,7.860548E-1,-5.3189087E-1,-9.1871613E-1,6.510302E-2,-3.7782392E-1,-3.550197E-2,5.025262E-1,6.3727385E-1,9.8594177E-1,-2.8796067E-2,2.144236E-2,-5.2288055E-2,-3.8736753E-2,-3.7303825E-3,1.3557429E-2,-1.5325464E-2,-4.6167903E-2,1.774854E-2,-9.699668E-3,3.6028005E-2,1.6688792E-2,1.9044686E-2,3.8744066E-2,4.3934233E-2,5.1276684E-2],"categories":[],"categories_nodes":[],"categories_segments":[],"categories_sizes":[],"default_left":[0,0,0,0,0,0,0,0,0,0,0,0,0,0,0,0,0,0,0,0,0,0,0,0,0,0,0,0,0,0,0],"id":19,"left_children":[1,3,5,7,9,11,13,15,17,19,21,23,25,27,29,-1,-1,-1,-1,-1,-1,-1,-1,-1,-1,-1,-1,-1,-1,-1,-1],"loss_changes":[7.773223E3,2.3895693E3,1.1003213E3,4.2292334E2,3.2368576E2,4.4191873E2,2.5485596E2,2.799402E2,8.967432E1,2.2524399E2,8.1059814E1,1.9102275E2,1.1096155E2,1.73557E2,1.4657959E1,0E0,0E0,0E0,0E0,0E0,0E0,0E0,0E0,0E0,0E0,0E0,0E0,0E0,0E0,0E0,0E0],"parents":[2147483647,0,0,1,1,2,2,3,3,4,4,5,5,6,6,7,7,8,8,9,9,10,10,11,11,12,12,13,13,14,14],"right_children":[2,4,6,8,10,12,14,16,18,20,22,24,26,28,30,-1,-1,-1,-1,-1,-1,-1,-1,-1,-1,-1,-1,-1,-1,-1,-1],"split_conditions":[1E0,2.9749E-1,2E0,5.8E1,5.8E1,6.1024314E-1,4E0,4E0,9E0,5.212884E-1,8.09E2,1E0,1E0,5.8952236E-1,7.467655E-1,-2.8796067E-2,2.144236E-2,-5.2288055E-2,-3.8736753E-2,-3.7303825E-3,1.3557429E-2,-1.5325464E-2,-4.6167903E-2,1.774854E-2,-9.699668E-3,3.6028005E-2,1.6688792E-2,1.9044686E-2,3.8744066E-2,4.3934233E-2,5.1276684E-2],"split_indices":[12,0,12,1,1,0,12,7,5,3,3,2,2,0,0,0,0,0,0,0,0,0,0,0,0,0,0,0,0,0,0],"split_type":[0,0,0,0,0,0,0,0,0,0,0,0,0,0,0,0,0,0,0,0,0,0,0,0,0,0,0,0,0,0,0],"sum_hessian":[3.6164832E4,2.1469178E4,1.4695654E4,1.1556485E4,9.912692E3,6.10589E3,8.589765E3,6.610852E3,4.945634E3,7.822864E3,2.089829E3,3.0845466E3,3.0213435E3,4.926805E3,3.6629595E3,6.3215376E3,2.8931454E2,2.6240132E3,2.3216204E3,4.662238E3,3.1606255E3,1.8496027E3,2.4022643E2,8.901812E2,2.1943655E3,1.3167577E3,1.7045858E3,1.7220942E3,3.2047107E3,9.9382294E2,2.6691365E3],"tree_param":{"num_deleted":"0","num_feature":"25","num_nodes":"31","size_leaf_vector":"1"}},{"base_weights":[-1.1703296E-2,-3.8262677E-1,5.3280663E-1,-6.9801337E-1,-3.5634078E-2,3.3309975E-1,8.7542665E-1,-7.586272E-1,-9.363185E-2,-1.870443E-1,1.6441697E-1,1.206052E-1,6.2510824E-1,6.956797E-1,9.4752693E-1,-3.2400202E-2,-4.725006E-2,-5.2216865E-2,6.006405E-4,-1.7051876E-2,7.4201945E-4,1.2342021E-2,-1.9060655E-2,1.4808774E-3,2.627934E-2,2.3719983E-2,3.519067E-2,2.5145397E-2,4.1564908E-2,4.4401586E-2,5.3312935E-2],"categories":[],"categories_nodes":[],"categories_segments":[],"categories_sizes":[],"default_left":[0,0,0,0,0,0,0,0,0,0,0,0,0,0,0,0,0,0,0,0,0,0,0,0,0,0,0,0,0,0,0],"id":20,"left_children":[1,3,5,7,9,11,13,15,17,19,21,23,25,27,29,-1,-1,-1,-1,-1,-1,-1,-1,-1,-1,-1,-1,-1,-1,-1,-1],"loss_changes":[7.1995063E3,2.3203325E3,9.8798E2,4.0682617E2,3.0585303E2,5.66219E2,6.826221E1,2.0751172E2,1.0181035E2,1.7868536E2,1.9573203E2,1.9467738E2,4.5259033E1,3.9483154E1,2.5845215E1,0E0,0E0,0E0,0E0,0E0,0E0,0E0,0E0,0E0,0E0,0E0,0E0,0E0,0E0,0E0,0E0],"parents":[2147483647,0,0,1,1,2,2,3,3,4,4,5,5,6,6,7,7,8,8,9,9,10,10,11,11,12,12,13,13,14,14],"right_children":[2,4,6,8,10,12,14,16,18,20,22,24,26,28,30,-1,-1,-1,-1,-1,-1,-1,-1,-1,-1,-1,-1,-1,-1,-1,-1],"split_conditions":[1E0,2.79772E-1,3E0,3E0,8.085834E-1,7.9640716E-1,7.2247416E-1,1E0,2.6540628E-1,4.2324063E-1,1E0,1E0,9.783159E-1,4E0,6E0,-3.2400202E-2,-4.725006E-2,-5.2216865E-2,6.006405E-4,-1.7051876E-2,7.4201945E-4,1.2342021E-2,-1.9060655E-2,1.4808774E-3,2.627934E-2,2.3719983E-2,3.519067E-2,2.5145397E-2,4.1564908E-2,4.4401586E-2,5.3312935E-2],"split_indices":[12,0,12,7,0,0,0,24,11,11,24,6,0,12,12,0,0,0,0,0,0,0,0,0,0,0,0,0,0,0,0],"split_type":[0,0,0,0,0,0,0,0,0,0,0,0,0,0,0,0,0,0,0,0,0,0,0,0,0,0,0,0,0,0,0],"sum_hessian":[3.564414E4,2.1201705E4,1.4442435E4,1.1106153E4,1.0095552E4,9.125388E3,5.317047E3,1.00936045E4,1.0125495E3,5.746405E3,4.349147E3,5.282631E3,3.8427566E3,1.525243E3,3.7918037E3,6.336827E3,3.7567769E3,1.0037559E2,9.1217395E2,3.2594663E3,2.4869387E3,3.7788564E3,5.702904E2,4.314386E3,9.682446E2,1.3207491E3,2.5220076E3,6.318386E2,8.934045E2,2.531684E3,1.2601196E3],"tree_param":{"num_deleted":"0","num_feature":"25","num_nodes":"31","size_leaf_vector":"1"}},{"base_weights":[1.11096045E-2,-3.4679842E-1,5.318451E-1,-6.866365E-1,-2.786614E-2,3.1794634E-1,8.3842367E-1,-3.90112E-1,-7.7353024E-1,9.001228E-2,-3.0488706E-1,-9.718363E-2,4.8572412E-1,6.7423713E-1,9.476323E-1,-2.23975E-2,1.3907053E-2,-4.3918256E-2,-2.6375458E-2,-2.0311025E-3,1.4486851E-2,-1.1326107E-2,-4.489273E-2,-7.806153E-3,3.5825003E-2,2.1215122E-2,4.3390423E-2,2.4842642E-2,3.7060574E-2,1.6255546E-2,4.7740936E-2],"categories":[],"categories_nodes":[],"categories_segments":[],"categories_sizes":[],"default_left":[0,0,0,0,0,0,0,0,0,0,0,0,0,0,0,0,0,0,0,0,0,0,0,0,0,0,0,0,0,0,0],"id":21,"left_children":[1,3,5,7,9,11,13,15,17,19,21,23,25,27,29,-1,-1,-1,-1,-1,-1,-1,-1,-1,-1,-1,-1,-1,-1,-1,-1],"loss_changes":[6.660087E3,2.2954248E3,9.5428613E2,2.638828E2,3.5682547E2,5.973435E2,1.0661328E2,9.0013336E1,2.0402539E2,2.0001392E2,1.5136423E2,1.1852886E2,1.429657E2,2.8058716E1,1.5749023E1,0E0,0E0,0E0,0E0,0E0,0E0,0E0,0E0,0E0,0E0,0E0,0E0,0E0,0E0,0E0,0E0],"parents":[2147483647,0,0,1,1,2,2,3,3,4,4,5,5,6,6,7,7,8,8,9,9,10,10,11,11,12,12,13,13,14,14],"right_children":[2,4,6,8,10,12,14,16,18,20,22,24,26,28,30,-1,-1,-1,-1,-1,-1,-1,-1,-1,-1,-1,-1,-1,-1,-1,-1],"split_conditions":[1E0,2.3165122E-1,1E0,4.3E1,5.4E1,2.79772E-1,3E0,3E0,2E0,8.438748E-1,8.09E2,4E0,1.0001091E0,5.128319E-1,2.4E1,-2.23975E-2,1.3907053E-2,-4.3918256E-2,-2.6375458E-2,-2.0311025E-3,1.4486851E-2,-1.1326107E-2,-4.489273E-2,-7.806153E-3,3.5825003E-2,2.1215122E-2,4.3390423E-2,2.4842642E-2,3.7060574E-2,1.6255546E-2,4.7740936E-2],"split_indices":[12,0,6,1,1,0,12,7,7,0,3,7,0,0,1,0,0,0,0,0,0,0,0,0,0,0,0,0,0,0,0],"split_type":[0,0,0,0,0,0,0,0,0,0,0,0,0,0,0,0,0,0,0,0,0,0,0,0,0,0,0,0,0,0,0],"sum_hessian":[3.5732805E4,2.1177547E4,1.4555259E4,1.0252185E4,1.0925361E4,8.574735E3,5.9805234E3,2.3246875E3,7.927497E3,7.664588E3,3.260774E3,2.4681787E3,6.1065566E3,2.3918054E3,3.5887183E3,2.1398142E3,1.8487337E2,5.5569785E3,2.3705186E3,4.634251E3,3.0303367E3,2.881363E3,3.7941083E2,2.3022244E3,1.6595421E2,5.2626704E3,8.4388617E2,6.578588E2,1.7339467E3,4.1483482E1,3.5472346E3],"tree_param":{"num_deleted":"0","num_feature":"25","num_nodes":"31","size_leaf_vector":"1"}},{"base_weights":[3.6171365E-3,-3.339499E-1,5.0159705E-1,-1.0197156E-2,-6.228933E-1,3.0588916E-1,8.410898E-1,1.5083487E-1,-1.5805867E-1,-7.857426E-1,-4.0710333E-1,4.4552973E-1,-9.472597E-3,7.4733126E-1,9.604278E-1,1.0051357E-2,-2.5275577E-2,-1.9209933E-2,4.9696937E-3,-2.9772267E-2,-4.545967E-2,-2.3072338E-2,1.3910203E-2,3.2783728E-2,1.6780188E-2,2.1242537E-2,-8.521282E-3,3.765978E-2,-8.030643E-2,-2.4290744E-3,4.853437E-2],"categories":[],"categories_nodes":[],"categories_segments":[],"categories_sizes":[],"default_left":[0,0,0,0,0,0,0,0,0,0,0,0,0,0,0,0,0,0,0,0,0,0,0,0,0,0,0,0,0,0,0],"id":22,"left_children":[1,3,5,7,9,11,13,15,17,19,21,23,25,27,29,-1,-1,-1,-1,-1,-1,-1,-1,-1,-1,-1,-1,-1,-1,-1,-1],"loss_changes":[5.909957E3,1.9601003E3,9.4345654E2,2.3533E2,3.8876025E2,3.9684094E2,5.7390137E1,1.5595953E2,3.0001306E2,1.476687E2,1.7754877E2,1.4406018E2,1.9347185E2,4.1411377E1,2.3664795E1,0E0,0E0,0E0,0E0,0E0,0E0,0E0,0E0,0E0,0E0,0E0,0E0,0E0,0E0,0E0,0E0],"parents":[2147483647,0,0,1,1,2,2,3,3,4,4,5,5,6,6,7,7,8,8,9,9,10,10,11,11,12,12,13,13,14,14],"right_children":[2,4,6,8,10,12,14,16,18,20,22,24,26,28,30,-1,-1,-1,-1,-1,-1,-1,-1,-1,-1,-1,-1,-1,-1,-1,-1],"split_conditions":[1E0,1E0,3E0,5.348E3,1.7391305E-1,1E0,5E0,6.6E1,5.212884E-1,5.5E1,4E0,1E0,1E0,2.1548E4,2.3E1,1.0051357E-2,-2.5275577E-2,-1.9209933E-2,4.9696937E-3,-2.9772267E-2,-4.545967E-2,-2.3072338E-2,1.3910203E-2,3.2783728E-2,1.6780188E-2,2.1242537E-2,-8.521282E-3,3.765978E-2,-8.030643E-2,-2.4290744E-3,4.853437E-2],"split_indices":[12,17,12,4,15,17,12,1,3,1,7,2,2,4,1,0,0,0,0,0,0,0,0,0,0,0,0,0,0,0,0],"split_type":[0,0,0,0,0,0,0,0,0,0,0,0,0,0,0,0,0,0,0,0,0,0,0,0,0,0,0,0,0,0,0],"sum_hessian":[3.5155055E4,2.0952354E4,1.4202702E4,9.881478E3,1.1070877E4,9.010378E3,5.1923237E3,4.7300674E3,5.15141E3,6.3078867E3,4.7629897E3,6.2448E3,2.765578E3,2.911865E3,2.2804587E3,4.3946895E3,3.353778E2,2.74222E3,2.4091904E3,2.4842627E3,3.8236243E3,4.413347E3,3.496426E2,2.1430261E3,4.101774E3,7.47324E2,2.018254E3,2.9053057E3,6.559454E0,2.2916567E1,2.2575422E3],"tree_param":{"num_deleted":"0","num_feature":"25","num_nodes":"31","size_leaf_vector":"1"}},{"base_weights":[-5.892195E-4,-3.311827E-1,4.8452032E-1,-6.2747437E-1,-5.630437E-2,2.958269E-1,8.241177E-1,-7.4264014E-1,-2.9238185E-1,-1.7507608E-1,1.5196864E-1,4.3598697E-2,5.135952E-1,7.1858734E-1,9.574129E-1,-2.8354129E-2,-4.314786E-2,-1.0238732E-2,-4.7771867E-2,1.3692235E-2,-1.2775503E-2,-4.8581576E-3,2.0945292E-2,1.7576586E-2,-2.9913394E-3,3.520674E-2,2.0039057E-2,3.8329598E-2,1.4802001E-2,1.8188814E-2,4.836871E-2],"categories":[],"categories_nodes":[],"categories_segments":[],"categories_sizes":[],"default_left":[0,0,0,0,0,0,0,0,0,0,0,0,0,0,0,0,0,0,0,0,0,0,0,0,0,0,0,0,0,0,0],"id":23,"left_children":[1,3,5,7,9,11,13,15,17,19,21,23,25,27,29,-1,-1,-1,-1,-1,-1,-1,-1,-1,-1,-1,-1,-1,-1,-1,-1],"loss_changes":[5.566947E3,1.6812859E3,9.012578E2,3.8318066E2,2.6495917E2,4.967984E2,6.998804E1,1.5567188E2,1.4750911E2,2.463641E2,2.5873877E2,1.335294E2,1.0405786E2,5.673584E1,1.2758667E1,0E0,0E0,0E0,0E0,0E0,0E0,0E0,0E0,0E0,0E0,0E0,0E0,0E0,0E0,0E0,0E0],"parents":[2147483647,0,0,1,1,2,2,3,3,4,4,5,5,6,6,7,7,8,8,9,9,10,10,11,11,12,12,13,13,14,14],"right_children":[2,4,6,8,10,12,14,16,18,20,22,24,26,28,30,-1,-1,-1,-1,-1,-1,-1,-1,-1,-1,-1,-1,-1,-1,-1,-1],"split_conditions":[1E0,2.3165122E-1,3E0,2.264151E-1,2.1052632E-1,5.8952236E-1,5E0,3.55E3,5.68E2,4E-2,5.696649E-1,1E0,1E0,5.705E3,2.4E1,-2.8354129E-2,-4.314786E-2,-1.0238732E-2,-4.7771867E-2,1.3692235E-2,-1.2775503E-2,-4.8581576E-3,2.0945292E-2,1.7576586E-2,-2.9913394E-3,3.520674E-2,2.0039057E-2,3.8329598E-2,1.4802001E-2,1.8188814E-2,4.836871E-2],"split_indices":[12,0,12,15,15,0,12,14,3,15,3,2,2,14,1,0,0,0,0,0,0,0,0,0,0,0,0,0,0,0,0],"split_type":[0,0,0,0,0,0,0,0,0,0,0,0,0,0,0,0,0,0,0,0,0,0,0,0,0,0,0,0,0,0,0],"sum_hessian":[3.471027E4,2.0642852E4,1.4067417E4,9.9338545E3,1.0708997E4,9.04406E3,5.023357E3,7.3920977E3,2.541757E3,6.8199487E3,3.889048E3,4.191033E3,4.853027E3,2.8072422E3,2.216115E3,3.0083096E3,4.3837876E3,2.2462737E3,2.9548343E2,1.035907E3,5.784042E3,2.0119429E3,1.8771052E3,1.053124E3,3.1379092E3,1.8028416E3,3.050185E3,2.520123E3,2.871191E2,3.719214E1,2.1789229E3],"tree_param":{"num_deleted":"0","num_feature":"25","num_nodes":"31","size_leaf_vector":"1"}},{"base_weights":[6.9057853E-3,-3.0813625E-1,4.695334E-1,-6.423137E-1,-6.826994E-2,1.7488916E-1,6.916128E-1,-7.101076E-1,-2.2468029E-1,6.323841E-2,-3.3541766E-1,-3.6658794E-2,5.081681E-1,4.60106E-1,7.8946733E-1,-2.4136227E-2,-3.939049E-2,-3.4026098E-2,-1.5471409E-3,-1.4816623E-3,2.1474501E-2,-1.29645495E-2,-4.4449687E-2,1.5922822E-2,-8.988698E-3,-9.125859E-2,2.5929956E-2,1.5606607E-2,3.292999E-2,3.4335487E-2,4.548892E-2],"categories":[],"categories_nodes":[],"categories_segments":[],"categories_sizes":[],"default_left":[0,0,0,0,0,0,0,0,0,0,0,0,0,0,0,0,0,0,0,0,0,0,0,0,0,0,0,0,0,0,0],"id":24,"left_children":[1,3,5,7,9,11,13,15,17,19,21,23,25,27,29,-1,-1,-1,-1,-1,-1,-1,-1,-1,-1,-1,-1,-1,-1,-1,-1],"loss_changes":[5.039983E3,1.6489236E3,9.1653906E2,2.4321216E2,4.2078964E2,4.246043E2,1.8059082E2,1.302727E2,1.0612576E2,2.73036E2,1.6627356E2,1.8732494E2,5.7859985E1,6.9569824E1,6.877002E1,0E0,0E0,0E0,0E0,0E0,0E0,0E0,0E0,0E0,0E0,0E0,0E0,0E0,0E0,0E0,0E0],"parents":[2147483647,0,0,1,1,2,2,3,3,4,4,5,5,6,6,7,7,8,8,9,9,10,10,11,11,12,12,13,13,14,14],"right_children":[2,4,6,8,10,12,14,16,18,20,22,24,26,28,30,-1,-1,-1,-1,-1,-1,-1,-1,-1,-1,-1,-1,-1,-1,-1,-1],"split_conditions":[1E0,1.5674569E-1,2E0,2.8E-1,5.3E1,7.9640716E-1,5.8952236E-1,4.001E3,2.6067078E-1,2.962963E-1,6.6970344E0,1E0,2.4E2,1E0,4E0,-2.4136227E-2,-3.939049E-2,-3.4026098E-2,-1.5471409E-3,-1.4816623E-3,2.1474501E-2,-1.29645495E-2,-4.4449687E-2,1.5922822E-2,-8.988698E-3,-9.125859E-2,2.5929956E-2,1.5606607E-2,3.292999E-2,3.4335487E-2,4.548892E-2],"split_indices":[12,0,12,15,1,0,0,4,11,15,11,2,4,8,12,0,0,0,0,0,0,0,0,0,0,0,0,0,0,0,0],"split_type":[0,0,0,0,0,0,0,0,0,0,0,0,0,0,0,0,0,0,0,0,0,0,0,0,0,0,0,0,0,0,0],"sum_hessian":[3.4578324E4,2.0570484E4,1.4007839E4,8.594753E3,1.1975732E4,6.021109E3,7.98673E3,7.3938223E3,1.2009303E3,8.0256987E3,3.9500337E3,3.6837488E3,2.33736E3,2.3745825E3,5.6121475E3,1.8849698E3,5.5088525E3,3.57429E2,8.4350134E2,6.40299E3,1.6227087E3,3.473793E3,4.762407E2,1.0577937E3,2.625955E3,9.628183E0,2.327732E3,1.3618893E3,1.0126933E3,3.0305044E3,2.581643E3],"tree_param":{"num_deleted":"0","num_feature":"25","num_nodes":"31","size_leaf_vector":"1"}},{"base_weights":[3.984327E-3,-2.9199988E-1,4.4869226E-1,-5.148468E-1,2.5784202E-2,2.7226454E-1,7.742334E-1,-6.912602E-1,-3.059281E-1,1.3709776E-1,-2.3246375E-1,1.3675691E-1,5.7392675E-1,6.004811E-1,8.6234605E-1,-3.608702E-2,4.0826897E-4,-1.781706E-2,1.5985088E-2,3.5526833E-4,1.665551E-2,-2.2118112E-2,-1.3145269E-3,1.78295E-3,1.8337114E-2,3.4339655E-2,2.4079314E-2,3.391989E-2,5.092711E-3,3.1144617E-2,4.4363108E-2],"categories":[],"categories_nodes":[],"categories_segments":[],"categories_sizes":[],"default_left":[0,0,0,0,0,0,0,0,0,0,0,0,0,0,0,0,0,0,0,0,0,0,0,0,0,0,0,0,0,0,0],"id":25,"left_children":[1,3,5,7,9,11,13,15,17,19,21,23,25,27,29,-1,-1,-1,-1,-1,-1,-1,-1,-1,-1,-1,-1,-1,-1,-1,-1],"loss_changes":[4.4841577E3,1.4484967E3,7.8167114E2,4.4290356E2,2.4242175E2,3.6088037E2,7.272681E1,1.3895557E2,1.7377655E2,1.5014842E2,1.0991321E2,1.4169016E2,2.81922E1,6.26015E1,1.8373047E1,0E0,0E0,0E0,0E0,0E0,0E0,0E0,0E0,0E0,0E0,0E0,0E0,0E0,0E0,0E0,0E0],"parents":[2147483647,0,0,1,1,2,2,3,3,4,4,5,5,6,6,7,7,8,8,9,9,10,10,11,11,12,12,13,13,14,14],"right_children":[2,4,6,8,10,12,14,16,18,20,22,24,26,28,30,-1,-1,-1,-1,-1,-1,-1,-1,-1,-1,-1,-1,-1,-1,-1,-1],"split_conditions":[1E0,4.0538007E-1,3E0,1.7391305E-1,5.3E1,9.328589E-1,1E0,3E0,4E0,4.2324063E-1,9E0,2E0,1E0,5.443E3,3.5946604E-2,-3.608702E-2,4.0826897E-4,-1.781706E-2,1.5985088E-2,3.5526833E-4,1.665551E-2,-2.2118112E-2,-1.3145269E-3,1.78295E-3,1.8337114E-2,3.4339655E-2,2.4079314E-2,3.391989E-2,5.092711E-3,3.1144617E-2,4.4363108E-2],"split_indices":[12,0,12,15,1,0,6,7,7,11,5,12,2,14,11,0,0,0,0,0,0,0,0,0,0,0,0,0,0,0,0],"split_type":[0,0,0,0,0,0,0,0,0,0,0,0,0,0,0,0,0,0,0,0,0,0,0,0,0,0,0,0,0,0,0],"sum_hessian":[3.406529E4,2.0452838E4,1.361245E4,1.2021858E4,8.4309795E3,8.829253E3,4.7831963E3,6.5167383E3,5.50512E3,5.8918594E3,2.5391204E3,6.093491E3,2.7357622E3,1.6120853E3,3.171111E3,6.244574E3,2.721639E2,5.0949976E3,4.10123E2,3.5431404E3,2.348719E3,1.2576256E3,1.2814948E3,4.2336157E3,1.8598755E3,1.2281614E3,1.5076007E3,1.393909E3,2.1817622E2,3.0131842E2,2.8697927E3],"tree_param":{"num_deleted":"0","num_feature":"25","num_nodes":"31","size_leaf_vector":"1"}},{"base_weights":[-4.606742E-3,-2.9534778E-1,4.2900035E-1,-4.824923E-1,4.700634E-2,2.3558646E-1,7.280883E-1,-6.2313414E-1,-2.3179536E-1,2.5309261E-2,1.2394491E0,4.7533393E-2,4.7345492E-1,5.599952E-1,8.4792364E-1,-3.285332E-2,-1.3056535E-3,-1.4365956E-2,1.6858976E-2,8.699501E-3,-7.466234E-3,-6.1874587E-2,6.440637E-2,-3.4183792E-3,1.9211069E-2,1.999832E-2,3.8800385E-2,1.8225444E-2,3.177076E-2,3.561968E-2,4.4535913E-2],"categories":[],"categories_nodes":[],"categories_segments":[],"categories_sizes":[],"default_left":[0,0,0,0,0,0,0,0,0,0,0,0,0,0,0,0,0,0,0,0,0,0,0,0,0,0,0,0,0,0,0],"id":26,"left_children":[1,3,5,7,9,11,13,15,17,19,21,23,25,27,29,-1,-1,-1,-1,-1,-1,-1,-1,-1,-1,-1,-1,-1,-1,-1,-1],"loss_changes":[4.241567E3,1.2904247E3,7.81041E2,4.5900073E2,1.8416415E2,3.6689578E2,1.0634668E2,1.6896973E2,1.4799666E2,1.8160089E2,1.6931458E1,1.7883116E2,8.0210815E1,3.235254E1,1.7310059E1,0E0,0E0,0E0,0E0,0E0,0E0,0E0,0E0,0E0,0E0,0E0,0E0,0E0,0E0,0E0,0E0],"parents":[2147483647,0,0,1,1,2,2,3,3,4,4,5,5,6,6,7,7,8,8,9,9,10,10,11,11,12,12,13,13,14,14],"right_children":[2,4,6,8,10,12,14,16,18,20,22,24,26,28,30,-1,-1,-1,-1,-1,-1,-1,-1,-1,-1,-1,-1,-1,-1,-1,-1],"split_conditions":[1E0,5.128319E-1,1E0,2.0588236E-1,5E0,6.992552E-1,3E0,3E0,4E0,3.24E3,1.5463917E-1,1E0,1.0035667E0,4.950174E-1,7.467655E-1,-3.285332E-2,-1.3056535E-3,-1.4365956E-2,1.6858976E-2,8.699501E-3,-7.466234E-3,-6.1874587E-2,6.440637E-2,-3.4183792E-3,1.9211069E-2,1.999832E-2,3.8800385E-2,1.8225444E-2,3.177076E-2,3.561968E-2,4.4535913E-2],"split_indices":[12,0,6,15,7,0,12,7,7,14,15,8,0,0,0,0,0,0,0,0,0,0,0,0,0,0,0,0,0,0,0],"split_type":[0,0,0,0,0,0,0,0,0,0,0,0,0,0,0,0,0,0,0,0,0,0,0,0,0,0,0,0,0,0,0],"sum_hessian":[3.364323E4,2.01396E4,1.3503631E4,1.3021252E4,7.118348E3,8.20161E3,5.302021E3,8.340639E3,4.680613E3,6.992144E3,1.2620425E2,4.581101E3,3.6205088E3,2.2090532E3,3.0929675E3,7.8919897E3,4.48649E2,4.2649136E3,4.156992E2,3.7767117E3,3.2154326E3,1.9617306E0,1.24242516E2,3.4085457E3,1.1725558E3,2.9148325E3,7.056762E2,6.1662146E2,1.5924316E3,7.4648914E2,2.3464785E3],"tree_param":{"num_deleted":"0","num_feature":"25","num_nodes":"31","size_leaf_vector":"1"}},{"base_weights":[1.4132586E-3,-2.8437692E-1,3.4906575E-1,-3.4029502E-1,5.3483456E-1,2.0094763E-1,7.60406E-1,-5.2559304E-1,-1.407432E-1,4.3081E-1,8.176438E-1,1.426543E-1,5.9864384E-1,6.7098206E-1,8.5500586E-1,-2.927028E-2,1.3791249E-3,-9.6773775E-3,3.6173772E-2,2.3040961E-2,-3.1701136E-2,4.3138713E-2,1.7273506E-2,5.0637424E-3,2.8105935E-2,3.123462E-2,-1.1709639E-2,2.3738742E-2,3.709794E-2,-2.5009853E-3,4.3236107E-2],"categories":[],"categories_nodes":[],"categories_segments":[],"categories_sizes":[],"default_left":[0,0,0,0,0,0,0,0,0,0,0,0,0,0,0,0,0,0,0,0,0,0,0,0,0,0,0,0,0,0,0],"id":27,"left_children":[1,3,5,7,9,11,13,15,17,19,21,23,25,27,29,-1,-1,-1,-1,-1,-1,-1,-1,-1,-1,-1,-1,-1,-1,-1,-1],"loss_changes":[3.323965E3,8.41287E2,9.194774E2,6.3550183E2,3.417444E1,2.5722693E2,3.322876E1,2.948943E2,3.7787347E2,2.777742E1,6.4034576E0,1.6798811E2,3.09216E1,2.8318115E1,1.7085693E1,0E0,0E0,0E0,0E0,0E0,0E0,0E0,0E0,0E0,0E0,0E0,0E0,0E0,0E0,0E0,0E0],"parents":[2147483647,0,0,1,1,2,2,3,3,4,4,5,5,6,6,7,7,8,8,9,9,10,10,11,11,12,12,13,13,14,14],"right_children":[2,4,6,8,10,12,14,16,18,20,22,24,26,28,30,-1,-1,-1,-1,-1,-1,-1,-1,-1,-1,-1,-1,-1,-1,-1,-1],"split_conditions":[5.484671E-1,1E0,1E0,1.1504784E-1,2E0,1E0,2E0,3.2E-1,4E0,1.9E1,3.58E2,1.0019999E0,1.2E4,1.7175764E-1,2.3E1,-2.927028E-2,1.3791249E-3,-9.6773775E-3,3.6173772E-2,2.3040961E-2,-3.1701136E-2,4.3138713E-2,1.7273506E-2,5.0637424E-3,2.8105935E-2,3.123462E-2,-1.1709639E-2,2.3738742E-2,3.709794E-2,-2.5009853E-3,4.3236107E-2],"split_indices":[0,6,6,0,6,8,6,15,7,5,3,0,4,3,1,0,0,0,0,0,0,0,0,0,0,0,0,0,0,0,0],"split_type":[0,0,0,0,0,0,0,0,0,0,0,0,0,0,0,0,0,0,0,0,0,0,0,0,0,0,0,0,0,0,0],"sum_hessian":[3.3453215E4,1.8360234E4,1.5092979E4,1.718762E4,1.1726151E3,1.1098166E4,3.9948127E3,8.911254E3,8.276366E3,8.591287E2,3.1348642E2,9.68057E3,1.4175952E3,2.0577456E3,1.9370671E3,8.0416826E3,8.6957153E2,7.8005244E3,4.758414E2,8.36132E2,2.2996717E1,2.853823E2,2.8104128E1,8.812476E3,8.680945E2,1.3748444E3,4.2750866E1,5.486773E2,1.5090684E3,2.0531273E1,1.9165358E3],"tree_param":{"num_deleted":"0","num_feature":"25","num_nodes":"31","size_leaf_vector":"1"}},{"base_weights":[3.0652431E-3,-2.6209137E-1,4.036136E-1,-5.048691E-1,-9.635032E-3,1.4570862E-1,6.0811514E-1,-3.564389E-1,-7.1179163E-1,-8.0281265E-2,2.8955185E-1,1.9595569E-2,4.6828932E-1,4.4033557E-1,7.5315744E-1,-2.7532116E-2,-1.0347988E-2,-3.8124032E-2,-9.644925E-3,4.3688514E-3,-1.1432793E-2,3.1050075E-2,7.247443E-3,-1.163984E-2,5.615639E-3,2.441393E-2,-4.225707E-2,9.983437E-3,2.6771242E-2,3.4600955E-2,4.5477506E-2],"categories":[],"categories_nodes":[],"categories_segments":[],"categories_sizes":[],"default_left":[0,0,0,0,0,0,0,0,0,0,0,0,0,0,0,0,0,0,0,0,0,0,0,0,0,0,0,0,0,0,0],"id":28,"left_children":[1,3,5,7,9,11,13,15,17,19,21,23,25,27,29,-1,-1,-1,-1,-1,-1,-1,-1,-1,-1,-1,-1,-1,-1,-1,-1],"loss_changes":[3.525732E3,1.2242177E3,6.9729004E2,3.124768E2,2.0700894E2,2.3793831E2,1.7912671E2,1.7206195E2,1.1169165E2,1.971138E2,8.957794E1,9.8453415E1,4.357309E1,7.819647E1,3.7175293E1,0E0,0E0,0E0,0E0,0E0,0E0,0E0,0E0,0E0,0E0,0E0,0E0,0E0,0E0,0E0,0E0],"parents":[2147483647,0,0,1,1,2,2,3,3,4,4,5,5,6,6,7,7,8,8,9,9,10,10,11,11,12,12,13,13,14,14],"right_children":[2,4,6,8,10,12,14,16,18,20,22,24,26,28,30,-1,-1,-1,-1,-1,-1,-1,-1,-1,-1,-1,-1,-1,-1,-1,-1],"split_conditions":[1E0,2.9749E-1,2E0,5.8E1,2.777778E-1,9.328589E-1,1E0,3.241895E-1,2.682927E-1,1E0,4.501E3,9.726683E-2,7E1,3.6839545E-1,6E0,-2.7532116E-2,-1.0347988E-2,-3.8124032E-2,-9.644925E-3,4.3688514E-3,-1.1432793E-2,3.1050075E-2,7.247443E-3,-1.163984E-2,5.615639E-3,2.441393E-2,-4.225707E-2,9.983437E-3,2.6771242E-2,3.4600955E-2,4.5477506E-2],"split_indices":[12,0,12,1,15,0,6,3,15,16,4,0,1,0,12,0,0,0,0,0,0,0,0,0,0,0,0,0,0,0,0],"split_type":[0,0,0,0,0,0,0,0,0,0,0,0,0,0,0,0,0,0,0,0,0,0,0,0,0,0,0,0,0,0,0],"sum_hessian":[3.3194473E4,1.9973008E4,1.3221466E4,1.0181165E4,9.791843E3,5.8480146E3,7.373451E3,5.9300957E3,4.2510693E3,7.921978E3,1.8698646E3,4.205093E3,1.6429219E3,3.42063E3,3.952821E3,2.5780317E3,3.352064E3,3.8723247E3,3.7874435E2,3.7194902E3,4.202488E3,5.6697864E2,1.302886E3,1.1293352E3,3.0757576E3,1.6189117E3,2.4010204E1,9.69632E2,2.450998E3,2.8457583E3,1.1070629E3],"tree_param":{"num_deleted":"0","num_feature":"25","num_nodes":"31","size_leaf_vector":"1"}},{"base_weights":[1.4322878E-2,-1.4948489E-1,5.986098E-1,9.404721E-2,-4.26282E-1,3.876989E-1,7.157812E-1,-3.4082595E-2,2.4371499E-1,-4.670608E-1,4.196722E-1,2.5814113E-1,6.1509824E-1,6.153662E-1,8.34602E-1,-8.907324E-3,9.053952E-3,1.4951728E-2,-8.019628E-3,-1.7655732E-2,-3.4547534E-2,-6.886291E-2,2.4259662E-2,1.1058596E-3,1.9553112E-2,3.4415018E-2,2.0254742E-2,2.6328245E-2,3.7832383E-2,3.174328E-2,4.3633457E-2],"categories":[],"categories_nodes":[],"categories_segments":[],"categories_sizes":[],"default_left":[0,0,0,0,0,0,0,0,0,0,0,0,0,0,0,0,0,0,0,0,0,0,0,0,0,0,0,0,0,0,0],"id":29,"left_children":[1,3,5,7,9,11,13,15,17,19,21,23,25,27,29,-1,-1,-1,-1,-1,-1,-1,-1,-1,-1,-1,-1,-1,-1,-1,-1],"loss_changes":[3.1647588E3,1.740919E3,1.7865039E2,2.6348276E2,4.1717773E2,7.6086914E1,5.5007324E1,2.2950508E2,1.4171408E2,2.9395483E2,6.6177155E1,5.1768692E1,1.4149811E1,3.1290283E1,1.5629883E1,0E0,0E0,0E0,0E0,0E0,0E0,0E0,0E0,0E0,0E0,0E0,0E0,0E0,0E0,0E0,0E0],"parents":[2147483647,0,0,1,1,2,2,3,3,4,4,5,5,6,6,7,7,8,8,9,9,10,10,11,11,12,12,13,13,14,14],"right_children":[2,4,6,8,10,12,14,16,18,20,22,24,26,28,30,-1,-1,-1,-1,-1,-1,-1,-1,-1,-1,-1,-1,-1,-1,-1,-1],"split_conditions":[2E0,1E0,6.992552E-1,8.21706E-1,4E0,1E0,4E0,5.612567E-1,1E0,1E0,1.4285715E-1,3.5633764E-1,5.35E3,5.773036E-1,1.2543727E-1,-8.907324E-3,9.053952E-3,1.4951728E-2,-8.019628E-3,-1.7655732E-2,-3.4547534E-2,-6.886291E-2,2.4259662E-2,1.1058596E-3,1.9553112E-2,3.4415018E-2,2.0254742E-2,2.6328245E-2,3.7832383E-2,3.174328E-2,4.3633457E-2],"split_indices":[12,17,0,0,7,6,12,3,24,24,15,3,14,3,3,0,0,0,0,0,0,0,0,0,0,0,0,0,0,0,0],"split_type":[0,0,0,0,0,0,0,0,0,0,0,0,0,0,0,0,0,0,0,0,0,0,0,0,0,0,0,0,0,0,0],"sum_hessian":[3.3063938E4,2.5824621E4,7.239318E3,1.3738154E4,1.2086467E4,2.5869907E3,4.652327E3,7.4020605E3,6.3360933E3,1.1531064E4,5.5540137E2,1.6494015E3,9.375891E2,2.5248042E3,2.127523E3,4.4336396E3,2.968421E3,5.5733936E3,7.626998E2,7.643547E3,3.8875178E3,1.883472E1,5.3656665E2,5.9465576E2,1.0547457E3,6.935551E2,2.4403395E2,1.5532487E3,9.715554E2,3.4339944E2,1.7841235E3],"tree_param":{"num_deleted":"0","num_feature":"25","num_nodes":"31","size_leaf_vector":"1"}},{"base_weights":[-3.402256E-4,-3.0132484E-1,2.6647955E-1,-3.476129E-1,4.59118E-1,1.3425387E-1,7.043172E-1,-3.9075372E-1,4.6631837E-1,3.5971734E-1,7.469445E-1,8.6313166E-2,6.178761E-1,6.212547E-1,8.003134E-1,-1.3898662E-2,-2.873196E-2,3.018947E-2,-2.3090107E-2,1.0416831E-2,2.6501164E-2,3.8381506E-2,-3.0890623E-2,-1.68816E-3,1.215244E-2,3.4462254E-2,6.240405E-3,3.1665925E-2,-9.10912E-3,3.1860076E-2,4.28376E-2],"categories":[],"categories_nodes":[],"categories_segments":[],"categories_sizes":[],"default_left":[0,0,0,0,0,0,0,0,0,0,0,0,0,0,0,0,0,0,0,0,0,0,0,0,0,0,0,0,0,0,0],"id":30,"left_children":[1,3,5,7,9,11,13,15,17,19,21,23,25,27,29,-1,-1,-1,-1,-1,-1,-1,-1,-1,-1,-1,-1,-1,-1,-1,-1],"loss_changes":[2.625709E3,5.4096265E2,1.0032698E3,5.0873315E2,2.4964706E1,3.0859998E2,3.1554932E1,2.8509155E2,9.335028E1,1.684066E1,6.8395233E0,2.2797868E2,4.2158173E1,2.1046387E1,1.6588135E1,0E0,0E0,0E0,0E0,0E0,0E0,0E0,0E0,0E0,0E0,0E0,0E0,0E0,0E0,0E0,0E0],"parents":[2147483647,0,0,1,1,2,2,3,3,4,4,5,5,6,6,7,7,8,8,9,9,10,10,11,11,12,12,13,13,14,14],"right_children":[2,4,6,8,10,12,14,16,18,20,22,24,26,28,30,-1,-1,-1,-1,-1,-1,-1,-1,-1,-1,-1,-1,-1,-1,-1,-1],"split_conditions":[4.0538007E-1,1E0,1E0,4E0,2E0,1.0001091E0,2E0,5.8E1,6.4E1,3.348482E-1,7.5E1,4.195576E-1,7.4E3,9.772E3,1.18171655E-1,-1.3898662E-2,-2.873196E-2,3.018947E-2,-2.3090107E-2,1.0416831E-2,2.6501164E-2,3.8381506E-2,-3.0890623E-2,-1.68816E-3,1.215244E-2,3.4462254E-2,6.240405E-3,3.1665925E-2,-9.10912E-3,3.1860076E-2,4.28376E-2],"split_indices":[0,6,6,7,6,0,6,1,1,11,1,11,4,14,11,0,0,0,0,0,0,0,0,0,0,0,0,0,0,0,0],"split_type":[0,0,0,0,0,0,0,0,0,0,0,0,0,0,0,0,0,0,0,0,0,0,0,0,0,0,0,0,0,0,0],"sum_hessian":[3.2693223E4,1.5362974E4,1.7330248E4,1.4481999E4,8.809744E2,1.3311517E4,4.0187322E3,1.375354E4,7.284591E2,6.5650183E2,2.2447263E2,1.2112047E4,1.1994696E3,2.158512E3,1.8602203E3,8.526554E3,5.2269863E3,6.347856E2,9.367351E1,3.4873935E2,3.0776248E2,2.215521E2,2.9205275E0,6.8584897E3,5.253557E3,1.0474578E3,1.5201189E2,2.1267896E3,3.1722473E1,4.8135516E2,1.3788651E3],"tree_param":{"num_deleted":"0","num_feature":"25","num_nodes":"31","size_leaf_vector":"1"}},{"base_weights":[-1.1234678E-2,-2.4846366E-1,3.5558063E-1,-8.707539E-2,-4.9419045E-1,2.0049721E-1,6.6531813E-1,-1.7091249E-1,2.1249934E-1,-5.6923217E-1,-1.18600465E-1,1.093307E-1,4.832317E-1,5.1130676E-1,7.512989E-1,2.3983166E-2,-1.1430357E-2,4.4410946E-4,2.5165876E-2,-2.4714384E-2,-4.0957958E-2,-1.9709839E-2,1.3772379E-2,1.6664175E-2,8.845636E-4,2.4900151E-2,-1.5380605E-2,2.8762711E-2,7.930764E-3,3.4188073E-2,4.3098565E-2],"categories":[],"categories_nodes":[],"categories_segments":[],"categories_sizes":[],"default_left":[0,0,0,0,0,0,0,0,0,0,0,0,0,0,0,0,0,0,0,0,0,0,0,0,0,0,0,0,0,0,0],"id":31,"left_children":[1,3,5,7,9,11,13,15,17,19,21,23,25,27,29,-1,-1,-1,-1,-1,-1,-1,-1,-1,-1,-1,-1,-1,-1,-1,-1],"loss_changes":[2.8080615E3,7.770874E2,6.0863196E2,2.971282E2,2.1887463E2,2.1766132E2,5.560193E1,3.4704498E2,1.5318567E2,1.20861084E2,1.4072621E2,1.3109978E2,2.4207947E1,3.4141754E1,1.9674683E1,0E0,0E0,0E0,0E0,0E0,0E0,0E0,0E0,0E0,0E0,0E0,0E0,0E0,0E0,0E0,0E0],"parents":[2147483647,0,0,1,1,2,2,3,3,4,4,5,5,6,6,7,7,8,8,9,9,10,10,11,11,12,12,13,13,14,14],"right_children":[2,4,6,8,10,12,14,16,18,20,22,24,26,28,30,-1,-1,-1,-1,-1,-1,-1,-1,-1,-1,-1,-1,-1,-1,-1,-1],"split_conditions":[1E0,5.4E1,3E0,2.857143E-1,1E0,1E0,1E0,4E-2,6.1267376E-1,4E0,9E0,2E3,2.306E3,5.443E3,6E0,2.3983166E-2,-1.1430357E-2,4.4410946E-4,2.5165876E-2,-2.4714384E-2,-4.0957958E-2,-1.9709839E-2,1.3772379E-2,1.6664175E-2,8.845636E-4,2.4900151E-2,-1.5380605E-2,2.8762711E-2,7.930764E-3,3.4188073E-2,4.3098565E-2],"split_indices":[12,1,12,15,19,6,6,15,3,3,5,14,3,14,12,0,0,0,0,0,0,0,0,0,0,0,0,0,0,0,0],"split_type":[0,0,0,0,0,0,0,0,0,0,0,0,0,0,0,0,0,0,0,0,0,0,0,0,0,0,0,0,0,0,0],"sum_hessian":[3.2267424E4,1.9595092E4,1.2672332E4,1.1828036E4,7.767055E3,8.445418E3,4.226914E3,9.242045E3,2.585991E3,6.4732114E3,1.2938435E3,6.3872603E3,2.058158E3,1.5168435E3,2.7100706E3,7.5224744E2,8.489798E3,1.5216406E3,1.0643503E3,4.982199E3,1.4910126E3,7.6135394E2,5.3248956E2,1.8539215E3,4.533339E3,2.020784E3,3.7373844E1,1.2834979E3,2.3334557E2,1.6874739E3,1.02259674E3],"tree_param":{"num_deleted":"0","num_feature":"25","num_nodes":"31","size_leaf_vector":"1"}},{"base_weights":[7.831486E-3,-2.2247393E-1,3.6008924E-1,-1.0435726E-1,-5.216685E-1,1.3297857E-1,5.499124E-1,-1.2713899E-1,9.125921E-1,-6.733867E-1,-3.3814716E-1,3.77607E-1,4.234294E-3,4.4336432E-1,7.230064E-1,1.9264354E-3,-1.2635059E-2,5.0485093E-2,-2.1778988E-2,-2.3419134E-2,-4.0216155E-2,1.5171713E-3,-2.41241E-2,1.930722E-2,-1.1458152E-1,1.3053672E-2,-4.797676E-3,2.464533E-2,7.2866403E-3,3.6333986E-2,-1.3472126E-1],"categories":[],"categories_nodes":[],"categories_segments":[],"categories_sizes":[],"default_left":[0,0,0,0,0,0,0,0,0,0,0,0,0,0,0,0,0,0,0,0,0,0,0,0,0,0,0,0,0,0,0],"id":32,"left_children":[1,3,5,7,9,11,13,15,17,19,21,23,25,27,29,-1,-1,-1,-1,-1,-1,-1,-1,-1,-1,-1,-1,-1,-1,-1,-1],"loss_changes":[2.6174734E3,6.893919E2,5.498036E2,3.2419742E2,1.5351404E2,1.8293222E2,1.2781128E2,2.8463324E2,4.0583298E1,8.073352E1,1.3302826E2,4.652588E1,9.797744E1,6.3377197E1,3.5167236E1,0E0,0E0,0E0,0E0,0E0,0E0,0E0,0E0,0E0,0E0,0E0,0E0,0E0,0E0,0E0,0E0],"parents":[2147483647,0,0,1,1,2,2,3,3,4,4,5,5,6,6,7,7,8,8,9,9,10,10,11,11,12,12,13,13,14,14],"right_children":[2,4,6,8,10,12,14,16,18,20,22,24,26,28,30,-1,-1,-1,-1,-1,-1,-1,-1,-1,-1,-1,-1,-1,-1,-1,-1],"split_conditions":[1E0,5.9E1,2E0,5E0,1.3414635E-1,1E0,4E0,5.166E3,1.609438E0,6.6E1,4.7E3,2.4E1,2E3,5.4165E3,2.8E1,1.9264354E-3,-1.2635059E-2,5.0485093E-2,-2.1778988E-2,-2.3419134E-2,-4.0216155E-2,1.5171713E-3,-2.41241E-2,1.930722E-2,-1.1458152E-1,1.3053672E-2,-4.797676E-3,2.464533E-2,7.2866403E-3,3.6333986E-2,-1.3472126E-1],"split_indices":[12,1,12,7,15,2,12,4,11,1,4,5,14,14,5,0,0,0,0,0,0,0,0,0,0,0,0,0,0,0,0],"split_type":[0,0,0,0,0,0,0,0,0,0,0,0,0,0,0,0,0,0,0,0,0,0,0,0,0,0,0,0,0,0,0],"sum_hessian":[3.2261965E4,1.9508025E4,1.275394E4,1.3987398E4,5.520627E3,5.807435E3,6.946505E3,1.3681774E4,3.056246E2,3.0207146E3,2.499912E3,2.0018208E3,3.8056145E3,4.3019805E3,2.6445244E3,5.8991206E3,7.7826533E3,2.853236E2,2.0300987E1,1.1791404E3,1.8415743E3,7.038232E2,1.7960889E3,1.9962911E3,5.5296893E0,1.0674694E3,2.738145E3,3.6875178E3,6.144624E2,2.6424717E3,2.0529017E0],"tree_param":{"num_deleted":"0","num_feature":"25","num_nodes":"31","size_leaf_vector":"1"}},{"base_weights":[2.7548708E-3,-2.1414638E-1,3.3825278E-1,-4.9780068E-1,-3.7910182E-2,2.0397326E-1,6.2648183E-1,-6.0458827E-1,-2.4781264E-1,-1.3671552E-1,1.6868947E-1,9.166828E-2,4.6821275E-1,4.826556E-1,7.5077295E-1,1.0238522E-2,-3.2291666E-2,-2.309671E-2,2.9449926E-3,2.6141217E-3,-1.545718E-2,-1.6164646E-4,1.6492425E-2,2.6906524E-3,3.757836E-2,2.5693983E-2,4.9491785E-3,1.7960168E-2,3.4565214E-2,-1.824054E-2,3.8040403E-2],"categories":[],"categories_nodes":[],"categories_segments":[],"categories_sizes":[],"default_left":[0,0,0,0,0,0,0,0,0,0,0,0,0,0,0,0,0,0,0,0,0,0,0,0,0,0,0,0,0,0,0],"id":33,"left_children":[1,3,5,7,9,11,13,15,17,19,21,23,25,27,29,-1,-1,-1,-1,-1,-1,-1,-1,-1,-1,-1,-1,-1,-1,-1,-1],"loss_changes":[2.3253118E3,9.701578E2,4.8547998E2,1.9838757E2,2.4439455E2,2.5400314E2,7.091272E1,1.7406482E2,1.4632916E2,2.6394614E2,1.0732139E2,1.500629E2,4.2997314E1,4.743289E1,2.4201416E1,0E0,0E0,0E0,0E0,0E0,0E0,0E0,0E0,0E0,0E0,0E0,0E0,0E0,0E0,0E0,0E0],"parents":[2147483647,0,0,1,1,2,2,3,3,4,4,5,5,6,6,7,7,8,8,9,9,10,10,11,11,12,12,13,13,14,14],"right_children":[2,4,6,8,10,12,14,16,18,20,22,24,26,28,30,-1,-1,-1,-1,-1,-1,-1,-1,-1,-1,-1,-1,-1,-1,-1,-1],"split_conditions":[1E0,1.4641753E-1,3E0,2E0,2.264151E-1,9.328589E-1,9.12444E-1,2.9E1,4.557168E-1,1E0,4.2324063E-1,4E0,5.9E1,5E0,2.3E1,1.0238522E-2,-3.2291666E-2,-2.309671E-2,2.9449926E-3,2.6141217E-3,-1.545718E-2,-1.6164646E-4,1.6492425E-2,2.6906524E-3,3.757836E-2,2.5693983E-2,4.9491785E-3,1.7960168E-2,3.4565214E-2,-1.824054E-2,3.8040403E-2],"split_indices":[12,0,12,7,15,0,0,1,11,7,11,7,1,12,1,0,0,0,0,0,0,0,0,0,0,0,0,0,0,0,0],"split_type":[0,0,0,0,0,0,0,0,0,0,0,0,0,0,0,0,0,0,0,0,0,0,0,0,0,0,0,0,0,0,0],"sum_hessian":[3.1952305E4,1.9406354E4,1.2545952E4,7.4360747E3,1.1970278E4,8.559827E3,3.9861255E3,5.209366E3,2.2267083E3,8.097855E3,3.8724236E3,6.00779E3,2.5520366E3,1.8501112E3,2.1360142E3,2.5240535E2,4.956961E3,1.3109819E3,9.157264E2,3.8636335E3,4.234221E3,1.8741179E3,1.9983058E3,5.6828726E3,3.2491757E2,2.2707898E3,2.8124695E2,1.1640771E3,6.8603406E2,1.872785E1,2.1172864E3],"tree_param":{"num_deleted":"0","num_feature":"25","num_nodes":"31","size_leaf_vector":"1"}},{"base_weights":[8.121378E-3,-2.0822567E-1,3.386652E-1,-4.735318E-1,-4.3799426E-2,2.0110126E-1,6.273041E-1,-5.4326725E-1,-7.752965E-2,-7.812811E-2,5.483033E-1,9.980261E-3,3.4639335E-1,4.5721704E-1,7.064908E-1,-1.925984E-2,-3.2265898E-2,-2.6396105E-2,5.251584E-3,-1.6741304E-3,-2.4378931E-2,4.005792E-2,9.128837E-3,1.4485563E-2,-4.1280594E-3,2.5181133E-2,1.3039072E-2,2.6084159E-2,5.537412E-3,3.214435E-2,4.223426E-2],"categories":[],"categories_nodes":[],"categories_segments":[],"categories_sizes":[],"default_left":[0,0,0,0,0,0,0,0,0,0,0,0,0,0,0,0,0,0,0,0,0,0,0,0,0,0,0,0,0,0,0],"id":34,"left_children":[1,3,5,7,9,11,13,15,17,19,21,23,25,27,29,-1,-1,-1,-1,-1,-1,-1,-1,-1,-1,-1,-1,-1,-1,-1,-1],"loss_changes":[2.2698513E3,8.368623E2,4.9844458E2,2.0266284E2,2.4080605E2,2.361702E2,5.4256348E1,1.00427246E2,9.0521576E1,2.0466231E2,5.989241E1,9.513887E1,6.490881E1,2.8758148E1,2.3744629E1,0E0,0E0,0E0,0E0,0E0,0E0,0E0,0E0,0E0,0E0,0E0,0E0,0E0,0E0,0E0,0E0],"parents":[2147483647,0,0,1,1,2,2,3,3,4,4,5,5,6,6,7,7,8,8,9,9,10,10,11,11,12,12,13,13,14,14],"right_children":[2,4,6,8,10,12,14,16,18,20,22,24,26,28,30,-1,-1,-1,-1,-1,-1,-1,-1,-1,-1,-1,-1,-1,-1,-1,-1],"split_conditions":[1E0,1.4641753E-1,3E0,2.8E-1,4.047619E-1,4.950174E-1,7.2247416E-1,3.442E3,2.9780033E-1,7.25E2,6.4E3,1E0,1E0,5.443E3,6E0,-1.925984E-2,-3.2265898E-2,-2.6396105E-2,5.251584E-3,-1.6741304E-3,-2.4378931E-2,4.005792E-2,9.128837E-3,1.4485563E-2,-4.1280594E-3,2.5181133E-2,1.3039072E-2,2.6084159E-2,5.537412E-3,3.214435E-2,4.223426E-2],"split_indices":[12,0,12,15,15,0,0,14,3,3,4,2,2,14,12,0,0,0,0,0,0,0,0,0,0,0,0,0,0,0,0],"split_type":[0,0,0,0,0,0,0,0,0,0,0,0,0,0,0,0,0,0,0,0,0,0,0,0,0,0,0,0,0,0,0],"sum_hessian":[3.1738781E4,1.9183316E4,1.2555465E4,7.3392915E3,1.1844024E4,8.504133E3,4.0513325E3,6.2400547E3,1.0992367E3,1.1195788E4,6.482366E2,3.6732769E3,4.8308555E3,1.2891375E3,2.7621953E3,2.4499712E3,3.7900837E3,3.1650458E2,7.827322E2,1.0096023E4,1.0997643E3,3.8255566E2,2.6568094E2,9.125929E2,2.760684E3,1.7013615E3,3.1294941E3,1.0864753E3,2.02662E2,1.8954623E3,8.667329E2],"tree_param":{"num_deleted":"0","num_feature":"25","num_nodes":"31","size_leaf_vector":"1"}},{"base_weights":[6.990351E-3,-1.2099598E-1,4.908615E-1,-4.0935728E-1,4.194411E-2,3.3627468E-1,6.374292E-1,-4.78663E-1,-3.1644028E-2,-4.394766E-2,2.0340802E-1,2.2364657E-1,5.3858095E-1,5.5487335E-1,7.726188E-1,-2.7181664E-2,-7.229709E-3,7.945046E-2,-3.751759E-3,-3.956817E-3,3.0711105E-2,1.29920365E-2,-1.0761826E-2,1.4762505E-2,-4.3158433E-3,2.726671E-2,-1.3038644E-1,2.924697E-2,1.12182675E-2,2.7311984E-2,4.116407E-2],"categories":[],"categories_nodes":[],"categories_segments":[],"categories_sizes":[],"default_left":[0,0,0,0,0,0,0,0,0,0,0,0,0,0,0,0,0,0,0,0,0,0,0,0,0,0,0,0,0,0,0],"id":35,"left_children":[1,3,5,7,9,11,13,15,17,19,21,23,25,27,29,-1,-1,-1,-1,-1,-1,-1,-1,-1,-1,-1,-1,-1,-1,-1,-1],"loss_changes":[1.9511647E3,1.1707173E3,1.4910779E2,2.354779E2,2.2081087E2,7.301117E1,3.731494E1,1.6490076E2,9.827464E1,2.4076443E2,1.3067175E2,4.5823143E1,2.5795593E1,2.0768433E1,1.4226501E1,0E0,0E0,0E0,0E0,0E0,0E0,0E0,0E0,0E0,0E0,0E0,0E0,0E0,0E0,0E0,0E0],"parents":[2147483647,0,0,1,1,2,2,3,3,4,4,5,5,6,6,7,7,8,8,9,9,10,10,11,11,12,12,13,13,14,14],"right_children":[2,4,6,8,10,12,14,16,18,20,22,24,26,28,30,-1,-1,-1,-1,-1,-1,-1,-1,-1,-1,-1,-1,-1,-1,-1,-1],"split_conditions":[2E0,1.6078572E-1,1E0,2.826087E-1,8.683566E-1,8.8057065E-1,5E0,1E0,9E0,4E0,1E0,5.443E3,2.5E4,5.868E3,1.2543727E-1,-2.7181664E-2,-7.229709E-3,7.945046E-2,-3.751759E-3,-3.956817E-3,3.0711105E-2,1.29920365E-2,-1.0761826E-2,1.4762505E-2,-4.3158433E-3,2.726671E-2,-1.3038644E-1,2.924697E-2,1.12182675E-2,2.7311984E-2,4.116407E-2],"split_indices":[12,0,6,15,0,0,12,12,5,7,24,14,4,14,3,0,0,0,0,0,0,0,0,0,0,0,0,0,0,0,0],"split_type":[0,0,0,0,0,0,0,0,0,0,0,0,0,0,0,0,0,0,0,0,0,0,0,0,0,0,0,0,0,0,0],"sum_hessian":[3.150457E4,2.491514E4,6.589429E3,8.99494E3,1.5920201E4,3.2085862E3,3.3808433E3,7.6001406E3,1.3947994E3,1.0392547E4,5.5276543E3,2.062471E3,1.1461151E3,2.1022024E3,1.2786407E3,6.3621846E3,1.237956E3,3.5441563E1,1.3593578E3,9.865949E3,5.265977E2,4.8713784E3,6.5627606E2,1.6754734E3,3.869976E2,1.1444854E3,1.6298357E0,1.9262072E3,1.7599538E2,2.3597958E2,1.0426611E3],"tree_param":{"num_deleted":"0","num_feature":"25","num_nodes":"31","size_leaf_vector":"1"}},{"base_weights":[5.4267384E-3,-1.1854422E-1,4.7957668E-1,-4.3712637E-1,2.5550464E-2,3.271926E-1,6.240088E-1,-4.912913E-1,3.882885E-2,-7.393813E-2,1.9368337E-1,1.9570807E-1,4.9501455E-1,5.4190993E-1,7.613905E-1,1.2764633E-2,-2.5995392E-2,2.6722917E-2,-2.8799707E-3,-5.883809E-3,1.4301856E-2,7.022059E-3,2.7211195E-2,2.5805196E-2,5.18937E-3,2.511254E-2,-1.3520184E-1,2.7268922E-2,-1.553452E-1,2.660395E-2,4.075903E-2],"categories":[],"categories_nodes":[],"categories_segments":[],"categories_sizes":[],"default_left":[0,0,0,0,0,0,0,0,0,0,0,0,0,0,0,0,0,0,0,0,0,0,0,0,0,0,0,0,0,0,0],"id":36,"left_children":[1,3,5,7,9,11,13,15,17,19,21,23,25,27,29,-1,-1,-1,-1,-1,-1,-1,-1,-1,-1,-1,-1,-1,-1,-1,-1],"loss_changes":[1.8392507E3,1.1386921E3,1.4253394E2,1.991737E2,2.857249E2,6.9585815E1,3.7128662E1,1.4831543E2,3.7798534E1,1.6899736E2,1.1843646E2,5.214273E1,3.345706E1,2.8105652E1,1.4893005E1,0E0,0E0,0E0,0E0,0E0,0E0,0E0,0E0,0E0,0E0,0E0,0E0,0E0,0E0,0E0,0E0],"parents":[2147483647,0,0,1,1,2,2,3,3,4,4,5,5,6,6,7,7,8,8,9,9,10,10,11,11,12,12,13,13,14,14],"right_children":[2,4,6,8,10,12,14,16,18,20,22,24,26,28,30,-1,-1,-1,-1,-1,-1,-1,-1,-1,-1,-1,-1,-1,-1,-1,-1],"split_conditions":[2E0,1.1504784E-1,1E0,3.1578946E-1,8.085834E-1,1E0,5E0,2.9E1,1.3E1,3E0,1.0001091E0,3.9E1,2.1548E4,4.717E3,1.2543727E-1,1.2764633E-2,-2.5995392E-2,2.6722917E-2,-2.8799707E-3,-5.883809E-3,1.4301856E-2,7.022059E-3,2.7211195E-2,2.5805196E-2,5.18937E-3,2.511254E-2,-1.3520184E-1,2.7268922E-2,-1.553452E-1,2.660395E-2,4.075903E-2],"split_indices":[12,0,6,15,0,8,12,1,5,7,0,1,4,3,3,0,0,0,0,0,0,0,0,0,0,0,0,0,0,0,0],"split_type":[0,0,0,0,0,0,0,0,0,0,0,0,0,0,0,0,0,0,0,0,0,0,0,0,0,0,0,0,0,0,0],"sum_hessian":[3.1288012E4,2.4803623E4,6.48439E3,7.7241323E3,1.707949E4,3.1569226E3,3.3274675E3,6.934891E3,7.892411E2,1.0730522E4,6.3489673E3,1.7713096E3,1.385613E3,2.0858914E3,1.2415763E3,2.5570901E2,6.679182E3,1.27803604E2,6.614375E2,9.568584E3,1.161938E3,5.513018E3,8.359495E2,3.938619E2,1.3774478E3,1.3833269E3,2.28609E0,2.0847603E3,1.1311843E0,2.3797232E2,1.00360394E3],"tree_param":{"num_deleted":"0","num_feature":"25","num_nodes":"31","size_leaf_vector":"1"}},{"base_weights":[-2.0314242E-4,-1.8658602E-1,2.920202E-1,-7.328563E-2,-4.508636E-1,1.6752586E-1,5.6512964E-1,3.939916E-2,-2.269361E-1,-6.159753E-1,-2.8573903E-1,2.597101E-1,-2.229395E-2,4.6642357E-1,7.0644E-1,1.9948832E-4,2.8265541E-2,-1.985475E-2,-4.950474E-3,-1.7178277E-2,-3.802467E-2,-1.768576E-2,1.131297E-2,1.7362002E-2,3.5809192E-3,1.2426367E-2,-4.6600285E-3,2.5842553E-2,4.0354542E-3,-2.3177335E-2,3.6090627E-2],"categories":[],"categories_nodes":[],"categories_segments":[],"categories_sizes":[],"default_left":[0,0,0,0,0,0,0,0,0,0,0,0,0,0,0,0,0,0,0,0,0,0,0,0,0,0,0,0,0,0,0],"id":37,"left_children":[1,3,5,7,9,11,13,15,17,19,21,23,25,27,29,-1,-1,-1,-1,-1,-1,-1,-1,-1,-1,-1,-1,-1,-1,-1,-1],"loss_changes":[1.6780234E3,5.6322235E2,4.078404E2,2.2799374E2,1.5371497E2,1.4423862E2,5.20636E1,1.4147673E2,1.2123544E2,1.1081506E2,9.836537E1,9.132007E1,5.178208E1,4.303067E1,2.8083008E1,0E0,0E0,0E0,0E0,0E0,0E0,0E0,0E0,0E0,0E0,0E0,0E0,0E0,0E0,0E0,0E0],"parents":[2147483647,0,0,1,1,2,2,3,3,4,4,5,5,6,6,7,7,8,8,9,9,10,10,11,11,12,12,13,13,14,14],"right_children":[2,4,6,8,10,12,14,16,18,20,22,24,26,28,30,-1,-1,-1,-1,-1,-1,-1,-1,-1,-1,-1,-1,-1,-1,-1,-1],"split_conditions":[1E0,5.8E1,3E0,1E0,9E0,1E0,5E0,4.047619E-1,3.241895E-1,1E0,1E0,5.42E3,3.495E3,5.501E3,2.4E1,1.9948832E-4,2.8265541E-2,-1.985475E-2,-4.950474E-3,-1.7178277E-2,-3.802467E-2,-1.768576E-2,1.131297E-2,1.7362002E-2,3.5809192E-3,1.2426367E-2,-4.6600285E-3,2.5842553E-2,4.0354542E-3,-2.3177335E-2,3.6090627E-2],"split_indices":[12,1,12,17,5,17,12,15,3,17,19,4,4,14,1,0,0,0,0,0,0,0,0,0,0,0,0,0,0,0,0],"split_type":[0,0,0,0,0,0,0,0,0,0,0,0,0,0,0,0,0,0,0,0,0,0,0,0,0,0,0,0,0,0,0],"sum_hessian":[3.0806963E4,1.8810076E4,1.1996887E4,1.3166603E4,5.6434736E3,8.241631E3,3.7552559E3,7.5963237E3,5.570279E3,2.8204817E3,2.822992E3,5.547278E3,2.694353E3,2.2134492E3,1.5418065E3,7.1180747E3,4.7824915E2,2.3896423E3,3.1806362E3,9.788232E2,1.8416584E3,2.4923948E3,3.3059702E2,3.785036E3,1.7622418E3,5.585434E2,2.1358098E3,1.9572257E3,2.5622354E2,1.9617165E1,1.5221893E3],"tree_param":{"num_deleted":"0","num_feature":"25","num_nodes":"31","size_leaf_vector":"1"}},{"base_weights":[2.002703E-4,1.8301843E-1,-2.7343777E-1,9.0995595E-2,5.637736E-1,-3.306581E-1,1.9848822E-1,5.526002E-2,5.3901017E-1,5.232764E-1,7.6318836E-1,-3.6391923E-1,2.6175365E-1,-2.3344697E-1,3.8280326E-1,-2.7936872E-3,9.7083775E-3,3.0715583E-2,7.231236E-4,1.9465515E-2,2.9439008E-2,3.4463927E-2,4.4275504E-2,-2.2732584E-2,-8.5601965E-3,1.822334E-2,-1.078432E-2,-3.4133013E-2,9.125221E-3,2.7199302E-2,-8.926163E-3],"categories":[],"categories_nodes":[],"categories_segments":[],"categories_sizes":[],"default_left":[0,0,0,0,0,0,0,0,0,0,0,0,0,0,0,0,0,0,0,0,0,0,0,0,0,0,0,0,0,0,0],"id":38,"left_children":[1,3,5,7,9,11,13,15,17,19,21,23,25,27,29,-1,-1,-1,-1,-1,-1,-1,-1,-1,-1,-1,-1,-1,-1,-1,-1],"loss_changes":[1.5389824E3,6.461332E2,3.3278827E2,2.3778099E2,2.8588257E1,2.1663208E2,1.0621388E2,2.1239227E2,4.33284E1,2.5980408E1,4.847748E0,1.8186853E2,2.8755886E1,7.473704E1,8.46655E1,0E0,0E0,0E0,0E0,0E0,0E0,0E0,0E0,0E0,0E0,0E0,0E0,0E0,0E0,0E0,0E0],"parents":[2147483647,0,0,1,1,2,2,3,3,4,4,5,5,6,6,7,7,8,8,9,9,10,10,11,11,12,12,13,13,14,14],"right_children":[2,4,6,8,10,12,14,16,18,20,22,24,26,28,30,-1,-1,-1,-1,-1,-1,-1,-1,-1,-1,-1,-1,-1,-1,-1,-1],"split_conditions":[1E0,1E0,3E0,1.0001091E0,1.0001091E0,1E0,4.6830383E-1,5.0412655E-1,1.5121994E0,1.93098E-1,1.509434E-1,1.1504784E-1,6.2E1,7.4E3,4E0,-2.7936872E-3,9.7083775E-3,3.0715583E-2,7.231236E-4,1.9465515E-2,2.9439008E-2,3.4463927E-2,4.4275504E-2,-2.2732584E-2,-8.5601965E-3,1.822334E-2,-1.078432E-2,-3.4133013E-2,9.125221E-3,2.7199302E-2,-8.926163E-3],"split_indices":[17,6,7,0,0,6,3,3,0,3,15,0,1,14,3,0,0,0,0,0,0,0,0,0,0,0,0,0,0,0,0],"split_type":[0,0,0,0,0,0,0,0,0,0,0,0,0,0,0,0,0,0,0,0,0,0,0,0,0,0,0,0,0,0,0],"sum_hessian":[3.0761646E4,1.8441303E4,1.2320344E4,1.4852834E4,3.5884695E3,1.0988324E4,1.332019E3,1.3756666E4,1.0961677E3,2.985747E3,6.027223E2,1.0404544E4,5.837806E2,3.983155E2,9.337035E2,7.642688E3,6.1139785E3,9.5841174E2,1.3775595E2,9.827682E2,2.0029789E3,3.798452E2,2.2287708E2,7.073096E3,3.3314478E3,4.8061993E2,1.0316063E2,1.9119272E2,2.0712279E2,7.2543E2,2.0827351E2],"tree_param":{"num_deleted":"0","num_feature":"25","num_nodes":"31","size_leaf_vector":"1"}},{"base_weights":[7.571482E-3,-1.03772774E-1,4.442105E-1,-3.73792E-1,4.028143E-2,3.4305027E-1,6.206386E-1,-3.985157E-1,6.220936E-1,1.0166012E-1,-2.2182018E-1,3.0331442E-1,7.0633984E-1,5.7711124E-1,8.0529743E-1,1.4685352E-2,-2.1319846E-2,-7.355887E-2,3.7784383E-2,2.3311084E-2,3.312941E-3,6.711512E-4,-1.8213822E-2,2.6973365E-2,1.2177504E-2,3.1638507E-2,4.6708073E-2,3.2191467E-2,2.2133728E-2,4.4369567E-3,4.157148E-2],"categories":[],"categories_nodes":[],"categories_segments":[],"categories_sizes":[],"default_left":[0,0,0,0,0,0,0,0,0,0,0,0,0,0,0,0,0,0,0,0,0,0,0,0,0,0,0,0,0,0,0],"id":39,"left_children":[1,3,5,7,9,11,13,15,17,19,21,23,25,27,29,-1,-1,-1,-1,-1,-1,-1,-1,-1,-1,-1,-1,-1,-1,-1,-1],"loss_changes":[1.4922051E3,9.5130945E2,1.1109241E2,2.097417E2,2.5660303E2,5.703708E1,1.7792847E1,1.6037134E2,5.8859703E1,1.667596E2,1.01431E2,5.034851E1,5.9500885E0,1.623407E1,7.992401E0,0E0,0E0,0E0,0E0,0E0,0E0,0E0,0E0,0E0,0E0,0E0,0E0,0E0,0E0,0E0,0E0],"parents":[2147483647,0,0,1,1,2,2,3,3,4,4,5,5,6,6,7,7,8,8,9,9,10,10,11,11,12,12,13,13,14,14],"right_children":[2,4,6,8,10,12,14,16,18,20,22,24,26,28,30,-1,-1,-1,-1,-1,-1,-1,-1,-1,-1,-1,-1,-1,-1,-1,-1],"split_conditions":[2E0,1.6078572E-1,4E0,5E0,5.9E1,1.0150584E0,1.0066622E0,2.9E1,3.2922992E-1,3.7037037E-2,5E3,1E0,2.0224719E-1,5.2E1,5.33618E-2,1.4685352E-2,-2.1319846E-2,-7.355887E-2,3.7784383E-2,2.3311084E-2,3.312941E-3,6.711512E-4,-1.8213822E-2,2.6973365E-2,1.2177504E-2,3.1638507E-2,4.6708073E-2,3.2191467E-2,2.2133728E-2,4.4369567E-3,4.157148E-2],"split_indices":[12,0,12,7,1,0,0,1,11,15,4,2,15,1,11,0,0,0,0,0,0,0,0,0,0,0,0,0,0,0,0],"split_type":[0,0,0,0,0,0,0,0,0,0,0,0,0,0,0,0,0,0,0,0,0,0,0,0,0,0,0,0,0,0,0],"sum_hessian":[3.0690967E4,2.4455504E4,6.235464E3,8.5074E3,1.5948104E4,3.9649736E3,2.2704902E3,8.301898E3,2.055019E2,1.292253E4,3.025573E3,3.5757053E3,3.892684E2,1.8407246E3,4.297656E2,3.2106638E2,7.980832E3,1.1727805E1,1.937741E2,1.1427151E3,1.1779815E4,1.1414918E3,1.8840812E3,7.205393E2,2.855166E3,2.971033E2,9.21651E1,1.2276699E3,6.130547E2,1.5276317E1,4.144893E2],"tree_param":{"num_deleted":"0","num_feature":"25","num_nodes":"31","size_leaf_vector":"1"}},{"base_weights":[1.9151055E-3,-1.04352385E-1,4.2192778E-1,-3.3225736E-1,2.9107872E-2,2.885388E-1,5.5496335E-1,-8.4511675E-2,-4.2073506E-1,1.0228329E-1,-1.7014726E-1,3.4944755E-1,-9.922526E-3,4.965463E-1,7.203965E-1,-2.3197861E-2,2.1786185E-3,-2.7759794E-2,-9.653779E-3,7.6237693E-3,-1.1620211E-2,-1.3908527E-2,2.0622408E-2,1.1847413E-2,2.461015E-2,-1.1689163E-2,1.417999E-2,1.875983E-2,2.7758285E-2,3.6697E-2,-5.1989E-2],"categories":[],"categories_nodes":[],"categories_segments":[],"categories_sizes":[],"default_left":[0,0,0,0,0,0,0,0,0,0,0,0,0,0,0,0,0,0,0,0,0,0,0,0,0,0,0,0,0,0,0],"id":40,"left_children":[1,3,5,7,9,11,13,15,17,19,21,23,25,27,29,-1,-1,-1,-1,-1,-1,-1,-1,-1,-1,-1,-1,-1,-1,-1,-1],"loss_changes":[1.3548378E3,7.368542E2,1.08606445E2,1.9608344E2,2.2279855E2,5.5679016E1,2.9288086E1,1.1450847E2,2.0169348E2,1.877753E2,2.5842236E2,4.0733246E1,3.4237984E1,1.5941345E1,1.9794281E1,0E0,0E0,0E0,0E0,0E0,0E0,0E0,0E0,0E0,0E0,0E0,0E0,0E0,0E0,0E0,0E0],"parents":[2147483647,0,0,1,1,2,2,3,3,4,4,5,5,6,6,7,7,8,8,9,9,10,10,11,11,12,12,13,13,14,14],"right_children":[2,4,6,8,10,12,14,16,18,20,22,24,26,28,30,-1,-1,-1,-1,-1,-1,-1,-1,-1,-1,-1,-1,-1,-1,-1,-1],"split_conditions":[2E0,1.84198E-1,1E0,4.166E3,6.6E3,5.443E3,6E0,9.2307694E-2,2E0,6.6970344E0,4.7229022E-1,1E0,3.4557155E-1,7.714485E-1,1.3E4,-2.3197861E-2,2.1786185E-3,-2.7759794E-2,-9.653779E-3,7.6237693E-3,-1.1620211E-2,-1.3908527E-2,2.0622408E-2,1.1847413E-2,2.461015E-2,-1.1689163E-2,1.417999E-2,1.875983E-2,2.7758285E-2,3.6697E-2,-5.1989E-2],"split_indices":[12,0,6,4,4,14,12,15,7,11,11,8,11,0,14,0,0,0,0,0,0,0,0,0,0,0,0,0,0,0,0],"split_type":[0,0,0,0,0,0,0,0,0,0,0,0,0,0,0,0,0,0,0,0,0,0,0,0,0,0,0,0,0,0,0],"sum_hessian":[3.0352611E4,2.4224355E4,6.1282573E3,8.946046E3,1.5278309E4,3.0616467E3,3.0666106E3,2.354681E3,6.591365E3,1.1174879E4,4.10343E3,2.542594E3,5.190527E2,2.26929E3,7.9732056E2,5.9358344E2,1.7610974E3,4.1429863E3,2.448379E3,9.718038E3,1.4568407E3,3.462032E3,6.413981E2,1.4234753E3,1.1191187E3,2.94585E2,2.2446767E2,7.4156226E2,1.5277277E3,7.918111E2,5.509486E0],"tree_param":{"num_deleted":"0","num_feature":"25","num_nodes":"31","size_leaf_vector":"1"}},{"base_weights":[-1.1226572E-2,-1.8384345E-1,2.6067007E-1,-8.134807E-3,-3.778422E-1,1.4732146E-1,5.192486E-1,-7.238941E-2,2.1551952E-1,-4.807937E-1,-1.665256E-1,6.373952E-2,3.5728875E-1,3.874255E-1,6.394326E-1,1.611294E-2,-6.7920536E-3,7.606542E-3,3.1440407E-2,-1.1323273E-2,-2.7291605E-2,-1.9181466E-2,7.996701E-3,8.597009E-3,-4.5855707E-3,1.4014447E-2,2.868484E-2,2.103753E-2,-1.5411697E-2,3.0110283E-2,4.2568684E-2],"categories":[],"categories_nodes":[],"categories_segments":[],"categories_sizes":[],"default_left":[0,0,0,0,0,0,0,0,0,0,0,0,0,0,0,0,0,0,0,0,0,0,0,0,0,0,0,0,0,0,0],"id":41,"left_children":[1,3,5,7,9,11,13,15,17,19,21,23,25,27,29,-1,-1,-1,-1,-1,-1,-1,-1,-1,-1,-1,-1,-1,-1,-1,-1],"loss_changes":[1.4164601E3,6.292526E2,3.434218E2,1.3923615E2,1.9078894E2,1.4299475E2,5.6332397E1,1.8851291E2,5.6552597E1,9.74491E1,2.0387323E2,9.8079796E1,3.85007E1,3.9673126E1,1.4214539E1,0E0,0E0,0E0,0E0,0E0,0E0,0E0,0E0,0E0,0E0,0E0,0E0,0E0,0E0,0E0,0E0],"parents":[2147483647,0,0,1,1,2,2,3,3,4,4,5,5,6,6,7,7,8,8,9,9,10,10,11,11,12,12,13,13,14,14],"right_children":[2,4,6,8,10,12,14,16,18,20,22,24,26,28,30,-1,-1,-1,-1,-1,-1,-1,-1,-1,-1,-1,-1,-1,-1,-1,-1],"split_conditions":[1E0,1E0,3E0,2.6190478E-1,2E0,9.328589E-1,9.12444E-1,4E-2,9.328589E-1,8.047509E0,6.1267376E-1,8.597298E0,1.0001091E0,9.401704E0,2.413793E-1,1.611294E-2,-6.7920536E-3,7.606542E-3,3.1440407E-2,-1.1323273E-2,-2.7291605E-2,-1.9181466E-2,7.996701E-3,8.597009E-3,-4.5855707E-3,1.4014447E-2,2.868484E-2,2.103753E-2,-1.5411697E-2,3.0110283E-2,4.2568684E-2],"split_indices":[12,17,12,15,7,0,0,15,0,10,3,10,0,10,15,0,0,0,0,0,0,0,0,0,0,0,0,0,0,0,0],"split_type":[0,0,0,0,0,0,0,0,0,0,0,0,0,0,0,0,0,0,0,0,0,0,0,0,0,0,0,0,0,0,0],"sum_hessian":[3.0177838E4,1.8459148E4,1.171869E4,9.686724E3,8.772424E3,8.148391E3,3.5702996E3,7.525397E3,2.161327E3,5.8977954E3,2.8746287E3,5.829241E3,2.3191497E3,1.7047161E3,1.8655836E3,1.0417819E3,6.483615E3,1.8750992E3,2.8622766E2,1.2019869E3,4.695808E3,1.7263729E3,1.1482557E3,3.4369014E3,2.3923398E3,1.7122219E3,6.069278E2,1.6271632E3,7.755291E1,1.5901234E3,2.754601E2],"tree_param":{"num_deleted":"0","num_feature":"25","num_nodes":"31","size_leaf_vector":"1"}},{"base_weights":[-2.2209779E-4,-1.6687687E-1,2.6343584E-1,-2.8667566E-1,4.3808803E-2,1.6192187E-1,5.018077E-1,-5.201687E-1,-1.6893409E-1,1.7236333E-1,-1.0585135E-1,8.264864E-2,3.5904115E-1,4.076154E-1,6.44355E-1,-1.568289E-2,-3.422702E-2,-1.9667594E-2,-2.7115128E-3,4.5453105E-3,2.1968327E-2,-1.4933814E-2,6.8876306E-3,2.6973085E-3,3.1811047E-2,1.9123107E-2,-1.0424206E-2,2.4699274E-2,8.902043E-3,-9.966358E-3,3.3166375E-2],"categories":[],"categories_nodes":[],"categories_segments":[],"categories_sizes":[],"default_left":[0,0,0,0,0,0,0,0,0,0,0,0,0,0,0,0,0,0,0,0,0,0,0,0,0,0,0,0,0,0,0],"id":42,"left_children":[1,3,5,7,9,11,13,15,17,19,21,23,25,27,29,-1,-1,-1,-1,-1,-1,-1,-1,-1,-1,-1,-1,-1,-1,-1,-1],"loss_changes":[1.3182216E3,4.6396545E2,2.8107263E2,3.2207764E2,1.2823299E2,1.2732637E2,4.632495E1,1.3311426E2,2.0055037E2,7.7936264E1,1.4471384E2,9.2341324E1,3.1146729E1,4.1391876E1,2.2202148E1,0E0,0E0,0E0,0E0,0E0,0E0,0E0,0E0,0E0,0E0,0E0,0E0,0E0,0E0,0E0,0E0],"parents":[2147483647,0,0,1,1,2,2,3,3,4,4,5,5,6,6,7,7,8,8,9,9,10,10,11,11,12,12,13,13,14,14],"right_children":[2,4,6,8,10,12,14,16,18,20,22,24,26,28,30,-1,-1,-1,-1,-1,-1,-1,-1,-1,-1,-1,-1,-1,-1,-1,-1],"split_conditions":[1E0,5.484671E-1,3E0,1.3333334E-1,3.24E3,9.328589E-1,5E0,3.7175E3,2.7636898E-1,2.361111E-1,4.409734E-1,4E0,6.5E1,5.605E3,2.5E1,-1.568289E-2,-3.422702E-2,-1.9667594E-2,-2.7115128E-3,4.5453105E-3,2.1968327E-2,-1.4933814E-2,6.8876306E-3,2.6973085E-3,3.1811047E-2,1.9123107E-2,-1.0424206E-2,2.4699274E-2,8.902043E-3,-9.966358E-3,3.3166375E-2],"split_indices":[12,0,12,15,14,0,12,14,11,15,11,7,1,4,1,0,0,0,0,0,0,0,0,0,0,0,0,0,0,0,0],"split_type":[0,0,0,0,0,0,0,0,0,0,0,0,0,0,0,0,0,0,0,0,0,0,0,0,0,0,0,0,0,0,0],"sum_hessian":[2.9998588E4,1.8380732E4,1.1617855E4,1.1717588E4,6.6631445E3,8.149119E3,3.4687363E3,3.9268472E3,7.7907407E3,3.5842268E3,3.0789177E3,5.81285E3,2.3362688E3,2.0909436E3,1.3777928E3,1.74163E3,2.1852173E3,2.6343035E3,5.156437E3,2.7473945E3,8.3683234E2,1.7184506E3,1.3604672E3,5.5273564E3,2.854935E2,2.2439885E3,9.2280304E1,1.5185035E3,5.724401E2,3.0092854E1,1.3477E3],"tree_param":{"num_deleted":"0","num_feature":"25","num_nodes":"31","size_leaf_vector":"1"}},{"base_weights":[-1.4622421E-3,-1.5948717E-1,2.1855783E-1,-6.470221E-2,-3.5380608E-1,1.3550816E-1,5.0347716E-1,-9.4875894E-2,4.6945286E-1,-1.3485676E-1,-4.615227E-1,1.8939963E-1,-1.154629E-1,4.5189834E-1,7.077302E-1,2.6466786E-3,-1.0299823E-2,-1.1470162E-2,3.0261463E-2,-3.7574978E-3,-3.5705578E-2,-3.2625567E-2,-1.4436166E-2,7.547978E-3,2.4447674E-2,-1.5177674E-2,4.6288664E-3,1.6461378E-2,2.5849415E-2,1.918663E-2,3.8030278E-2],"categories":[],"categories_nodes":[],"categories_segments":[],"categories_sizes":[],"default_left":[0,0,0,0,0,0,0,0,0,0,0,0,0,0,0,0,0,0,0,0,0,0,0,0,0,0,0,0,0,0,0],"id":43,"left_children":[1,3,5,7,9,11,13,15,17,19,21,23,25,27,29,-1,-1,-1,-1,-1,-1,-1,-1,-1,-1,-1,-1,-1,-1,-1,-1],"loss_changes":[1.0313788E3,3.1795978E2,2.9334003E2,1.8709192E2,1.3342621E2,1.2989786E2,2.9159851E1,1.8044585E2,5.9034317E1,6.4544205E1,1.249986E2,9.095615E1,6.647492E1,1.7690063E1,9.342682E0,0E0,0E0,0E0,0E0,0E0,0E0,0E0,0E0,0E0,0E0,0E0,0E0,0E0,0E0,0E0,0E0],"parents":[2147483647,0,0,1,1,2,2,3,3,4,4,5,5,6,6,7,7,8,8,9,9,10,10,11,11,12,12,13,13,14,14],"right_children":[2,4,6,8,10,12,14,16,18,20,22,24,26,28,30,-1,-1,-1,-1,-1,-1,-1,-1,-1,-1,-1,-1,-1,-1,-1,-1],"split_conditions":[6.1024314E-1,5.8E1,1E0,4E0,3.505E3,5.8E1,1.0001091E0,5.348E3,4.5947978E-1,6.6E1,6.552927E-2,1.0001091E0,1.2631579E-1,1.8129893E-1,6.451613E-2,2.6466786E-3,-1.0299823E-2,-1.1470162E-2,3.0261463E-2,-3.7574978E-3,-3.5705578E-2,-3.2625567E-2,-1.4436166E-2,7.547978E-3,2.4447674E-2,-1.5177674E-2,4.6288664E-3,1.6461378E-2,2.5849415E-2,1.918663E-2,3.8030278E-2],"split_indices":[0,1,6,7,14,1,0,4,3,3,0,0,15,3,15,0,0,0,0,0,0,0,0,0,0,0,0,0,0,0,0],"split_type":[0,0,0,0,0,0,0,0,0,0,0,0,0,0,0,0,0,0,0,0,0,0,0,0,0,0,0,0,0,0,0],"sum_hessian":[2.9662035E4,1.7263299E4,1.2398736E4,1.1604287E4,5.6590117E3,9.601516E3,2.7972212E3,1.09846045E4,6.1968286E2,1.8667761E3,3.7922356E3,7.904428E3,1.6970872E3,2.235832E3,5.6138916E2,4.7142993E3,6.2703057E3,1.00696625E2,5.189862E2,1.6933622E3,1.7341391E2,1.7999941E3,1.9922415E3,7.00679E3,8.976385E2,8.9103625E2,8.060509E2,7.771833E2,1.4586488E3,7.992152E1,4.8146762E2],"tree_param":{"num_deleted":"0","num_feature":"25","num_nodes":"31","size_leaf_vector":"1"}},{"base_weights":[7.322747E-3,-1.3528371E-1,2.3588948E-1,-3.5770732E-1,-2.8558873E-2,1.284698E-1,4.4743633E-1,1.8883063E-1,-4.221751E-1,-1.1120561E-1,1.4336371E-1,4.1126862E-2,3.538587E-1,3.7430653E-1,6.525374E-1,2.6542703E-2,-6.337645E-3,-3.022227E-2,-1.5016476E-2,2.625498E-3,-1.2988299E-2,1.0796831E-2,-1.1435516E-2,-1.683456E-2,4.6062E-3,2.18669E-2,8.743639E-3,1.8899111E-2,-1.388496E-1,-1.2134288E-2,3.393171E-2],"categories":[],"categories_nodes":[],"categories_segments":[],"categories_sizes":[],"default_left":[0,0,0,0,0,0,0,0,0,0,0,0,0,0,0,0,0,0,0,0,0,0,0,0,0,0,0,0,0,0,0],"id":44,"left_children":[1,3,5,7,9,11,13,15,17,19,21,23,25,27,29,-1,-1,-1,-1,-1,-1,-1,-1,-1,-1,-1,-1,-1,-1,-1,-1],"loss_changes":[9.7110504E2,4.3549927E2,2.6005817E2,2.0967511E2,1.7618799E2,1.4946378E2,5.756958E1,6.7888275E1,1.1799866E2,2.0368378E2,1.08754265E2,1.0549317E2,3.1607819E1,3.398929E1,2.3802124E1,0E0,0E0,0E0,0E0,0E0,0E0,0E0,0E0,0E0,0E0,0E0,0E0,0E0,0E0,0E0,0E0],"parents":[2147483647,0,0,1,1,2,2,3,3,4,4,5,5,6,6,7,7,8,8,9,9,10,10,11,11,12,12,13,13,14,14],"right_children":[2,4,6,8,10,12,14,16,18,20,22,24,26,28,30,-1,-1,-1,-1,-1,-1,-1,-1,-1,-1,-1,-1,-1,-1,-1,-1],"split_conditions":[1E0,1.1504784E-1,1E0,3.5E1,2.264151E-1,1E0,5E0,2.8E3,1.2727273E-1,1E0,6.666E3,4.0201116E-2,8.603738E0,5.392E3,2.5E1,2.6542703E-2,-6.337645E-3,-3.022227E-2,-1.5016476E-2,2.625498E-3,-1.2988299E-2,1.0796831E-2,-1.1435516E-2,-1.683456E-2,4.6062E-3,2.18669E-2,8.743639E-3,1.8899111E-2,-1.388496E-1,-1.2134288E-2,3.393171E-2],"split_indices":[12,0,6,1,15,8,12,14,15,16,14,0,10,3,1,0,0,0,0,0,0,0,0,0,0,0,0,0,0,0,0],"split_type":[0,0,0,0,0,0,0,0,0,0,0,0,0,0,0,0,0,0,0,0,0,0,0,0,0,0,0,0,0,0,0],"sum_hessian":[2.9791006E4,1.8345416E4,1.1445591E4,5.947652E3,1.2397763E4,7.592078E3,3.8535132E3,6.2733887E2,5.320313E3,8.373028E3,4.0247346E3,5.4725376E3,2.1195403E3,2.8427437E3,1.0107694E3,3.007306E2,3.2660825E2,2.130024E3,3.1902893E3,3.9836443E3,4.3893843E3,3.36819E3,6.565446E2,6.50159E2,4.8223784E3,1.4444181E3,6.7512225E2,2.8403108E3,2.4328983E0,2.839536E1,9.82374E2],"tree_param":{"num_deleted":"0","num_feature":"25","num_nodes":"31","size_leaf_vector":"1"}},{"base_weights":[-7.8915255E-3,-1.7952284E-1,1.7402117E-1,-8.095354E-2,-3.7238908E-1,9.418578E-2,4.8004714E-1,-1.0380582E-1,6.989697E-1,-4.2838752E-1,1.06450334E-1,5.0390974E-2,4.3343663E-1,4.8703715E-1,-8.810414E-1,1.993884E-2,-7.125755E-3,7.777918E-3,4.674771E-2,-2.3285955E-2,9.514218E-3,-2.1665791E-2,1.6737768E-2,7.3618715E-4,2.292578E-2,2.5282606E-2,2.5539743E-3,1.8016838E-2,2.7506137E-2,-1.8934733E-1,-1.8124677E-2],"categories":[],"categories_nodes":[],"categories_segments":[],"categories_sizes":[],"default_left":[0,0,0,0,0,0,0,0,0,0,0,0,0,0,0,0,0,0,0,0,0,0,0,0,0,0,0,0,0,0,0],"id":45,"left_children":[1,3,5,7,9,11,13,15,17,19,21,23,25,27,29,-1,-1,-1,-1,-1,-1,-1,-1,-1,-1,-1,-1,-1,-1,-1,-1],"loss_changes":[9.236391E2,2.8934384E2,3.5082797E2,1.7963347E2,1.3808514E2,1.6922263E2,2.8696777E1,1.9049297E2,3.6648285E1,1.0654224E2,6.666581E1,1.468697E2,3.5932465E1,2.3433899E1,2.203881E1,0E0,0E0,0E0,0E0,0E0,0E0,0E0,0E0,0E0,0E0,0E0,0E0,0E0,0E0,0E0,0E0],"parents":[2147483647,0,0,1,1,2,2,3,3,4,4,5,5,6,6,7,7,8,8,9,9,10,10,11,11,12,12,13,13,14,14],"right_children":[2,4,6,8,10,12,14,16,18,20,22,24,26,28,30,-1,-1,-1,-1,-1,-1,-1,-1,-1,-1,-1,-1,-1,-1,-1,-1],"split_conditions":[4.950174E-1,5.8E1,1E0,5E0,3E0,3.2E-1,1.3E4,2.9E1,6.425121E-1,1E0,4.777113E-1,1.009136E0,6.27E3,1.93098E-1,9.60245E0,1.993884E-2,-7.125755E-3,7.777918E-3,4.674771E-2,-2.3285955E-2,9.514218E-3,-2.1665791E-2,1.6737768E-2,7.3618715E-4,2.292578E-2,2.5282606E-2,2.5539743E-3,1.8016838E-2,2.7506137E-2,-1.8934733E-1,-1.8124677E-2],"split_indices":[0,1,6,7,7,15,14,1,3,8,3,0,14,3,10,0,0,0,0,0,0,0,0,0,0,0,0,0,0,0,0],"split_type":[0,0,0,0,0,0,0,0,0,0,